tree
version=v3
num_class=1
num_tree_per_iteration=1
label_index=0
max_feature_idx=81
objective=binary sigmoid:1
feature_names=ps_ind_01 ps_ind_02_cat ps_ind_03 ps_ind_04_cat ps_ind_05_cat ps_ind_06_bin ps_ind_07_bin ps_ind_08_bin ps_ind_09_bin ps_ind_10_bin ps_ind_11_bin ps_ind_12_bin ps_ind_13_bin ps_ind_14 ps_ind_15 ps_ind_16_bin ps_ind_17_bin ps_ind_18_bin ps_reg_01 ps_reg_02 ps_reg_03 ps_car_01_cat ps_car_02_cat ps_car_03_cat ps_car_04_cat ps_car_05_cat ps_car_06_cat ps_car_07_cat ps_car_08_cat ps_car_09_cat ps_car_10_cat ps_car_11_cat ps_car_11 ps_car_12 ps_car_13 ps_car_14 ps_car_15 ps_calc_01 ps_calc_02 ps_calc_03 ps_calc_04 ps_calc_05 ps_calc_06 ps_calc_07 ps_calc_08 ps_calc_09 ps_calc_10 ps_calc_11 ps_calc_12 ps_calc_13 ps_calc_14 ps_calc_15_bin ps_calc_16_bin ps_calc_17_bin ps_calc_18_bin ps_calc_19_bin ps_calc_20_bin missing bin_sum ps_ind_06_bin_target_en ps_ind_07_bin_target_en ps_ind_08_bin_target_en ps_ind_09_bin_target_en ps_ind_12_bin_target_en ps_ind_16_bin_target_en ps_ind_17_bin_target_en ps_ind_18_bin_target_en ps_ind_04_cat_target_en ps_ind_05_cat_target_en ps_car_01_cat_target_en ps_car_02_cat_target_en ps_car_03_cat_target_en ps_car_04_cat_target_en ps_car_06_cat_target_en ps_car_07_cat_target_en ps_car_08_cat_target_en ps_car_09_cat_target_en ps_car_11_cat_target_en ps_ind_01_target_en ps_ind_03_target_en ps_ind_15_target_en ps_car_11_target_en
feature_infos=[0:7] [-1:4] [0:11] [-1:1] [-1:6] [0:1] [0:1] [0:1] [0:1] [0:1] [0:1] [0:1] [0:1] [0:4] [0:13] [0:1] [0:1] [0:1] [0:0.90000000000000002] [0:1.8] [-1:4.0379450218999997] [-1:11] [-1:1] [-1:1] [0:9] [-1:1] [0:17] [-1:1] [0:1] [-1:4] [0:2] [1:104] [-1:3] [0.14142135619999999:1.2649110641000001] [0.28733601139999998:3.7206260026] [-1:0.63166446789999997] [0:3.7416573868] [0:0.90000000000000002] [0:0.90000000000000002] [0:0.90000000000000002] [0:5] [0:6] [0:10] [0:9] [2:12] [0:7] [0:23] [0:19] [0:10] [0:12] [0:22] [0:1] [0:1] [0:1] [0:1] [0:1] [0:1] [0:8] [1:10] [0.028796006953702422:0.041417801859730326] [0.032792772413013052:0.046994490920220365] [0.035355235458733807:0.042012395001024383] [0.033127705258852801:0.037199823778104685] [0.036320772717443384:0.04973238180196253] [0.032653813637432701:0.043835429873217119] [0.033813575110227909:0.055625130452932582] [0.036087796016221016:0.038423726036375554] [0.034981623668570896:0.39393939393939392] [0.033953393682296794:0.07953549517966696] [0.029015211723205196:0.31395348837209303] [0:0.049675304595213063] [0.03286230893123044:0.048200935107175928] [0.015463917525773196:0.076923076923076927] [0.031845011424219347:0.073256840247131513] [0.034848433492639164:0.074466921815199566] [0.034699216224951521:0.045084728842746266] [0.033317045571443264:0.092243186582809222] [0.017689123071132858:0.075238853503184711] [0.033192090395480225:0.044790652385589096] [0.029437321828742168:0.060892770499757401] [0.030159570024227908:0.045872170439414113] [0:0.047188512304791375]
tree_sizes=1753 1793 1782 1784 1792 1790 1789 1788 1793 1799 1795 1793 1796 1802 1787 1799 1799 1815 1801 1816 1807 1797 1809 1806 1803 1797 1790 1801 1795 1790 1792 1797 1793 1798 1797 1805 1805 1815 1789 1784 1799 1805 1803 1791 1800 1799 1804 1791 1799 1791 1790 1805 1797 1800 1801 1796 1799 1790 1786 1785 1788 1789 1786 1789 1783 1785 1807 1796 1798 1791 1792 1788 1785 1789 1789 1800 1790 1781 1777 1788 1781 1784 1792 1773 1783 1791 1786 1796 1790 1784 1798 1794 1797 1798 1773 1785 1788 1783 1790

Tree=0
num_leaves=15
num_cat=0
split_feature=34 68 68 65 34 65 20 19 20 77 34 23 23 34
split_gain=901.833 482.296 312.382 271.57 182.541 182.333 161.909 144.178 126.483 61.5339 54.3288 53.3842 52.6282 49.0383
threshold=0.83253198380000015 0.045130555773414786 0.049930346678314162 0.044719352781580256 1.0971916629500003 0.044719352781580256 0.96614567940000007 0.55000000000000016 0.7772145518500001 0.050374009554417287 0.60615813605000002 -1.0000000180025095e-35 -1.0000000180025095e-35 1.3511894052500002
decision_type=2 2 2 2 2 2 2 2 2 2 2 2 2 2
left_child=2 3 5 4 9 8 -3 -4 -1 -2 -10 -7 -5 -6
right_child=1 6 7 12 13 11 -8 -9 10 -11 -12 -13 -14 -15
leaf_value=-3.3119111266332775 -3.2783907487463204 -3.1974027127737021 -3.2589736502743936 -3.2290219834679794 -3.2423860799867597 -3.2772754679853495 -3.0871936387064531 -3.1661310372257119 -3.3155177299005372 -3.2377157211402969 -3.2810348492292345 -3.231476134416742 -3.1761736637018796 -3.1992656249280857
leaf_weight=5384.3252776712179 3147.0197397395968 363.79437216371298 689.94152288138866 324.35609820485115 837.96674526482821 617.14050603657961 210.39599224179983 220.79112055152655 550.5203762948513 421.77530743181705 2686.7894812971354 433.11864001303911 449.65953674912453 384.86557819694281
leaf_count=153318 89611 10359 19646 9236 23861 17573 5991 6287 15676 12010 76506 12333 12804 10959
internal_value=-3.27477 -3.24428 -3.29246 -3.25328 -3.26216 -3.29773 -3.15702 -3.23647 -3.30252 -3.27358 -3.2869 -3.25839 -3.19832 -3.22881
internal_weight=0 6139.83 10582.6 5565.64 4791.63 9671.89 574.19 910.733 8621.64 3568.8 3237.31 1050.26 774.016 1222.83
internal_count=476170 174831 301339 158481 136441 275406 16350 25933 245500 101621 92182 29906 22040 34820
is_linear=0
shrinkage=1


Tree=1
num_leaves=15
num_cat=0
split_feature=34 27 4 77 15 5 79 79 15 69 23 23 2 15
split_gain=721.807 254.083 262.377 165.877 157.084 108.494 86.0698 85.2056 70.4021 64.5418 51.6795 50.566 45.7658 39.8678
threshold=0.94136572140000008 1.0000000180025095e-35 1.5000000000000002 0.033003767338649119 1.0000000180025095e-35 1.0000000180025095e-35 0.034524521215013738 0.038620228488081505 1.0000000180025095e-35 0.032521352734676351 1.0000000180025095e-35 -1.0000000180025095e-35 1.5000000000000002 1.0000000180025095e-35
decision_type=2 2 2 2 2 2 2 2 2 2 2 2 2 2
left_child=1 11 3 9 6 13 -2 -6 10 -3 -5 -1 -11 -4
right_child=4 2 5 8 7 -7 -8 -9 -10 12 -12 -13 -14 -15
leaf_value=0.023000511225168357 0.037688491739356851 -0.040093980992279406 0.092207215102027451 0.0031266964983049381 0.0092857181122940526 -0.0031528337986585415 0.088603486889742455 0.050326929686907489 -0.013932995317276332 0.0071984299175654135 0.048996994642203501 0.073882520140230931 -0.025212561099098526 0.039879452529405536
leaf_weight=497.08673910424113 585.88166586309671 3151.2920749858022 218.13495520502329 1313.2895570360124 1472.062930945307 542.94987384229898 766.24154433235526 770.69847430661321 3178.189165301621 521.15604107826948 302.11844102293253 321.72124995663762 2655.9689648263156 437.8542518876493
leaf_count=14324 15945 91927 5914 37454 40907 15065 20648 21145 91664 15120 8335 8910 76945 11867
internal_value=0 -0.010949 -0.0145337 -0.019325 0.0396198 0.0299124 0.0665418 0.023389 -0.00529301 -0.0299538 0.0117055 0.0429928 -0.0198961 0.0572799
internal_weight=0 13139.8 12321 11122 3594.88 1198.94 1352.12 2242.76 4793.6 6328.42 1615.41 818.808 3177.13 655.989
internal_count=476170 377525 354291 321445 98645 32846 36593 62052 137453 183992 45789 23234 92065 17781
is_linear=0
shrinkage=0.1


Tree=2
num_leaves=15
num_cat=0
split_feature=34 68 16 16 34 19 20 68 20 14 69 14 79 79
split_gain=605.573 335.534 179.152 178.729 136.783 128.703 110.225 80.2886 78.8159 58.922 49.157 49.0283 47.6895 45.4655
threshold=0.7817828348000001 0.045130555773414786 1.0000000180025095e-35 1.0000000180025095e-35 1.0971916629500003 0.45000000000000007 0.83796626735000013 0.049930346678314162 0.6292355984500001 7.5000000000000009 0.037777690845836299 8.5000000000000018 0.034524521215013738 0.034524521215013738
decision_type=2 2 2 2 2 2 2 2 2 2 2 2 2 2
left_child=3 2 4 5 8 9 -3 -7 -2 -1 -5 -4 -6 -10
right_child=1 6 11 10 12 7 -8 -9 13 -11 -12 -13 -14 -15
leaf_value=-0.021233280357885152 -0.01879293495772336 0.045703470235429491 0.066794303266851082 -0.00078688096471719513 0.013240492700745309 -0.0094889604422253408 0.11853460397293998 0.053374191881073452 -0.0056344582036669958 -0.041863985386726449 0.043942400859766764 0.020617657791171487 0.051586387850498606 0.018670456654063108
leaf_weight=2755.2457160651684 1708.9916481077671 444.98877784237266 685.29825941100717 486.41193275526166 576.44455929845572 1980.3774361051619 389.85365454480052 226.3974117860198 1379.7214661166072 2782.3267112672329 496.48218090087175 346.0368636213243 741.55365785956383 1740.621499132365
leaf_count=81812 49069 11562 17673 13869 15488 58138 9266 5725 39438 82826 13785 8930 19332 49257
internal_value=0 0.0197106 0.0127325 -0.0183628 0.00626186 -0.023461 0.0797141 -0.0030397 -0.0015308 -0.0315991 0.0218069 0.051301 0.0348153 0.00792356
internal_weight=0 8013.51 7178.67 8727.24 6147.33 7744.35 834.842 2206.77 4829.33 5537.57 982.894 1031.34 1318 3120.34
internal_count=476170 220015 199187 256155 172584 228501 20828 63863 137764 164638 27654 26603 34820 88695
is_linear=0
shrinkage=0.1


Tree=3
num_leaves=15
num_cat=0
split_feature=77 16 68 68 68 16 77 20 20 20 6 20 80 2
split_gain=509.256 223.374 171.218 128.287 110.835 99.7629 88.2082 87.1918 70.9678 67.2478 41.2112 39.6479 37.159 36.7335
threshold=0.037375812730278381 1.0000000180025095e-35 0.049930346678314162 0.045130555773414786 0.038735605104984645 1.0000000180025095e-35 0.052939413527648825 0.84834395505000015 0.6756940480000001 0.64735032380000013 1.0000000180025095e-35 0.97644122935000011 0.033108471651316099 1.5000000000000002
decision_type=2 2 2 2 2 2 2 2 2 2 2 2 2 2
left_child=2 3 5 6 10 8 9 -4 -1 -2 -3 -5 -11 -10
right_child=1 4 7 11 -6 -7 -8 -9 13 12 -12 -13 -14 -15
leaf_value=-0.035734081008274077 -0.013017455540159997 0.030433666833063006 0.0025146357659611976 0.033226441560620205 0.1334021692116906 0.0094730234043300474 0.041176510645572061 0.069501113690532884 0.0079221666498994533 -0.0057497624529614204 0.071757440069491141 0.08198393262490318 0.016984784593525877 -0.019966956526368679
leaf_weight=3429.1262983195484 1901.5572207123041 655.89366528019309 564.238291695714 459.49115127697587 167.06204158812761 925.66411244496703 647.35803909227252 296.38035043329 560.14129941537976 1014.3097371011972 381.82137145847082 261.8017167635262 2468.851721752435 3010.6355602443218
leaf_count=105717 55036 16519 15330 11661 3841 25388 16844 7118 16487 28547 9294 5632 68912 89844
internal_value=0 0.0181425 -0.0167793 0.0110662 0.0578084 -0.0213794 0.00630022 0.0255835 -0.0254593 0.00210734 0.0456385 0.0509235 0.0103644 -0.015592
internal_weight=0 7958.15 8786.19 6753.37 1204.78 7925.57 6032.08 860.619 6999.9 5384.72 1037.72 721.293 3483.16 3570.78
internal_count=476170 216286 259884 186632 29654 237436 169339 22448 212048 152495 25813 17293 97459 106331
is_linear=0
shrinkage=0.1


Tree=4
num_leaves=15
num_cat=0
split_feature=34 68 19 34 23 27 16 59 68 18 16 20 14 16
split_gain=425.833 184.882 132.238 120.529 102.583 84.3164 72.6941 68.744 68.3401 64.2751 46.9185 41.608 39.0428 38.7241
threshold=0.7817828348000001 0.045130555773414786 0.45000000000000007 1.3511894052500002 -1.0000000180025095e-35 1.0000000180025095e-35 1.0000000180025095e-35 0.035106904406716384 0.049930346678314162 0.55000000000000016 1.0000000180025095e-35 0.95737269305000006 5.5000000000000009 1.0000000180025095e-35
decision_type=2 2 2 2 2 2 2 2 2 2 2 2 2 2
left_child=2 3 5 4 9 -1 11 -7 13 -2 -6 -3 -5 -4
right_child=1 6 8 12 10 7 -8 -9 -10 -11 -12 -13 -14 -15
leaf_value=0.022419477802114729 -0.018524211772818676 0.026535271505161957 -0.0076845772562204734 0.089337637637196696 0.015775203115173601 -0.037300133319345202 0.11907456571195306 -0.015087229574537731 0.049161043655681469 0.0068014026664685399 0.048729717792471969 0.073663422599694814 0.034607123231371356 0.031687521866297967
leaf_weight=366.78604051470757 1548.6759804729372 476.07236727699637 1944.541806705296 210.84631994366646 1797.5378153584898 3024.9692505821586 159.79967425018549 2582.827861726284 287.66728292033076 2839.5775727387518 568.71902379766107 308.87588734552264 341.3690035007894 286.62901639193296
leaf_count=10429 43962 11513 58138 4992 50149 94169 3235 79127 6563 78705 13131 6080 8248 7729
internal_value=0 0.0159679 -0.0159294 0.0105855 0.00691318 -0.0240312 0.0575959 -0.0270694 0.00328787 -0.00213636 0.0236957 0.0450801 0.0555043 -0.00262661
internal_weight=0 8251.47 8493.42 7306.73 6754.51 5974.58 944.748 5607.8 2518.84 4388.25 2366.26 784.948 552.215 2231.17
internal_count=476170 220015 256155 199187 185947 183725 20828 173296 72430 122667 63280 17593 13240 65867
is_linear=0
shrinkage=0.1


Tree=5
num_leaves=15
num_cat=0
split_feature=34 20 79 16 68 34 74 14 76 19 5 16 6 14
split_gain=344.911 140.042 135.097 90.9802 90.6504 61.6575 57.1057 53.973 50.6994 47.087 46.8005 40.7448 40.6538 39.0829
threshold=0.83253198380000015 0.75931709950000015 0.034524521215013738 1.0000000180025095e-35 0.049930346678314162 1.1354041404000002 0.042996112171156189 8.5000000000000018 0.043608610015285869 0.45000000000000007 1.0000000180025095e-35 1.0000000180025095e-35 1.0000000180025095e-35 4.5000000000000009
decision_type=2 2 2 2 2 2 2 2 2 2 2 2 2 2
left_child=1 6 8 5 7 9 10 11 13 -4 -1 -3 -5 -2
right_child=2 4 3 12 -6 -7 -8 -9 -10 -11 -12 -13 -14 -15
leaf_value=-0.014743474456575815 0.017104046454263517 0.0010718588551933122 0.0028761980511988888 0.042587194317244788 0.043363457598812001 0.046547323941304952 0.015964348051120542 -0.017909947496668258 0.038974047701029482 0.030082253994020508 -0.033426832949910758 0.040021526176107963 0.09336388443550353 -0.012027456426761087
leaf_weight=2491.3054256588221 615.12802072614431 1898.4443319477141 1464.960948292166 396.01762049645185 466.75332112982869 793.79626964405179 367.06959592550993 1517.0337212663144 298.08906945586205 1124.4712730608881 2903.0262052677572 312.83084462583065 261.99457922577858 1832.4521905221045
leaf_count=77019 16235 56842 39901 8672 10677 18524 10230 45400 7701 28697 92936 8235 5389 49712
internal_value=0 -0.0120811 0.0171528 0.0287821 0.00181758 0.022165 -0.0222011 -0.00338362 3.61212e-05 0.0146905 -0.0247982 0.0065821 0.0628045 -0.0047061
internal_weight=0 9956.46 6786.91 4041.24 4195.06 3383.23 5761.4 3728.31 2745.67 2589.43 5394.33 2211.28 658.012 2447.58
internal_count=476170 301339 174831 101183 121154 87122 180185 110477 73648 68598 169955 65077 14061 65947
is_linear=0
shrinkage=0.1


Tree=6
num_leaves=15
num_cat=0
split_feature=77 23 34 16 16 19 79 14 60 14 77 7 79 80
split_gain=319.609 139.079 87.5745 81.2383 73.4688 66.9806 57.5431 48.3412 39.5354 33.4407 32.6211 32.2246 29.9223 30.7701
threshold=0.03597440465002566 -1.0000000180025095e-35 1.3511894052500002 1.0000000180025095e-35 1.0000000180025095e-35 0.45000000000000007 0.034524521215013738 2.5000000000000004 0.039893631666616712 8.5000000000000018 0.047595815878359586 1.0000000180025095e-35 0.031731913664221026 0.038823041860502498
decision_type=2 2 2 2 2 2 2 2 2 2 2 2 2 2
left_child=3 2 6 5 8 9 -2 -8 10 -1 11 -3 -6 -14
right_child=1 4 -4 -5 12 -7 7 -9 -10 -11 -12 -13 13 -15
leaf_value=-0.019077276450841545 -0.011795520166072659 -0.0088027843472745348 0.058025991730424956 0.012515124675376311 0.0213668015799931 -0.0037361447603344077 0.045105602997793454 0.00462581688088362 0.034684491297635699 -0.036386009129952067 0.040455115069323533 0.02529029771207944 0.041888878219236751 0.08559648762271313
leaf_weight=2768.267871811986 2362.7100368663669 835.49799928814173 273.51585107669234 896.49205753952265 218.47001968696713 1893.1900616176426 328.16150267422199 2920.5470635648817 1037.2583280056715 1870.3680661581457 276.69966974668205 414.92154637351632 315.67198695987463 328.87851708382368
leaf_count=88799 67494 23281 6042 24321 4878 55097 8679 78830 26145 61371 6876 11122 6617 6618
internal_value=0 0.0120985 0.00277207 -0.0157128 0.0281121 -0.0195871 7.88472e-05 0.0087148 0.0196186 -0.0260564 0.00938545 0.00251018 0.0533498 0.0641905
internal_weight=0 9312.33 5884.93 7428.32 3427.4 6531.83 5611.42 3248.71 2564.38 4638.64 1527.12 1250.42 863.021 644.551
internal_count=476170 246582 161045 229588 85537 205267 155003 87509 67424 150170 41279 34403 18113 13235
is_linear=0
shrinkage=0.1


Tree=7
num_leaves=15
num_cat=0
split_feature=69 68 20 15 65 80 36 76 36 27 5 76 5 68
split_gain=251.177 169.73 106.415 98.9063 55.9889 48.5788 44.0302 43.7458 43.1609 42.988 33.361 33.3168 31.352 30.8265
threshold=0.032521352734676351 0.045130555773414786 0.67291340165000013 1.0000000180025095e-35 0.044719352781580256 0.033108471651316099 2.7370892179000008 0.043608610015285869 2.9142135623500005 1.0000000180025095e-35 1.0000000180025095e-35 0.043608610015285869 1.0000000180025095e-35 0.047084384636949826
decision_type=2 2 2 2 2 2 2 2 2 2 2 2 2 2
left_child=2 3 11 7 10 -5 -4 9 -7 -2 -3 -1 -11 -8
right_child=1 4 6 5 -6 8 13 -9 -10 12 -12 -13 -14 -15
leaf_value=-0.029310287349482024 0.049061119281110177 0.046176823012845841 -0.024345886678399622 -0.015820505651232258 0.089315760363395447 -0.016138419105077705 0.0011465134788359395 0.05575002283235702 0.0093694811142753312 0.01740951054833835 0.007284360849889134 0.014804500101620903 -0.0066161944037454335 0.03750078398716683
leaf_weight=3434.888961609453 327.90343867987394 709.07426352053881 634.94239513576031 2010.6309257019311 223.32886055856943 863.18168347142637 1911.9484877046198 286.47113182581961 2865.3321831282228 1950.8780285287648 320.12091031484306 180.17677666433156 752.69812434539199 265.65339194796979
leaf_count=107870 7968 15413 19448 60073 4162 26706 55029 6722 81581 50596 8038 5081 21540 5943
internal_value=0 0.00942522 -0.0157623 0.0046537 0.0439285 -0.00329194 -0.00117472 0.0183975 0.00346419 0.0148677 0.0340797 -0.0271116 0.0107206 0.0055815
internal_weight=0 10309.6 6427.61 9057.1 1252.52 5739.14 2812.54 3317.95 3728.51 3031.48 1029.2 3615.07 2703.58 2177.6
internal_count=476170 282799 193371 255186 27613 168360 80420 86826 108287 80104 23451 112951 72136 60972
is_linear=0
shrinkage=0.1


Tree=8
num_leaves=15
num_cat=0
split_feature=60 7 20 79 79 23 34 16 20 80 80 20 34 14
split_gain=225.388 134.918 97.3114 95.5134 75.9 53.9767 46.6101 43.6576 43.6292 39.0297 32.3882 27.3731 27.1603 26.4046
threshold=0.039893631666616712 1.0000000180025095e-35 0.59450603945000013 0.03828690643743634 0.051331388556757014 -1.0000000180025095e-35 0.63355712295000011 1.0000000180025095e-35 0.47269164445000006 0.033108471651316099 0.033108471651316099 0.81719793405000007 0.97498940450000016 7.5000000000000009
decision_type=2 2 2 2 2 2 2 2 2 2 2 2 2 2
left_child=1 2 13 8 6 10 -4 12 -2 -8 -3 -9 -5 -1
right_child=3 5 4 7 -6 -7 9 11 -10 -11 -12 -13 -14 -15
leaf_value=-0.019015695738399788 -0.017430995774414062 -0.017631929938624308 -0.025800274230291954 0.017036049805415374 0.048252695970179282 0.029424979727461956 -0.017568218922118389 0.034976299430738371 0.012951822726722465 0.0018811340421485121 0.010746379284586971 0.091418156127115929 0.043008970219216555 -0.038144840342609954
leaf_weight=1442.5614655930549 611.24717339500785 615.40779253654182 1253.2578678745776 945.0536044947803 244.09138174913824 1060.4476311542094 1495.9103275146335 151.48664000630379 2084.1127227265388 3325.40387253277 1160.7049990165979 198.54068939760327 701.45487716421485 1443.7898200694472
leaf_count=45740 17797 18163 39716 26483 6206 27101 43195 3135 55971 93283 32832 3615 15524 47409
internal_value=0 -0.00749566 -0.0133716 0.0183414 -0.00642245 0.0115725 -0.00861943 0.0349192 0.00606168 -0.00415342 0.000913539 0.066991 0.0281012 -0.0285843
internal_weight=0 12041.6 9205.01 4691.9 6318.66 2836.56 6074.57 1996.54 2695.36 4821.31 1776.11 350.027 1646.51 2886.35
internal_count=476170 353645 275549 122525 182400 78096 176194 48757 73768 136478 50995 6750 42007 93149
is_linear=0
shrinkage=0.1


Tree=9
num_leaves=15
num_cat=0
split_feature=77 68 6 19 74 79 79 65 21 7 78 68 68 5
split_gain=227.769 120.141 81.9488 59.9081 55.2308 45.0725 44.0621 39.905 39.8524 32.9523 28.9594 28.2911 27.5221 25.3656
threshold=0.03220227610129759 0.055376454097663654 1.0000000180025095e-35 0.45000000000000007 0.042996112171156189 0.034524521215013738 0.034524521215013738 0.044719352781580256 7.5000000000000009 1.0000000180025095e-35 0.03544969203237671 0.049930346678314162 0.066173946708402751 1.0000000180025095e-35
decision_type=2 2 2 2 2 2 2 2 2 2 2 2 2 2
left_child=3 2 4 7 6 -4 -2 13 -8 -10 -7 -5 -3 -1
right_child=1 12 5 11 -6 10 8 -9 9 -11 -12 -13 -14 -15
leaf_value=-0.016760896443266754 -0.014476193764271922 0.035185113035546223 0.0054970748256817411 -0.0051000321245499979 0.030508215042324868 0.016270212580502104 -0.0081341431607564966 0.0038941952678429727 0.0043609237193820904 0.032827225494226973 0.040659485019904164 0.031442785679282138 0.077932357304613578 -0.032997813430404269
leaf_weight=1831.5717582888901 2282.3824524413794 449.30528401955962 1553.2668532487005 1591.583936592564 515.3581580594182 984.11432381160557 1626.7625177185982 533.26807088404894 1311.3946401868016 589.43051753938198 963.49211949855089 244.389608964324 226.56056971475482 2026.869531609118
leaf_count=59889 66571 9328 41129 47687 13259 23825 47063 14906 35416 14590 22150 4903 4391 71063
internal_value=0 0.00873246 0.00592738 -0.015405 -0.000866613 0.0182027 -0.00364963 -0.0217465 0.00335525 0.0131881 0.0283357 -0.000235755 0.0495146 -0.0252903
internal_weight=0 10502.1 9826.2 6227.68 6325.33 3500.87 5809.97 4391.71 3527.59 1900.83 1947.61 1835.97 675.866 3858.44
internal_count=476170 277722 264003 198448 176899 87104 163640 145858 97069 50006 45975 52590 13719 130952
is_linear=0
shrinkage=0.1


Tree=10
num_leaves=15
num_cat=0
split_feature=77 68 15 20 68 18 77 20 74 4 78 6 16 36
split_gain=185.698 92.2209 71.393 70.722 57.0523 46.68 39.4436 31.5327 29.8134 28.1663 24.3314 25.2496 23.9019 22.6714
threshold=0.03220227610129759 0.049930346678314162 1.0000000180025095e-35 0.57527161085000011 0.038735605104984645 0.65000000000000002 0.051015876212985742 0.88617857620000018 0.042996112171156189 3.5000000000000004 0.041830266962389055 1.0000000180025095e-35 1.0000000180025095e-35 2.7370892179000008
decision_type=2 2 2 2 2 2 2 2 2 2 2 2 2 2
left_child=3 2 6 -1 12 7 8 -4 10 -3 11 -2 13 -5
right_child=1 9 5 4 -6 -7 -8 -9 -10 -11 -12 -13 -14 -15
leaf_value=-0.029867113348953797 -0.0040540093995986536 0.065230834650196176 -0.018399648278674022 -0.029439241139739572 0.021152913513847404 0.00576025132150184 0.041306719455479313 0.007355457488585457 0.038194436382987827 0.02665409611537636 0.031772981243840662 0.017026439672716165 0.0089931344284545269 -0.0098473625372424451
leaf_weight=1942.0166271124035 1462.6307612489909 242.65603989362717 1980.5428155250847 795.46781140007079 622.44234039634466 3239.6125828810036 512.36897656321526 625.50915779918432 365.89749061688781 860.25829493813217 367.47839982993901 929.13432806357741 484.6949982829392 2293.8591384161264
leaf_count=67875 39608 4391 59246 27407 15596 90003 11129 16978 7990 17424 8742 22211 13065 74505
internal_value=0 0.00777288 0.00458985 -0.0140887 -0.00678691 -0.00225456 0.0155892 -0.0122179 0.0113728 0.0351415 0.00781599 0.00413516 -0.0116528 -0.0148921
internal_weight=0 10586.1 9483.17 6138.48 4196.46 5845.66 3637.51 2606.05 3125.14 1102.91 2759.24 2391.77 3574.02 3089.33
internal_count=476170 277722 255907 198448 130573 166227 89680 76224 78551 21815 70561 61819 114977 101912
is_linear=0
shrinkage=0.1


Tree=11
num_leaves=15
num_cat=0
split_feature=69 79 15 6 18 36 36 14 77 68 2 79 14 77
split_gain=161.075 92.8137 64.0912 63.5735 54.6671 44.1675 38.1931 29.8771 33.1454 26.9179 25.9504 25.2324 24.1608 23.69
threshold=0.037777690845836299 0.034524521215013738 1.0000000180025095e-35 1.0000000180025095e-35 0.55000000000000016 2.9142135623500005 2.9142135623500005 5.5000000000000009 0.045008454223745151 0.049930346678314162 1.5000000000000002 0.040120398604186917 8.5000000000000018 0.038552893599440273
decision_type=2 2 2 2 2 2 2 2 2 2 2 2 2 2
left_child=3 7 13 4 -1 -4 -6 8 -2 12 -8 -5 -7 -3
right_child=1 2 5 11 6 9 10 -9 -10 -11 -12 -13 -14 -15
leaf_value=-0.028187858714246523 0.0023615588130141158 0.018761253367572131 -0.011816066571317375 -0.0017299445739622369 -0.022449160514746675 0.020058578809489469 0.023956456837082654 -0.010002768929425785 0.049091692129543008 0.037670302793450794 -0.0052564268609712897 0.024256391218410757 -0.0014238060453826444 0.041043487760214742
leaf_weight=2247.4282645843923 985.33597166091204 820.22835056111217 783.74072011560202 1540.2103577926755 1245.9098328575492 1191.5746081508696 359.07701749168336 2367.5318894758821 179.42411191575229 444.87235841713846 1985.5619809962809 493.33628727123141 933.82338516414165 1140.7168259192258
leaf_count=74437 27697 21711 23883 42481 40960 32102 10053 69153 4261 8821 59056 11996 26664 22895
internal_value=0 0.00901187 0.0173618 -0.0106526 -0.0159567 0.00896522 -0.00830079 -0.003552 0.00956005 0.015302 -0.000782529 0.00457431 0.01062 0.0317232
internal_weight=0 8847.25 5314.96 7871.52 5837.98 3354.01 3590.55 3532.29 1164.76 2570.27 2344.64 2033.55 2125.4 1960.95
internal_count=476170 237187 136076 238983 184506 91470 110069 101111 31958 67587 69109 54477 58766 44606
is_linear=0
shrinkage=0.1


Tree=12
num_leaves=15
num_cat=0
split_feature=77 76 16 34 36 18 2 14 71 2 3 77 16 18
split_gain=141.187 65.4413 59.881 50.8326 46.9524 45.865 39.1308 37.9517 38.969 26.2017 24.9793 23.6111 22.7133 21.4445
threshold=0.039121058351888012 0.043608610015285869 1.0000000180025095e-35 0.65892631165000015 1.8660254038000004 0.55000000000000016 1.5000000000000002 5.5000000000000009 0.03584058849232561 5.5000000000000009 1.0000000180025095e-35 0.0594077920653849 1.0000000180025095e-35 0.25000000000000006
decision_type=2 2 2 2 2 2 2 2 2 2 2 2 2 2
left_child=2 3 4 -2 -1 -6 -7 11 9 13 -8 -5 -3 -9
right_child=1 12 -4 7 5 6 10 8 -10 -11 -12 -13 -14 -15
leaf_value=-0.040650990576213811 -0.023841479656699544 0.027281731312451464 0.011829643303564688 0.017525897770249401 -0.020237022159878826 0.015741685646286155 -0.015522654197024449 -0.03843107980874734 0.015491240428768699 0.0091100981781487376 0.00060674987234306157 0.05784044688755037 0.066675068956686623 -0.0066236177538204991
leaf_weight=527.15022849664092 499.71203221566975 498.4166006129235 1238.5616139080375 1836.3006147872657 2665.6209863107651 840.10165024548769 2078.5252862088382 250.94452684931457 1776.4951897766441 987.81311113014817 1784.4933358002454 157.75642065145075 207.21478789672256 1364.4823480211198
leaf_count=18763 15120 12033 31402 44174 90846 24055 67060 7391 41248 24858 54910 3211 3760 37339
internal_value=0 0.00984871 -0.00861338 0.00687145 -0.0118201 -0.00975758 -0.00381808 0.00927938 0.00407269 -0.00371952 -0.00807179 0.0207153 0.0388499 -0.0115647
internal_weight=0 7579.14 9134.45 6873.5 7895.89 7368.74 4703.12 6373.79 4379.74 2603.24 3863.02 1994.06 705.631 1615.43
internal_count=476170 189134 287036 173341 255634 236871 146025 158221 110836 69588 121970 47385 15793 44730
is_linear=0
shrinkage=0.1


Tree=13
num_leaves=15
num_cat=0
split_feature=69 68 20 80 79 14 74 78 34 34 34 0 77 79
split_gain=121.982 76.5786 66.7164 66.335 52.2729 36.9749 33.5041 32.6548 26.3954 26.1688 25.4089 22.1455 21.2078 19.3131
threshold=0.037777690845836299 0.055376454097663654 0.67291340165000013 0.033108471651316099 0.031731913664221026 6.5000000000000009 0.042996112171156189 0.040295505233079128 0.67862129310000008 0.61359217010000011 0.59742041890000019 1.5000000000000002 0.030413194821280447 0.034524521215013738
decision_type=2 2 2 2 2 2 2 2 2 2 2 2 2 2
left_child=2 3 5 12 -5 9 10 8 -6 -1 -4 -7 -2 -12
right_child=1 -3 6 4 7 11 -8 -9 -10 -11 13 -13 -14 -15
leaf_value=-0.038058115074071822 -0.025922962562497029 0.040521182955957052 -0.026904236444969566 -0.0026146344512716544 -0.0069357688252483663 -0.034852419931792181 0.039725032785006886 0.034201983842683262 0.01687878569721752 -0.0025083017140456274 -0.0097029042158833911 -0.013527507108713758 -0.0037384441928719121 0.00606818856739117
leaf_weight=242.12474729306996 568.8614277690649 659.63620791956782 380.16104459762573 1960.9094556029886 571.30121587961912 1408.0910836849362 198.84463133662939 890.85359716974199 2511.2143287900835 1430.0465411674231 1215.7207414731383 744.44231126643717 1777.0650154706091 2149.0995883326977
leaf_count=8966 19152 12428 13063 55770 17791 49129 4615 21721 62044 44709 36086 24669 48281 57746
internal_value=0 0.00773 -0.00940092 0.00511771 0.0107453 -0.0188113 -0.000274787 0.0173386 0.0124651 -0.00765579 -0.00239863 -0.0274773 -0.00911795 0.00037004
internal_weight=0 8939.84 7768.53 8280.21 5934.28 3824.7 3943.83 3973.37 3082.52 1672.17 3744.98 2152.53 2345.93 3364.82
internal_count=476170 237187 238983 224759 157326 127473 111510 101556 79835 53675 106895 73798 67433 93832
is_linear=0
shrinkage=0.1


Tree=14
num_leaves=15
num_cat=0
split_feature=5 68 18 62 2 77 69 69 16 2 20 2 14 77
split_gain=110.299 85.2772 60.9549 55.1727 40.7166 39.3457 31.4317 29.9521 29.0946 26.7857 24.9956 23.4938 22.3002 22.2204
threshold=1.0000000180025095e-35 0.038735605104984645 0.55000000000000016 0.035163764518478753 7.5000000000000009 0.043236293584993472 0.037777690845836299 0.041712491126150282 1.0000000180025095e-35 1.5000000000000002 0.57798133785000017 1.0000000180025095e-35 2.5000000000000004 0.044597633994407339
decision_type=2 2 2 2 2 2 2 2 2 2 2 2 2 2
left_child=1 3 -2 9 5 10 -6 11 -3 -1 -5 -4 -7 -13
right_child=2 8 7 4 6 12 -8 -9 -10 -11 -12 13 -14 -15
leaf_value=0.017922097063280417 -0.025264381959288991 0.020504676286863775 0.032449970558286384 -0.01629561039705428 0.0044822440271145335 0.035643139526287455 0.041996252942321559 0.034277798121943343 0.054642535827280882 -0.013932342669408971 0.0024922434934053629 -0.010307571482109123 0.009297830320297738 0.015984839235199413
leaf_weight=298.1866115052253 2036.2870276700705 1266.4286412280053 153.01126475632191 1025.8159874323756 381.7536274921149 380.63267277181149 538.26145580224693 195.5920799151063 310.95445013977587 2300.7981328386813 2286.5131218992174 3109.495807049796 2060.9309594463557 358.49059723690152
leaf_count=8658 70966 26188 3863 32940 10396 8144 12743 5324 4866 70272 65302 98837 49135 8536
internal_value=0 0.0057395 -0.011293 0.00208307 0.00689663 0.00377334 0.0264301 -0.00383884 0.0272344 -0.0102776 -0.00332628 -0.00589775 0.013405 -0.00758969
internal_weight=0 10850.3 5852.88 9272.89 6673.91 5753.89 920.015 3816.59 1577.38 2598.98 3312.33 3621 2441.56 3467.99
internal_count=476170 288644 187526 257590 178660 155521 23139 116560 31054 78930 98242 111236 57279 107373
is_linear=0
shrinkage=0.1


Tree=15
num_leaves=15
num_cat=0
split_feature=76 5 79 62 27 19 69 14 68 14 15 0 2 16
split_gain=97.0663 85.7705 54.9473 52.446 36.3093 32.5043 31.0994 29.9734 28.3243 26.2648 23.9724 19.0864 20.0366 16.4245
threshold=0.043608610015285869 1.0000000180025095e-35 0.031731913664221026 0.035163764518478753 1.0000000180025095e-35 0.45000000000000007 0.032521352734676351 10.500000000000002 0.038735605104984645 7.5000000000000009 1.0000000180025095e-35 1.0000000180025095e-35 7.5000000000000009 1.0000000180025095e-35
decision_type=2 2 2 2 2 2 2 2 2 2 2 2 2 2
left_child=1 2 -1 7 -3 9 -5 -4 13 -6 11 -8 -13 -2
right_child=8 4 3 6 5 -7 10 -9 -10 -11 -12 12 -14 -15
leaf_value=-0.0090039345835832285 0.012556504286424111 0.016242238627771084 0.0016697636426692916 0.0010559922379230883 -0.011230256919852601 -0.0014388269403822285 0.0084528271112034557 -0.024662380356672797 0.062645202980297604 -0.028209709084070896 0.011286468428779462 0.027631943828141756 0.06130643199019279 0.042649835840802952
leaf_weight=2731.6110128462315 650.54303821921349 407.28209292888641 1607.4472955930978 1549.2229704335332 1826.5873538404703 1330.8888754080981 387.45685505867004 591.28878229483962 198.79604377225041 1817.4996848292649 2218.6950982492417 909.02387434616685 219.32681915909052 251.47274034656584
leaf_count=80708 17365 10472 45103 42901 62205 37759 8350 17946 3722 66131 55873 18333 4379 4923
internal_value=0 -0.00224804 0.00313516 0.00756676 -0.0124639 -0.014814 0.0129675 -0.00541153 0.0284767 -0.0196988 0.0179088 0.027602 0.0341775 0.0209462
internal_weight=0 15596.3 10214.1 7482.46 5382.26 4974.98 5283.73 2198.74 1100.81 3644.09 3734.5 1515.81 1128.35 902.016
internal_count=476170 450160 273593 192885 176567 166095 129836 63049 26010 128336 86935 31062 22712 22288
is_linear=0
shrinkage=0.1


Tree=16
num_leaves=15
num_cat=0
split_feature=77 71 76 80 36 14 34 19 79 32 20 8 79 20
split_gain=90.4715 54.2881 45.4529 38.2193 36.5715 35.566 30.7801 29.5733 26.5369 23.7411 21.9215 18.1501 20.8444 17.9426
threshold=0.030641435014989681 0.043509901580298362 0.043608610015285869 0.033108471651316099 3.6736043311500004 7.5000000000000009 1.3842420426500002 0.25000000000000006 0.041020287646741975 1.0000000180025095e-35 0.57527161085000011 1.0000000180025095e-35 0.038620228488081505 1.0634554426000002
decision_type=2 2 2 2 2 2 2 2 2 2 2 2 2 2
left_child=5 2 3 13 11 8 7 -5 -1 -9 -7 12 -3 -2
right_child=1 4 -4 6 -6 10 -8 9 -10 -11 -12 -13 -14 -15
leaf_value=-0.0082199272309443714 -0.017959302881514105 0.01774404936055551 0.025000668170069434 -0.00841988312041465 -0.0024192633852727062 -0.036199529185252773 0.034957520540914735 0.038843871166203706 0.02061183967462521 0.0044056556914277298 -0.014676966017377772 -0.00095148865939259208 0.039203617014351058 0.0021006681978720937
leaf_weight=1955.0096805393696 1665.4732015561312 1127.6681485604495 700.53278948552907 2119.2455856669694 780.68765258975327 675.03412023000419 280.19621193781495 212.08354016207159 381.53258903324604 3566.3640165645629 1583.0772444680333 279.47154862433672 756.14122399687767 608.90431347489357
leaf_count=65618 51462 27098 16247 63396 17530 26940 5152 5412 11500 93885 53029 7035 15923 15943
internal_value=0 0.00432197 0.000522642 -0.00150612 0.0161341 -0.0121612 0.00257393 0.00103541 -0.00351201 0.00633867 -0.0211109 0.0228297 0.0263577 -0.0125888
internal_weight=0 12096.8 9152.8 8452.27 2943.97 4594.65 6177.89 5897.69 2336.54 3778.45 2258.11 2163.28 1883.81 2274.38
internal_count=476170 319083 251497 235250 67586 157087 167845 162693 77118 99297 79969 50056 43021 67405
is_linear=0
shrinkage=0.1


Tree=17
num_leaves=15
num_cat=0
split_feature=77 79 80 0 20 23 80 80 20 76 77 69 69 23
split_gain=77.014 58.3919 43.0695 41.0113 39.889 29.5165 28.7216 22.0991 19.8982 19.4092 19.0554 17.6307 16.2092 15.3167
threshold=0.028334250012061569 0.034524521215013738 0.039082703806859916 1.5000000000000002 0.47269164445000006 1.0000000180025095e-35 0.033108471651316099 0.039274919207061755 0.87909753070000007 0.033740313428602821 0.050374009554417287 0.029418779728493587 0.029418779728493587 1.0000000180025095e-35
decision_type=2 2 2 2 2 2 2 2 2 2 2 2 2 2
left_child=7 4 5 9 -2 8 -6 -1 12 -4 13 -11 -3 -8
right_child=1 2 3 -5 6 -7 10 -9 -10 11 -12 -13 -14 -15
leaf_value=-0.020588026933594673 -0.023704346241144082 -0.020059799167669472 -0.0086436732389708251 0.029180831894612704 -0.016412195668635384 0.014866691979321892 -0.0029514579949567322 -0.0019211038029533457 0.0065981887791128312 -0.0021126357581814051 0.024648015941283651 0.022396764139514833 -0.0021578169802324207 0.015732375994682139
leaf_weight=2049.8263184968382 969.25890019163489 759.60262001119554 559.24437367729843 1498.9372817296535 960.02558115124702 1380.7494356520474 2352.2723895087838 918.33188741840422 1534.4574832692742 455.34984793886542 369.57329514995217 825.71474268659949 1513.6040402688086 539.37498309090734
leaf_count=73304 31777 25421 14838 34252 29941 31648 69663 30365 37467 13276 8500 18910 43269 13539
internal_value=0 0.00295276 0.00804276 0.0169013 -0.00540978 0.00234142 -0.00120909 -0.0148126 -0.00220054 0.00689962 0.00326634 0.013685 -0.00813985 0.000533612
internal_weight=0 13718.2 8527.66 3339.25 5190.51 5188.41 4221.25 2968.16 3807.66 1840.31 3261.22 1281.06 2273.21 2891.65
internal_count=476170 372501 219081 81276 153420 137805 121643 103669 106157 47024 91702 32186 68690 83202
is_linear=0
shrinkage=0.1


Tree=18
num_leaves=15
num_cat=0
split_feature=65 77 68 77 68 5 80 18 2 27 20 8 0 2
split_gain=70.6723 59.0268 39.4643 33.4606 28.6043 22.7188 20.5755 19.7783 18.7284 16.5167 17.3585 17.4942 16.1941 15.3479
threshold=0.044719352781580256 0.027662713849853367 0.038735605104984645 0.045779272093427838 0.038735605104984645 1.0000000180025095e-35 0.033108471651316099 0.75000000000000011 1.5000000000000002 1.0000000180025095e-35 0.66025558990000011 1.0000000180025095e-35 2.5000000000000004 1.5000000000000002
decision_type=2 2 2 2 2 2 2 2 2 2 2 2 2 2
left_child=1 8 3 5 6 -3 -2 -7 -1 -8 -11 -12 -4 -9
right_child=4 2 12 -5 -6 7 9 13 -10 10 11 -13 -14 -15
leaf_value=0.00092516293435395401 -0.0057379118160949191 -0.0013372044656173216 0.0073512196686031719 0.010969947829750609 0.037394231026028915 -0.019235745982358443 0.042564398498517675 0.025004417217109359 -0.02234662496144172 -0.0038214531023013452 0.026451098639652195 -0.0091092263929346915 0.028463066037390211 -0.0070936153042918323
leaf_weight=427.30832004547119 602.20576539449394 5656.4880868140608 1169.6375589314848 1544.8025806732476 461.54719653166831 1684.1075572948903 203.58116424456239 174.11593383178115 1813.199682302773 459.82860811986029 756.51477110758424 169.30582376010716 527.0538557767868 1031.4053115230054
leaf_count=14225 15029 162698 26087 37107 7500 61131 3629 5278 68110 11545 15789 4000 10332 33710
internal_value=0 -0.00302956 -0.00020152 -0.00257412 0.0147684 -0.00502236 0.0100031 -0.0122361 -0.0179082 0.0159678 0.0120602 0.0199481 0.0139093 -0.00245763
internal_weight=0 14028.1 11787.6 10090.9 2652.98 8546.12 2191.44 2889.63 2240.51 1589.23 1385.65 925.821 1696.69 1205.52
internal_count=476170 418678 336343 299924 57492 262817 49992 100119 82335 34963 31334 19789 36419 38988
is_linear=0
shrinkage=0.1


Tree=19
num_leaves=15
num_cat=0
split_feature=27 5 18 4 80 79 20 77 73 20 4 77 33 80
split_gain=61.1274 54.9811 36.8153 33.0093 30.8503 22.4973 14.3571 14.3031 13.6014 14.2215 12.4412 12.3949 12.1556 13.2432
threshold=1.0000000180025095e-35 1.0000000180025095e-35 0.55000000000000016 1.0000000180025095e-35 0.033108471651316099 0.038620228488081505 0.74351358820000013 0.046645802319331617 0.048454603147197829 0.49021668520000006 1.5000000000000002 0.036549787886490395 0.31614868930000006 0.033108471651316099
decision_type=2 2 2 2 2 2 2 2 2 2 2 2 2 2
left_child=-1 3 -3 4 11 8 -7 10 9 -6 12 -2 -4 -14
right_child=1 2 7 -5 5 6 -8 -9 -10 -11 -12 -13 13 -15
leaf_value=0.01870648168487064 -0.018575785729193751 -0.022111230026977832 -0.033830776316818002 0.01661913269855201 -0.014852145396365708 0.0024521102617391264 0.020785933751113567 0.015276561972012805 0.013781280495385099 0.00062629872785012746 0.011008680065661955 -0.0038668083733539404 -0.019218962362022144 -0.0027569370027731928
leaf_weight=1552.5155149754137 951.28098555840552 1782.4857826400548 181.33324033766985 1374.2573892008513 736.66468970663846 727.72386386990547 1034.0677561275661 333.92893376201391 603.64348440989852 3056.4560542851686 358.17056486010551 1440.3192941434681 660.11163077875972 1881.7393478211015
leaf_count=33625 33676 67472 7112 26445 23757 20112 24439 7540 13628 85476 9400 39173 23360 60955
internal_value=0 -0.00212988 -0.0104618 0.00223383 -7.83054e-05 0.00366493 0.013213 -0.00438174 -0.000160986 -0.00237978 -0.00651212 -0.00971744 -0.00881657 -0.00703208
internal_weight=0 15122.2 5197.77 9924.41 8550.16 6158.56 1761.79 3415.28 4396.76 3793.12 3081.35 2391.6 2723.18 2541.85
internal_count=476170 442545 175839 266706 240261 167412 44551 108367 122861 109233 100827 72849 91427 84315
is_linear=0
shrinkage=0.1


Tree=20
num_leaves=15
num_cat=0
split_feature=34 2 57 80 77 16 78 68 20 34 16 76 20 0
split_gain=58.9232 52.5645 43.0618 40.8641 32.0811 25.1653 22.2974 21.9693 23.2209 18.2093 17.7119 15.1943 13.7275 13.5823
threshold=0.60615813605000002 1.0000000180025095e-35 1.0000000180025095e-35 0.037138964882561937 0.045779272093427838 1.0000000180025095e-35 0.044000933534365481 0.055376454097663654 0.8244316006000002 1.0971916629500003 1.0000000180025095e-35 0.035289331139450479 0.48509009085000004 3.5000000000000004
decision_type=2 2 2 2 2 2 2 2 2 2 2 2 2 2
left_child=5 11 10 7 6 -1 9 8 -4 12 -3 -2 -5 -10
right_child=1 2 3 4 -6 -7 -8 -9 13 -11 -12 -13 -14 -15
leaf_value=-0.023717611596317304 0.011966937549734491 0.0056334705177367647 -0.016908366390051676 -0.013902966831777922 0.020710316393423033 0.013732987668005465 0.026838027533658122 0.016479751691375177 0.0035239164356138716 0.016051360290115727 0.020960311664679064 0.048837537204737762 -0.00059185529088291787 -0.014097379246704312
leaf_weight=1346.3958396259695 182.13958344236016 2683.6772397812456 2710.9707233160734 1017.7289606947452 879.60685193166137 207.01321360841393 292.25635839439929 311.91170532628894 1265.7469304837286 520.02448053844273 1048.5757193341851 289.28943716734648 3245.1036162022501 668.41224259696901
leaf_count=50893 3749 71846 93275 33966 19097 5806 7695 6650 35745 10108 19599 6175 93513 18053
internal_value=0 0.00172552 0.000667446 -0.00250398 0.0030795 -0.0187268 2.37632e-05 -0.00921121 -0.0109363 -0.00161472 0.00993954 0.0345923 -0.00376981 -0.0025657
internal_weight=0 15115.4 14644 10911.8 5954.72 1553.41 5075.11 4957.04 4645.13 4782.86 3732.25 471.429 4262.83 1934.16
internal_count=476170 419471 409547 318102 164379 56699 145282 153723 147073 137587 91445 9924 127479 53798
is_linear=0
shrinkage=0.1


Tree=21
num_leaves=15
num_cat=0
split_feature=76 79 69 18 14 18 34 34 14 35 67 34 67 21
split_gain=50.5552 48.0177 36.3281 31.678 20.7585 20.4204 19.3693 17.6192 16.7337 16.2079 14.6914 14.6272 18.0313 13.826
threshold=0.043608610015285869 0.034524521215013738 0.032521352734676351 0.35000000000000003 7.5000000000000009 0.65000000000000002 0.63355712295000011 0.5923496426 5.5000000000000009 0.42538217705000009 0.036681335331393387 0.61359217010000011 0.036681335331393387 7.5000000000000009
decision_type=2 2 2 2 2 2 2 2 2 2 2 2 2 2
left_child=1 3 11 13 -4 -2 -6 -5 9 -9 -10 -3 -13 -1
right_child=5 2 4 7 6 -7 -8 8 10 -11 -12 12 -14 -15
leaf_value=-0.032383840784392735 0.046904575745032817 -0.020872220258374458 0.012837981536580244 -0.026764159481786527 -0.020067007123121539 0.013412359568369059 0.0042678908876440423 0.0010577959438864898 -0.015207264275064135 0.031777649793008587 -0.00053450583691000821 -0.0086519686896141257 0.0075517421973310657 -0.010363795611015589
leaf_weight=706.20582426711917 225.42545686848462 528.11929701268673 3181.3206586763263 348.44821095094085 372.96941452659667 945.96090063638985 2658.4069337453693 1309.5751457642764 1396.8980695158243 197.67105496674776 1334.1549418121576 1906.5458365939558 1073.3935186844319 478.23603182658553
leaf_count=26260 5128 20607 73661 13620 12619 20882 67625 38304 44636 4784 41176 60401 31205 15262
internal_value=0 -0.00168801 0.00260173 -0.00891346 0.00719545 0.0198577 0.00127381 -0.00514858 -0.00337148 0.00508662 -0.00803943 -0.00553366 -0.00281529 -0.0234929
internal_weight=0 15491.9 9720.76 5771.19 6212.7 1171.39 3031.38 4586.75 4238.3 1507.25 2731.05 3508.06 2979.94 1184.44
internal_count=476170 450160 266118 184042 153905 26010 80244 142520 128900 43088 85812 112213 91606 41522
is_linear=0
shrinkage=0.1


Tree=22
num_leaves=15
num_cat=0
split_feature=71 34 79 36 34 18 69 8 14 77 79 20 80 3
split_gain=45.187 38.6469 35.6551 28.5776 27.8559 25.2209 22.0577 19.8803 19.6355 19.3006 19.2514 18.4032 12.0007 12.4993
threshold=0.043509901580298362 0.67862129310000008 0.051331388556757014 3.6736043311500004 1.3511894052500002 0.55000000000000016 0.039253450083811849 1.0000000180025095e-35 4.5000000000000009 0.045779272093427838 0.03723337769424679 0.91532096605000002 0.033108471651316099 1.0000000180025095e-35
decision_type=2 2 2 2 2 2 2 2 2 2 2 2 2 2
left_child=1 11 4 7 5 6 8 10 -3 12 -2 -1 -7 -14
right_child=3 2 -4 -5 -6 9 -8 -9 -10 -11 -12 -13 13 -15
leaf_value=-0.016759300552486471 0.0065791739059462839 0.0019601031593218994 0.034909760101163471 -0.0060639434011751274 0.022679733150667805 -0.0089866578071621846 0.00017780666403549456 -0.0053521068321895366 -0.023234545445642036 0.015616117650559256 0.02505267617991502 0.00067057986870444283 -0.0026094701965192852 0.0090405669729250945
leaf_weight=2430.8971446473151 909.68477874808013 407.85293302312493 287.20427118241787 890.17536597512662 477.33190757781267 1295.4149357210845 1300.8707252200693 428.52032371982932 1280.5638139452785 848.38875434175134 1484.9464124944061 806.82094591856003 2251.862215410918 1558.1957356985658
leaf_count=91736 24075 12742 6029 20457 8447 39441 37380 11569 44850 18784 32445 24631 62611 40973
internal_value=0 -0.00295486 0.000200594 0.00955892 -0.000857592 -0.00211387 -0.0096085 0.014485 -0.0171485 0.001649 0.0180349 -0.0124159 -0.000671954 0.00215503
internal_weight=0 12945.4 9707.69 3713.33 9420.48 8943.15 2989.29 2823.15 1688.42 5953.86 2394.63 3237.72 5105.47 3810.06
internal_count=476170 387624 271257 88546 265228 256781 94972 68089 57592 161809 56520 116367 143025 103584
is_linear=0
shrinkage=0.1


Tree=23
num_leaves=15
num_cat=0
split_feature=65 34 79 77 3 78 68 6 34 20 78 80 20 68
split_gain=42.4577 44.9639 28.2056 23.8221 19.2163 23.2243 15.9697 15.1749 14.3162 13.5098 12.0217 12.0054 10.5122 9.78222
threshold=0.044719352781580256 0.61037009495000016 0.051331388556757014 0.045779272093427838 1.0000000180025095e-35 0.03544969203237671 0.038735605104984645 1.0000000180025095e-35 0.99084002050000008 0.49529021840000004 0.041830266962389055 0.035293178030563539 0.68579329835000002 0.045130555773414786
decision_type=2 2 2 2 2 2 2 2 2 2 2 2 2 2
left_child=1 -1 3 4 5 8 10 11 -3 -6 12 -7 -2 -11
right_child=6 2 -4 -5 9 7 -8 -9 -10 13 -12 -13 -14 -15
leaf_value=-0.019546432297049689 -0.0054124326949626673 -0.015207602391469616 0.024503914730743648 0.0091960873258620617 -0.010113667242265784 -0.012748389246577965 0.027565215293339326 0.017012393353008307 0.0029383344284082992 0.0021770146837812258 0.02390227556753749 0.0031282742774559054 0.010158263562481817 0.017411199672800519
leaf_weight=1376.8254173714668 691.74526958912611 2856.6043588053435 435.16993769258261 1803.25472757034 806.74065936356783 807.08929655514657 492.11052931658924 447.95858726091683 512.83233913592994 3236.354079939425 378.59168775193393 1161.9663277547807 1161.8264602199197 484.61787875927985
leaf_count=54286 17742 98041 8989 40538 27956 26306 7500 10624 11946 96372 7723 34207 24527 9413
internal_value=0 -0.00239134 -0.000509696 -0.001408 -0.00326195 -0.00708008 0.0112589 0.00039996 -0.0124458 0.00161765 0.00766401 -0.00337936 0.00434734 0.00416111
internal_weight=0 13929.4 12552.6 12117.4 10314.2 5786.45 2724.27 2417.01 3369.44 4527.71 2232.16 1969.06 1853.57 3720.97
internal_count=476170 418678 364392 355403 314865 181124 57492 71137 109987 133741 49992 60513 42269 105785
is_linear=0
shrinkage=0.1


Tree=24
num_leaves=15
num_cat=0
split_feature=79 16 20 36 74 69 79 3 20 31 73 29 31 21
split_gain=36.6337 27.1429 27.1379 26.4189 15.6985 15.4297 11.819 12.1127 17.7054 11.5151 11.3241 10.1824 9.3636 8.93771
threshold=0.034524521215013738 1.0000000180025095e-35 0.47269164445000006 2.7370892179000008 0.042996112171156189 0.044433530581442712 0.051331388556757014 1.0000000180025095e-35 0.86980599430000016 100.50000000000001 0.033129132064968578 1.0000000180025095e-35 103.50000000000001 5.5000000000000009
decision_type=2 2 2 2 2 2 2 2 2 2 2 2 2 2
left_child=2 3 -1 13 10 6 7 8 12 -6 -4 -12 -5 -2
right_child=1 -3 4 5 9 -7 -8 -9 -10 -11 11 -13 -14 -15
leaf_value=-0.020335104536758627 0.008880206717079479 0.014973113363971769 -0.012953658095515706 -0.0095391683780716701 0.027784947634901882 0.026772224587693978 0.019189567862574305 0.0069037886785168479 0.0068263185132366707 -0.0055101020689870654 -0.010345344907167039 0.0016815930241862052 0.009392335995971033 -0.013868395808415824
leaf_weight=1118.4999680984765 199.08386085368693 1714.0276076663285 1255.3824442978948 2082.6494655590504 269.54448884539306 279.10964291915298 413.3792294356972 2686.5615171771497 1458.586286297068 169.00317915342748 995.40767267346382 2404.1770761478692 298.73483360931277 1303.6954809762537
leaf_count=41304 6474 32815 41909 66888 6781 6279 8430 71015 34372 3643 30938 71692 7451 46179
internal_value=0 0.00346885 -0.00623043 0.00120801 -0.00313315 0.0037191 0.00279195 0.00175335 -0.00185005 0.014954 -0.00483715 -0.00183993 -0.00716429 -0.0108547
internal_weight=0 10435.8 6212.01 8721.8 5093.51 7219.02 6939.91 6526.53 3839.97 438.548 4654.97 3399.58 2381.38 1502.78
internal_count=476170 279903 196267 247088 154963 194435 188156 179726 108711 10424 144539 102630 74339 52653
is_linear=0
shrinkage=0.1


Tree=25
num_leaves=15
num_cat=0
split_feature=80 65 78 6 2 68 2 77 69 80 34 14 35 2
split_gain=33.1513 28.4608 26.6595 23.805 18.7809 15.918 15.8209 15.4694 15.242 16.7766 14.7637 12.9164 12.8209 11.5401
threshold=0.033108471651316099 0.044719352781580256 0.03544969203237671 1.0000000180025095e-35 9.5000000000000018 0.055376454097663654 1.5000000000000002 0.027662713849853367 0.040773129232512244 0.039747150229796316 0.65697937620000013 2.5000000000000004 0.36898503855000003 5.5000000000000009
decision_type=2 2 2 2 2 2 2 2 2 2 2 2 2 2
left_child=3 2 8 6 10 -3 -1 -8 9 -2 12 -12 -4 -9
right_child=1 5 4 -5 -6 -7 7 13 -10 -11 11 -13 -14 -15
leaf_value=0.011648796150910757 -0.013133531445118588 0.010820902487160444 0.00060892828009639314 0.0055376505406853835 0.03738805303566041 0.043749788174378648 -0.02835575956185267 -0.01768853313894788 0.0017655496509592023 0.0025727047105578494 0.022589412066208958 0.0051008476858622597 -0.029978348635843068 -0.0042558449911390727
leaf_weight=271.40420128032565 2303.9774879831821 1858.9578983783722 438.54079810157418 1073.3934898395091 187.52385427430272 159.38973589800298 574.42925332486629 1149.8821448609233 2596.5637984927744 964.89416513033211 493.42405046150088 2930.3270080164075 199.32223824970424 1441.1122440546751
leaf_count=8501 77410 37976 15876 27805 5106 2089 24046 39163 69196 30510 11932 76367 6981 43212
internal_value=0 0.00257913 0.000415592 -0.00746208 0.00644746 0.0134213 -0.0115222 -0.0135089 -0.00395412 -0.00849742 0.00501894 0.00762126 -0.00894912 -0.0102173
internal_weight=0 12132.9 10114.6 4510.22 4249.14 2018.35 3436.83 3165.42 5865.44 3268.87 4061.61 3423.75 637.863 2590.99
internal_count=476170 333443 293378 142727 116262 40065 114922 106421 177116 107920 111156 88299 22857 82375
is_linear=0
shrinkage=0.1


Tree=26
num_leaves=15
num_cat=0
split_feature=76 71 20 69 2 32 2 20 14 35 34 2 14 68
split_gain=32.6562 29.406 24.1973 22.0928 19.7009 16.0476 14.475 13.8986 13.1826 13.8358 11.9312 10.5453 18.0324 10.5882
threshold=0.043608610015285869 0.043509901580298362 0.60182009985000018 0.032521352734676351 1.5000000000000002 1.0000000180025095e-35 1.0000000180025095e-35 0.89913150860000013 4.5000000000000009 0.38203402430000005 1.4301235642500003 7.5000000000000009 11.500000000000002 0.038735605104984645
decision_type=2 2 2 2 2 2 2 2 2 2 2 2 2 2
left_child=1 2 3 8 -2 7 -7 -4 9 -1 -8 13 -13 -3
right_child=4 11 5 -5 -6 6 10 -9 -10 -11 -12 12 -14 -15
leaf_value=-0.018194825135508255 0.047411337586407185 0.00069101648098434201 0.00099269587789084903 -0.0025619887208466292 0.010555481281960537 0.01810759880974418 -0.0031988575808288289 0.041459512110096221 -0.023275859517685401 0.014948117066023057 0.021326319231323731 0.027405700606145385 -0.0078855951283569314 0.016020564076485829
leaf_weight=305.71743114478886 168.54467674158514 2125.6575035806745 175.54039594717324 1802.6503832861781 1039.794445393607 355.13593781925738 7439.656270114705 164.32541253603995 1352.1412449162453 214.21355755068362 203.7961684204638 519.12502434290946 200.78118415363133 571.76784588582814
leaf_count=11821 3321 54905 4676 57295 22689 7482 217576 3816 55165 6922 3423 12035 5516 9528
internal_value=0 -0.00137473 -0.00370305 -0.0104636 0.0156963 -0.000723684 -0.00162798 0.0205584 -0.0180723 -0.00453981 -0.00254495 0.00681017 0.017563 0.00394039
internal_weight=0 15430.5 12013.2 3674.72 1208.34 8338.45 7998.59 339.866 1872.07 519.931 7643.45 3417.33 719.906 2697.43
internal_count=476170 450160 368176 131203 26010 236973 228481 8492 73908 18743 220999 81984 17551 64433
is_linear=0
shrinkage=0.1


Tree=27
num_leaves=15
num_cat=0
split_feature=69 77 68 14 73 78 18 18 18 80 2 19 3 21
split_gain=27.7506 26.0893 18.9142 17.3017 17.5804 15.1737 14.6865 13.741 13.6369 17.0078 12.42 14.8422 12.3171 16.061
threshold=0.042017086352984866 0.028185722774486222 0.038735605104984645 3.5000000000000004 0.033129132064968578 0.033447003397990081 0.35000000000000003 1.0000000180025095e-35 0.8500000000000002 0.038823041860502498 1.5000000000000002 0.25000000000000006 1.0000000180025095e-35 5.5000000000000009
decision_type=2 2 2 2 2 2 2 2 2 2 2 2 2 2
left_child=1 8 3 4 -3 -6 7 -5 9 -1 11 -8 13 -12
right_child=-2 2 -4 6 5 -7 10 -9 -10 -11 12 -13 -14 -15
leaf_value=-0.024308572367259265 0.015974871464892987 -0.011988141855169738 0.0095865745499454126 0.0080864696310883107 -0.0017154928723749369 0.019056504841105763 -0.012362159055730208 -0.015157909018289777 9.7600485897189862e-05 -0.004428874753604972 0.017388771231538834 0.017191193770609167 0.0026649976323496311 -0.0080485521802461223
leaf_weight=960.65749016590416 1005.4650493357331 372.57053939439356 2005.7782280799001 308.96197710186243 526.72540654987097 1058.139049205929 224.57558421418071 1438.0577287189662 842.29586904123425 779.60700548999012 267.74345194920897 698.44846381060779 2742.0164579991251 3403.4172779154032
leaf_count=39353 23818 9744 38711 9521 14529 26211 7118 49619 29725 28070 7375 17945 76315 98116
internal_value=0 -0.00116436 0.000653432 -0.00096947 0.00755806 0.012153 -0.00280715 -0.0110471 -0.0103474 -0.0154028 -0.000844914 0.0100007 -0.00240589 -0.00619337
internal_weight=0 15629 13046.4 11040.7 1957.43 1584.86 9083.22 1747.02 2582.56 1740.26 7336.2 923.024 6413.18 3671.16
internal_count=476170 452352 355204 316493 50484 40740 266009 59140 97148 67423 206869 25063 181806 105491
is_linear=0
shrinkage=0.1


Tree=28
num_leaves=15
num_cat=0
split_feature=27 34 14 60 26 78 19 18 2 2 77 2 68 26
split_gain=25.1034 25.0037 16.6329 19.1314 14.8244 12.5407 12.1399 13.214 15.792 13.1572 13.2932 11.1529 10.962 10.7633
threshold=1.0000000180025095e-35 0.60615813605000002 7.5000000000000009 0.039893631666616712 1.5000000000000002 0.03544969203237671 0.75000000000000011 0.8500000000000002 2.5000000000000004 7.5000000000000009 0.039360841910092113 7.5000000000000009 0.038735605104984645 1.5000000000000002
decision_type=2 2 2 2 2 2 2 2 2 2 2 2 2 2
left_child=4 12 5 6 -1 11 7 9 -9 -4 -11 -3 -2 -7
right_child=1 2 3 -5 -6 13 -8 8 -10 10 -12 -13 -14 -15
leaf_value=0.025064981829291424 -0.018329785742733942 -0.0023894785929032677 -0.017152677737890001 0.0051692637444269779 0.004893181717829851 0.016459953239576271 0.0021467389130703624 0.021573424754859974 -0.0076462427104441221 -0.013253110689770002 0.019324796729963942 0.014811610711485429 0.0075219047515422246 0.0039519286602164513
leaf_weight=547.2088225428015 1125.5714605692774 3638.1539431679994 2112.4556879047304 1705.7123877890408 1090.1023139432073 983.80326996184886 1066.5500295329839 251.66295841708779 697.88504428043962 291.91459806449711 219.38103006593883 420.51248002052307 192.00541125424206 2287.8340306542814
leaf_count=12247 47308 104189 74479 43676 21378 26311 27825 8110 22155 11200 6189 11449 5993 53661
internal_value=0 -0.00140601 -0.000138474 -0.00388675 0.0116348 0.00310627 -0.00721595 -0.0100105 9.79766e-05 -0.0136688 0.000725055 -0.000607299 -0.0145625 0.00771318
internal_weight=0 14993.4 13675.9 6345.56 1637.31 7330.3 4639.85 3573.3 949.548 2623.75 511.296 4058.67 1317.58 3271.64
internal_count=476170 442545 389244 193634 33625 195610 149958 122133 30265 91868 17389 115638 53301 79972
is_linear=0
shrinkage=0.1


Tree=29
num_leaves=15
num_cat=0
split_feature=79 20 14 18 36 35 77 0 18 34 14 77 18 0
split_gain=23.956 18.7188 17.8357 16.1824 14.7622 14.6238 13.6016 12.2102 13.0886 12.1588 12.952 12.0302 11.4402 14.1263
threshold=0.034524521215013738 0.47269164445000006 7.5000000000000009 1.0000000180025095e-35 2.1180339887500002 0.31819804185000006 0.03220227610129759 2.5000000000000004 0.25000000000000006 0.58689193930000016 5.5000000000000009 0.051015876212985742 0.8500000000000002 1.5000000000000002
decision_type=2 2 2 2 2 2 2 2 2 2 2 2 2 2
left_child=1 -1 3 -2 -4 -6 12 8 -5 -3 11 -11 -7 -14
right_child=2 9 4 7 5 6 -8 -9 -10 10 -12 -13 13 -15
leaf_value=-0.017049713651382071 0.034908424850317699 -0.022046452826084108 -0.021133901197709554 -0.014972341243921446 0.012150273868550988 -0.018295432996596521 0.0013331291897085689 0.012672796560636102 0.0044675647046367086 0.0026896765297594913 -0.0052506000487285284 0.029517181478246248 0.023260118412881389 -0.016281627228339726
leaf_weight=1076.837052596733 196.17267818562686 300.29610697738826 357.45281570777297 387.80199844390154 811.15431372448802 802.71288714185357 2638.4875191804022 1693.7270032130182 3239.4919516555965 1548.925165111199 3025.5054727979004 187.37268290482461 177.45508095249534 184.05545216053724
leaf_count=41304 4950 12706 13797 12250 22858 30378 64911 36987 81847 43894 94725 3638 6020 5905
internal_value=0 -0.00507728 0.00278804 0.00670244 -0.00155618 -3.94212e-05 -0.0026396 0.00566256 0.0023892 -0.00253044 -0.0012997 0.00558477 -0.011643 0.00312827
internal_weight=0 6138.94 10488.5 5517.19 4971.32 4613.87 3802.71 5321.02 3627.29 5062.1 4761.8 1736.3 1164.22 361.511
internal_count=476170 196267 279903 136034 143869 130072 107214 131084 94097 154963 142257 47532 42303 11925
is_linear=0
shrinkage=0.1


Tree=30
num_leaves=15
num_cat=0
split_feature=68 23 20 36 69 1 34 32 8 34 74 78 0 79
split_gain=22.1189 19.5182 18.4569 16.9845 15.0001 17.8978 13.9488 13.6179 12.6771 12.3814 11.774 10.8993 14.7642 13.7173
threshold=0.055376454097663654 1.0000000180025095e-35 0.60647541880000011 3.6736043311500004 0.032521352734676351 1.5000000000000002 0.6935571264 1.0000000180025095e-35 1.0000000180025095e-35 1.3511894052500002 0.042996112171156189 0.043153385667040967 1.0000000180025095e-35 0.038620228488081505
decision_type=2 2 2 2 2 2 2 2 2 2 2 2 2 2
left_child=1 2 4 8 5 -1 -7 -4 11 -9 -6 12 -3 -14
right_child=-2 3 7 -5 10 6 -8 9 -10 -11 -12 -13 13 -15
leaf_value=-0.020793999613330037 0.012331099223601438 0.026816531060801559 0.018177474460940285 -0.0071527491561802926 -0.0053106002962186307 -0.019492394765879214 0.018264442208127629 -0.0021985743647509387 -0.0071868448479633779 0.01776967689821381 0.021444078337879022 0.031895615962130863 -0.002013804446700625 0.017134435389701733
leaf_weight=1411.1545999217778 1315.914600007236 405.27764855511487 372.92124462872744 815.71938418224454 1607.7422183323652 164.09399389382452 242.36261937953532 7561.3629253301769 393.31717946380377 323.81831232830882 183.2298948392272 251.45278584770858 964.25957101210952 611.29577636346221
leaf_count=57398 24454 9744 9066 19204 53188 7541 9114 222158 10979 5392 4743 5432 24501 13256
internal_value=0 -0.00117953 -0.00310244 0.00545122 -0.00906849 -0.0154684 0.00302131 -0.000495429 0.00936701 -0.00137854 -0.0025734 0.0122837 0.00979412 0.00541547
internal_weight=0 15308 11866.7 3441.32 3608.58 1817.61 406.457 8258.1 2625.6 7885.18 1790.97 2232.29 1980.83 1575.56
internal_count=476170 451716 368600 83116 131984 74053 16655 236616 63912 227550 57931 52933 47501 37757
is_linear=0
shrinkage=0.1


Tree=31
num_leaves=15
num_cat=0
split_feature=65 34 79 14 0 19 14 28 26 78 29 20 20 26
split_gain=19.3891 22.2157 14.036 11.0044 18.496 18.7975 13.1893 12.176 10.0767 9.7401 9.6942 9.18744 12.4981 9.09672
threshold=0.044719352781580256 0.61037009495000016 0.030123967980930328 11.500000000000002 1.5000000000000002 0.25000000000000006 6.5000000000000009 1.0000000180025095e-35 1.5000000000000002 0.043153385667040967 1.0000000180025095e-35 0.48509009085000004 0.57798133785000017 6.5000000000000009
decision_type=2 2 2 2 2 2 2 2 2 2 2 2 2 2
left_child=1 13 -3 4 5 6 10 -6 -9 -2 -4 -12 -13 -1
right_child=9 2 3 -5 7 -7 -8 8 -10 -11 11 12 -14 -15
leaf_value=-0.0065573643221742712 0.0052791493404488301 -0.0093280531982015014 -0.013956489911352172 -0.0075721994363139554 0.02008865920890596 0.0031189760008940772 -0.01635524621091787 0.012607970082233612 0.0011827737977672607 0.023286590669821517 -0.0090853451951676927 0.037702268207289835 0.0026837301368398897 -0.023413894739860233
leaf_weight=713.95993101969361 2462.6539639811963 1530.0969256889075 378.46475072205067 1346.9331395784393 615.68753983266652 3251.6835257783532 1135.1856018071994 1137.1833287663758 2403.5899115344509 342.09779824130237 263.37522611953318 152.81374257616699 306.00185379944742 580.40579440165311
leaf_count=29460 51266 50425 12033 42716 13525 86901 41165 33002 62181 6226 8718 4947 8779 24826
internal_value=0 -0.0016439 -0.000354589 0.000894648 0.00207718 -0.00173422 -0.00879243 0.00710913 0.00485218 0.00747553 -0.000992357 0.00580151 0.0143471 -0.014116
internal_weight=0 13815.4 12521 10990.9 9643.99 5487.52 2235.84 4156.46 3540.77 2804.75 1100.66 722.191 458.816 1294.37
internal_count=476170 418678 364392 313967 271251 162543 75642 108708 95183 57492 34477 22444 13726 54286
is_linear=0
shrinkage=0.1


Tree=32
num_leaves=15
num_cat=0
split_feature=76 69 18 5 68 18 81 33 26 35 20 14 35 34
split_gain=20.9349 17.4227 15.9208 14.4168 13.2859 12.363 11.6209 16.4525 10.7865 14.9313 9.61836 9.49689 13.5988 8.60087
threshold=0.043608610015285869 0.041712491126150282 0.65000000000000002 1.0000000180025095e-35 0.045130555773414786 0.75000000000000011 0.042912550567298098 0.39993749025000008 10.500000000000002 0.32886166430000002 0.65502858190000013 7.5000000000000009 0.35587913060000009 0.82142727525000014
decision_type=2 2 2 2 2 2 2 2 2 2 2 2 2 2
left_child=1 3 -2 4 6 11 -1 -8 9 -3 -4 -5 -13 -12
right_child=2 8 10 5 -6 -7 7 -9 -10 -11 13 12 -14 -15
leaf_value=-0.002332069763494106 0.035382756440935755 0.036887540142562188 -0.009931024917513652 -0.0052319926832191718 0.0093653550872903873 -0.0008075370686238915 -0.0020971051554552473 0.037906872126352076 -0.00088992193388625544 0.007742456876210716 0.030740923359608815 -0.004160527102672844 -0.025056283703521354 0.0061902209069002751
leaf_weight=7533.1054843850434 242.51099753193557 258.05390505678952 255.2224713396281 1345.394389282912 1331.4482800960541 2037.9320401297882 244.51854062639177 177.39260269887745 573.67716722935438 551.3325107935816 192.86637982353568 500.63764482084662 824.16200719960034 548.5695009175688
leaf_count=213147 5128 6280 6237 47833 23462 65216 6642 4523 14051 13802 4724 19803 35401 9921
internal_value=0 -0.0011073 0.0124041 -0.00216546 0.000119892 -0.00667318 -0.00142754 0.0147226 0.00959979 0.0170347 0.0068128 -0.0111499 -0.0171598 0.0125765
internal_weight=0 15377.7 1239.17 13994.6 9286.46 4708.13 7955.02 421.911 1383.06 809.386 996.658 2670.19 1324.8 741.436
internal_count=476170 450160 26010 416027 247774 168253 224312 11165 34133 20082 20882 103037 55204 14645
is_linear=0
shrinkage=0.1


Tree=33
num_leaves=15
num_cat=0
split_feature=76 79 18 2 78 26 15 19 18 67 73 37 31 71
split_gain=16.7478 15.6691 14.9076 12.6921 11.5554 12.3165 12.1962 10.4134 16.9471 11.3153 9.90518 8.74145 8.34882 8.11032
threshold=0.043608610015285869 0.034524521215013738 0.35000000000000003 1.5000000000000002 0.040295505233079128 2.5000000000000004 1.0000000180025095e-35 0.45000000000000007 0.45000000000000007 0.036681335331393387 0.039109852123383464 0.45000000000000007 10.500000000000002 0.043509901580298362
decision_type=2 2 2 2 2 2 2 2 2 2 2 2 2 2
left_child=1 2 10 -2 7 6 -6 9 -9 -3 -1 -8 -7 -4
right_child=3 4 13 -5 5 12 11 8 -10 -11 -12 -13 -14 -15
leaf_value=-0.020235162364123153 0.035451485496429409 -0.007284194665226288 -0.0047681652313964241 0.0068754611541693217 0.036016138570331625 -0.018179136519175163 -0.0055873454429474848 0.033781559851311975 0.0021756210276134636 0.0031550373669290699 0.0047466420464395047 0.022642266207132753 0.0053243325109465093 0.0060527423676862485
leaf_weight=889.0807942841202 181.81082582473755 2880.7192457430065 3618.2179358992726 1071.1097861044109 257.82896276656538 169.94725120440125 218.07856394257396 180.24205415509641 2887.4118520934135 1623.4773614220321 193.20347164850682 220.70359505806118 1365.2220201222226 856.632438281551
leaf_count=35716 3321 93097 119809 22689 5918 3750 6538 4311 65342 48719 5806 6553 31890 22711
internal_value=0 -0.00100175 -0.00524387 0.0110221 0.00140288 0.00772664 0.0187547 -0.000461026 0.00403265 -0.00352151 -0.0157755 0.0086119 0.00272244 -0.00269669
internal_weight=0 15360.8 5557.13 1252.92 9803.63 2231.78 696.611 7571.85 3067.65 4504.2 1082.28 438.782 1535.17 4474.85
internal_count=476170 450160 184042 26010 266118 54649 19009 211469 69653 141816 41522 13091 35640 142520
is_linear=0
shrinkage=0.1


Tree=34
num_leaves=15
num_cat=0
split_feature=80 2 16 36 2 0 1 2 36 73 36 20 28 37
split_gain=15.3881 17.9943 13.9163 17.0603 12.2581 11.7534 13.6734 14.4813 11.0228 10.8817 10.8015 8.831 9.88775 9.79747
threshold=0.033108471651316099 9.5000000000000018 1.0000000180025095e-35 1.8660254038000004 1.5000000000000002 1.5000000000000002 1.5000000000000002 2.5000000000000004 3.6736043311500004 0.033129132064968578 3.0811388301000004 1.0076271512500001 1.0000000180025095e-35 0.45000000000000007
decision_type=2 2 2 2 2 2 2 2 2 2 2 2 2 2
left_child=4 2 3 -2 -1 6 8 -8 10 -7 -5 13 -13 -11
right_child=1 -3 -4 5 -6 9 7 -9 -10 11 -12 12 -14 -15
leaf_value=0.012149091565230743 -0.020240389682918129 0.022933598367069818 0.0085887559761426771 -0.012663650223946433 -0.006766482939550721 -0.0052588657354075358 0.010532694018565937 -0.0088692850197204087 -0.019322858489327605 0.0043599327499350199 0.00010498187709756374 0.021604516936587013 -0.0032231305017930787 0.018890580575445157
leaf_weight=374.43772239610553 419.79279168881476 387.8087833058089 2025.034996047616 962.40776797756553 4028.8298578187823 884.11572350747883 1234.75236418657 558.78915411327034 543.03998747374862 922.84516401868314 2126.1135171186179 190.37361304461956 1019.0906828623265 933.32450028229505
leaf_count=11060 16845 10029 38952 34754 131667 26086 34341 16672 15046 25454 62542 3625 23428 25669
internal_value=0 0.00173785 0.00104241 -0.000517796 -0.00515797 0.000365354 -0.00265585 0.00448789 -0.00618397 0.00451507 -0.00387383 0.00733383 0.000684822 0.0116663
internal_weight=0 12207.5 11819.7 9794.65 4403.27 9374.85 5425.1 1793.54 3631.56 3949.75 3088.52 3065.63 1209.46 1856.17
internal_count=476170 333443 323414 284462 142727 267617 163355 51013 112342 104262 97296 78176 27053 51123
is_linear=0
shrinkage=0.1


Tree=35
num_leaves=15
num_cat=0
split_feature=69 6 2 27 3 55 2 34 19 80 34 25 0 37
split_gain=15.1128 13.7344 14.1951 17.6739 17.2248 13.96 12.3115 11.3278 11.2579 10.8497 10.8074 9.98852 11.1697 10.7746
threshold=0.041712491126150282 1.0000000180025095e-35 1.5000000000000002 1.0000000180025095e-35 1.0000000180025095e-35 1.0000000180025095e-35 9.5000000000000018 1.0179918144000002 0.15000000000000005 0.039082703806859916 0.61037009495000016 -1.0000000180025095e-35 1.5000000000000002 0.35000000000000003
decision_type=2 2 2 2 2 2 2 2 2 2 2 2 2 2
left_child=1 2 8 -4 5 6 7 -5 -1 -9 -6 -10 13 -13
right_child=-2 -3 3 4 10 -7 -8 9 11 -11 -12 12 -14 -15
leaf_value=-0.013634487119503042 0.0094867666479919871 0.0034428304531999468 0.012395625121300508 -0.0095599954489953495 -0.015308130191904757 -0.016040753820476285 0.015049477347985084 -0.0054173197080464039 0.017280460630567672 0.025365479449463636 0.0030129386561976597 -0.026090929137768837 0.020586005907900461 0.0044940686858111834
leaf_weight=259.97176884394139 1500.212259111926 4710.6463283486664 567.67020183987916 2766.9167344067246 371.81837014947087 1899.6490072347224 271.6465681148693 279.87479165196419 713.58348804619163 193.77424983493984 2401.8137161042541 193.87812216952443 192.98990971781313 283.76688619889319
leaf_count=8851 35881 110847 13726 97277 15839 63239 8674 6657 21615 4177 73326 4822 4168 7071
internal_value=0 -0.0010366 -0.00306606 -0.00466746 -0.0058508 -0.00913482 -0.00539961 -0.00711379 0.00545933 0.00717621 0.000556914 0.00904536 0.000282865 -0.00792051
internal_weight=0 15108 10397.4 8753.16 8185.49 5411.86 3512.21 3240.57 1644.19 473.649 2773.63 1384.22 670.635 477.645
internal_count=476170 440289 329442 282915 269189 180024 116785 108111 46527 10834 89165 37676 16061 11893
is_linear=0
shrinkage=0.1


Tree=36
num_leaves=15
num_cat=0
split_feature=32 79 57 79 62 29 14 76 35 3 46 44 19 35
split_gain=13.7671 14.0069 13.0689 13.6073 12.4515 11.5814 10.9217 9.73543 10.6343 8.66943 13.3958 11.55 9.9075 9.72123
threshold=1.0000000180025095e-35 0.030123967980930328 1.0000000180025095e-35 0.051331388556757014 0.035163764518478753 1.0000000180025095e-35 2.5000000000000004 0.035289331139450479 0.32908961840000006 1.0000000180025095e-35 11.500000000000002 6.5000000000000009 0.45000000000000007 0.35902643440000009
decision_type=2 2 2 2 2 2 2 2 2 2 2 2 2 2
left_child=-1 -2 4 6 -3 -6 -4 -5 -9 11 -11 -8 -13 -14
right_child=1 2 3 7 5 -7 9 8 -10 10 -12 12 13 -15
leaf_value=0.012468146032859754 -0.0087616071834296094 -0.0081536928815211379 0.0066858656568989528 -0.0027652127613851151 -0.012718584185718588 0.010066775343518974 0.018202971285559113 0.0029071882092751296 0.037363275200987062 0.00255667915036534 -0.014402139921190571 -0.010709631019887582 0.014325761174340751 -0.0049241224274813762
leaf_weight=830.30763289891183 1914.1056296639144 552.39464271999896 1180.5173477940261 235.90092910826206 242.99166268855333 2721.4262461578473 184.15274963062257 151.87972194328904 218.34406248666346 3166.0786009291187 546.11899599526078 3032.5914039537311 328.63841242715716 1300.4174748715013
leaf_count=20688 63265 14790 31131 4716 6391 62952 5904 2284 5002 93829 16099 106869 8145 34105
internal_value=0 -0.000742987 0.000364292 -0.00142603 0.0056305 0.00819907 -0.00233086 0.0131116 0.0232281 -0.00357465 6.17868e-05 -0.0063604 -0.00733075 -0.00104074
internal_weight=0 15775.6 13861.5 10344.6 3516.81 2964.42 9738.51 606.125 370.224 8558 3712.2 4845.8 4661.65 1629.06
internal_count=476170 455482 392217 308084 84133 69343 296082 12002 7286 264951 109928 155023 149119 42250
is_linear=0
shrinkage=0.1


Tree=37
num_leaves=15
num_cat=0
split_feature=77 18 18 79 80 78 8 59 77 18 81 79 20 48
split_gain=12.1431 15.002 23.0557 11.4206 11.5507 11.0065 10.7868 10.8195 9.90444 9.66666 9.60782 9.57698 9.14556 15.088
threshold=0.045779272093427838 1.0000000180025095e-35 0.15000000000000005 0.038620228488081505 0.038823041860502498 0.044000933534365481 1.0000000180025095e-35 0.035106904406716384 0.044016561667089206 0.75000000000000011 0.037390253206057392 0.039045258498082047 0.61160643775000012 1.5000000000000002
decision_type=2 2 2 2 2 2 2 2 2 2 2 2 2 2
left_child=1 3 -3 4 -1 6 7 9 -8 -4 11 -9 13 -12
right_child=-2 2 5 -5 -6 -7 8 10 -10 -11 12 -13 -14 -15
leaf_value=-0.0141981833246035 0.0065955321869864223 -0.018551277299591811 -0.0085771769762467819 0.036767288765815857 0.023660802783097824 0.010399780211896146 -0.0049585128638804793 -0.0036832521469402722 -0.023461686294382167 0.00098947884238316064 0.034965842814256964 0.0073645584836187945 0.0044875050814396772 -0.00048240733572301267
leaf_weight=160.20609497930855 2341.5922147054225 774.40215085912496 2151.3179028574377 171.81650505680591 162.15806571487337 823.35014433320612 2068.1319591049105 2478.8378162272274 336.34048959799111 2074.9581009419635 289.79611877724528 1148.0547561589628 1417.3678546193987 205.01879069767892
leaf_count=5758 48358 30392 82934 4648 5046 21739 63602 67111 8906 67039 8202 24553 32041 5841
internal_value=0 -0.00117447 -0.00178894 0.0159443 0.00484593 -0.00078989 -0.00154693 -6.96203e-05 -0.00754676 -0.00388027 0.00283788 -0.000186184 0.00857371 0.0202784
internal_weight=0 14261.8 13767.6 494.181 322.364 12993.2 12169.8 9765.35 2404.47 4226.28 5539.08 3626.89 1912.18 494.815
internal_count=476170 427812 412360 15452 10804 381968 360229 287721 72508 149973 137748 91664 46084 14043
is_linear=0
shrinkage=0.1


Tree=38
num_leaves=15
num_cat=0
split_feature=69 77 77 14 62 31 79 50 0 14 35 18 80 0
split_gain=11.7789 10.808 8.9011 11.0142 8.08751 9.66101 8.66499 12.6462 8.90655 14.4085 8.9425 7.97077 11.389 7.6072
threshold=0.042017086352984866 0.028185722774486222 0.0594077920653849 5.5000000000000009 0.035163764518478753 101.50000000000001 0.034524521215013738 3.5000000000000004 1.5000000000000002 11.500000000000002 0.46534932805000007 0.8500000000000002 0.039274919207061755 4.5000000000000009
decision_type=2 2 2 2 2 2 2 2 2 2 2 2 2 2
left_child=1 11 4 -4 5 13 7 -6 -8 10 -10 12 -1 -3
right_child=-2 2 3 -5 6 -7 8 -9 9 -11 -12 -13 -14 -15
leaf_value=-0.016378120601495304 0.010164358407193007 0.0012109808529618044 0.031212393496384855 0.0015954409500637348 -0.025612798678153494 -0.020902224474284893 -0.0002195526359315666 -0.0013158361977808116 0.011866994365237405 -0.0082533102204267583 -0.012057061011711959 0.0011672417280321099 0.001566066226813432 -0.013503782566021489
leaf_weight=1142.8289052946493 1052.1613479442894 1298.2876636553556 205.2357293907553 323.46606794372201 227.5206951526925 351.99507576599717 3482.5235436363146 3664.0677052410319 2354.997277893126 503.17597798909992 167.3409265242517 833.40419396199286 512.23694096785039 481.68143450468779
leaf_count=48889 23818 37570 3357 6447 7143 9676 94946 114266 51936 13593 2968 29725 18534 13302
internal_value=0 -0.00076838 0.000382461 0.0130924 -0.000153765 -0.00576454 0.000996467 -0.00273635 0.00322857 0.00719753 0.0102798 -0.00680836 -0.0108245 -0.00277101
internal_weight=0 15548.8 13060.3 528.702 12531.6 2131.96 10399.6 3891.59 6508.04 3025.51 2522.34 2488.47 1655.07 1779.97
internal_count=476170 452352 355204 9804 345400 60548 284852 121409 163443 68497 54904 97148 67423 50872
is_linear=0
shrinkage=0.1


Tree=39
num_leaves=15
num_cat=0
split_feature=68 77 2 46 61 81 33 2 1 1 2 1 20 1
split_gain=12.9207 9.06361 9.00004 8.13643 7.40851 7.3833 8.87222 7.71307 14.3791 14.2795 23.8776 15.28 12.5096 10.1961
threshold=0.055376454097663654 0.028334250012061569 1.5000000000000002 6.5000000000000009 0.038683815229879105 0.042912550567298098 0.39993749025000008 6.5000000000000009 1.5000000000000002 1.5000000000000002 3.5000000000000004 2.5000000000000004 0.91532096605000002 3.5000000000000004
decision_type=2 2 2 2 2 2 2 2 2 2 2 2 2 2
left_child=1 2 -1 -2 -5 7 -7 9 12 -3 -11 -12 -9 -10
right_child=3 5 -4 4 -6 6 -8 8 13 10 11 -13 -14 -15
leaf_value=0.0070410863665321529 -0.0035936787594898303 -0.0045047866618655617 -0.0091821314351799611 0.0097996340185026246 0.031846959128862755 0.00055618639268823465 0.022348415619660889 0.0010396159175238844 -0.019814242411663671 0.0099587484051720555 -0.025160075692045553 0.004523215755791875 0.015324367187670935 0.0086867511562962879
leaf_weight=410.68122854735702 357.95893707498908 6316.1640934702009 2043.4349954063073 799.12827150151134 188.33104094304144 446.46371449530125 321.24850808642805 1435.1057883631438 382.56864209380001 1941.2806353801861 379.54188386257738 319.32542810309678 1070.2356212362647 186.81344822142273
leaf_count=14701 6507 180539 83279 14851 3096 11567 7685 41837 9759 55138 10635 8151 23480 4945
internal_value=0 -0.000900406 -0.00646728 0.00932241 0.0140046 0.000167022 0.00967513 -0.000439699 0.00388169 -0.00192324 0.00425272 -0.0115972 0.0071418 -0.0104631
internal_weight=0 15252.9 2454.12 1345.42 987.459 12798.7 767.712 12031 3074.72 8956.31 2640.15 698.867 2505.34 569.382
internal_count=476170 451716 97980 24454 17947 353736 19252 334484 80021 254463 73924 18786 65317 14704
is_linear=0
shrinkage=0.1


Tree=40
num_leaves=15
num_cat=0
split_feature=15 0 81 36 29 17 80 36 53 34 77 77 58 35
split_gain=10.3329 11.7407 16.8494 9.53369 9.43142 11.2523 8.46736 9.80567 8.40206 7.76163 7.45268 7.05331 6.85089 6.8276
threshold=1.0000000180025095e-35 1.0000000180025095e-35 0.037390253206057392 1.8660254038000004 1.0000000180025095e-35 1.0000000180025095e-35 0.038823041860502498 3.3903632027500006 1.0000000180025095e-35 0.67673102190000012 0.026432287277671041 0.040214804787065392 3.5000000000000004 0.37576579030000007
decision_type=2 2 2 2 2 2 2 2 2 2 2 2 2 2
left_child=1 4 -3 10 9 13 8 -8 -4 -1 -2 -10 -9 -6
right_child=3 2 6 -5 5 -7 7 12 11 -11 -12 -13 -14 -15
leaf_value=-0.032409393927769828 -0.034490038097910951 0.00080987829375995645 0.016948737947896742 -0.0014158320983649868 0.020571736990089528 -0.0060736976690484836 0.0091656713471024286 0.045898420357191314 0.012375133667494015 -0.0070353029339928087 -0.0071231032472267924 -0.013229178959936243 0.021189936506369796 -0.0033177003409746667
leaf_weight=158.64116186928004 150.56175154726952 2689.0988264363259 367.11309244204313 9631.4765236424282 360.04895176831633 796.35655645374209 488.83977490477264 162.64854105003178 174.74005516897887 502.08547056652606 293.46213295869529 279.96505464985967 361.90411308407784 179.16650026105344
leaf_count=6241 7597 64888 8736 295160 8671 22778 11093 3070 5139 14382 11877 5649 6715 4174
internal_value=0 0.0030327 0.00585134 -0.0020763 -0.00335531 0.0014792 0.0132385 0.0193554 0.0056957 -0.0131276 -0.0164028 -0.00338962 0.0288513 0.0126339
internal_weight=0 6520.61 4524.31 10075.5 1996.3 1335.57 1835.21 1013.39 821.818 660.727 444.024 454.705 524.553 539.215
internal_count=476170 161536 105290 314634 56246 35623 40402 20878 19524 20623 19474 10788 9785 12845
is_linear=0
shrinkage=0.1


Tree=41
num_leaves=15
num_cat=0
split_feature=76 80 2 27 31 61 80 6 73 81 2 37 43 69
split_gain=10.6527 9.01243 14.2426 8.90361 8.76989 10.6932 15.3593 8.57037 13.1568 7.8316 7.55403 6.65174 6.61222 7.73822
threshold=0.043608610015285869 0.033108471651316099 9.5000000000000018 1.0000000180025095e-35 10.500000000000002 0.038683815229879105 0.039082703806859916 1.0000000180025095e-35 0.033129132064968578 0.042912550567298098 1.5000000000000002 0.25000000000000006 1.0000000180025095e-35 0.039253450083811849
decision_type=2 2 2 2 2 2 2 2 2 2 2 2 2 2
left_child=1 3 4 -1 5 6 -3 -5 -9 12 -2 -10 -6 -14
right_child=10 2 -4 7 9 -7 -8 8 11 -11 -12 -13 13 -15
leaf_value=0.012716495650703104 0.026975658499553901 -0.034607273515604796 0.019642708950955483 -0.0087291051340037673 0.016423122816693617 0.010842750076318061 -0.0029622048679416018 0.027759027165400324 -0.017312611215285635 0.0133224327194997 0.0054717623099265755 0.0028371806536787152 -0.0032787443058098589 0.0025052471234547425
leaf_weight=271.13680155575275 192.38151902705431 263.79406225215644 382.3132547903806 2899.6168977729976 244.55689868982881 190.24772437475622 366.42782747838646 166.39724037982523 234.18331758677959 477.04399220366031 1082.8836253490299 545.33895123936236 4395.885530769825 4881.7754276860505
leaf_count=6344 3321 7786 9699 105552 6976 4592 9962 4741 6149 11276 22689 14376 141180 121527
internal_value=0 -0.000796707 0.000673689 -0.00479786 3.42196e-06 -0.00993555 -0.016208 -0.00603274 0.00223267 0.000818945 0.00871576 -0.0032162 0.000192545 -0.000235289
internal_weight=0 15318.7 11202 4116.67 10819.7 820.47 630.222 3845.54 945.92 9999.26 1275.27 779.522 9522.22 9277.66
internal_count=476170 450160 312998 137162 303299 22340 17748 130818 25266 280959 26010 20525 269683 262707
is_linear=0
shrinkage=0.1


Tree=42
num_leaves=15
num_cat=0
split_feature=69 26 6 77 20 61 18 29 62 0 0 20 0 14
split_gain=8.63971 7.78441 8.05606 7.53303 9.17433 10.7875 11.2808 10.1693 11.9574 13.2882 10.5491 9.69084 8.6573 8.46154
threshold=0.049146771821025816 10.500000000000002 1.0000000180025095e-35 0.0594077920653849 0.48509009085000004 0.038683815229879105 0.35000000000000003 1.0000000180025095e-35 0.035163764518478753 5.5000000000000009 5.5000000000000009 1.0000000180025095e-35 1.0000000180025095e-35 5.5000000000000009
decision_type=2 2 2 2 2 2 2 2 2 2 2 2 2 2
left_child=3 2 -2 4 5 6 -1 10 -9 -10 12 -8 -6 -5
right_child=1 -3 -4 13 7 -7 11 8 9 -11 -12 -13 -14 -15
leaf_value=-0.014551792085168856 0.028748834613145924 -0.0020883353456820405 0.0014963494454483495 0.026421635745871697 -0.0097187315234733129 0.0062408160854473035 0.01510079693083184 -0.0058573938615165237 0.002948059337992109 0.026692790093443854 -0.016411438062751055 -0.0089499784160737336 0.0015308880697149675 0.00092806948431742992
leaf_weight=1439.2667799880728 288.06908348761499 305.42170080170035 173.98174708895385 215.04297546669841 984.54243959113955 546.35620685480535 285.63030648976564 1578.6514838961884 6960.9863142790273 243.94415969122201 593.25565478019416 405.20254458021373 2241.5660557048395 329.96085818484426
leaf_count=56570 6436 6619 3301 3408 30902 17347 9308 45646 190728 4353 15791 14635 64576 6550
internal_value=0 0.010299 0.0184871 -0.000565356 -0.000977423 -0.00629471 -0.00950999 0.000151796 0.00202493 0.00375201 -0.00415595 0.000994005 -0.00190227 0.0109871
internal_weight=0 767.473 462.051 15824.4 15279.4 2676.46 2130.1 12602.9 8783.58 7204.93 3819.36 690.833 3226.11 545.004
internal_count=476170 16356 9737 459814 449856 97860 80513 351996 240727 195081 111269 23943 95478 9958
is_linear=0
shrinkage=0.1


Tree=43
num_leaves=15
num_cat=0
split_feature=21 29 78 20 28 34 34 28 79 20 18 18 46 31
split_gain=9.04717 11.8076 10.6177 12.6219 11.8861 10.8788 10.0097 9.20047 9.19223 9.01627 8.36726 7.56017 7.94021 8.22705
threshold=4.5000000000000009 1.0000000180025095e-35 0.041830266962389055 0.37707735055000008 1.0000000180025095e-35 0.98308787845000012 1.3842420426500002 1.0000000180025095e-35 0.041020287646741975 0.69933000085000019 0.35000000000000003 0.45000000000000007 8.5000000000000018 69.500000000000014
decision_type=2 2 2 2 2 2 2 2 2 2 2 2 2 2
left_child=7 6 3 5 -4 10 -2 -1 9 -6 -3 -9 13 -13
right_child=1 2 4 -5 8 -7 -8 11 -10 -11 -12 12 -14 -15
leaf_value=0.028875310051933636 -0.0064276327472045335 -0.017456942291291078 -0.01026948486115499 0.0013629469953069153 0.029851355831943933 0.0090987932365389473 0.014430365930472878 0.015613853590865496 0.037860789630890582 0.0039861130762887552 0.0069030901569364922 0.023057734779674023 -0.013929933736087348 -0.0079003079359935696
leaf_weight=183.51834179833531 3977.6620179666206 894.66562946978956 218.58097829855978 8766.6319706048816 184.22357471380383 263.02315399982035 244.20488599129021 387.57704040687531 155.44413286820054 502.04476601071656 167.38281119428575 180.24609395861626 300.68316880054772 163.8963313633576
leaf_count=4261 125657 35966 3872 241041 5216 6293 4145 11982 3101 11348 5759 5065 8166 4298
internal_value=0 -0.000716993 0.000988167 -1.1992e-05 0.0105075 -0.00910855 -0.00522115 0.00824351 0.015903 0.0109294 -0.0136177 0.00457603 -0.00205833 0.0083141
internal_weight=0 15373.9 11152 10091.7 1060.29 1325.07 4221.87 1215.92 841.712 686.268 1062.05 1032.4 644.826 344.142
internal_count=476170 442398 312596 289059 23537 48018 129802 33772 19665 16564 41725 29511 17529 9363
is_linear=0
shrinkage=0.1


Tree=44
num_leaves=15
num_cat=0
split_feature=68 21 80 20 23 38 69 45 77 14 77 18 0 73
split_gain=10.0516 13.4195 9.36813 9.2763 6.83897 6.47059 5.93469 6.87884 8.3918 7.23187 6.70726 6.31186 11.8608 11.7085
threshold=0.055376454097663654 4.5000000000000009 0.033108471651316099 0.58603534785000011 1.0000000180025095e-35 1.0000000180025095e-35 0.041712491126150282 1.5000000000000002 0.045779272093427838 5.5000000000000009 0.0594077920653849 0.8500000000000002 4.5000000000000009 0.035568886447752988
decision_type=2 2 2 2 2 2 2 2 2 2 2 2 2 2
left_child=2 -2 3 4 -1 -5 10 -8 9 -9 11 -4 13 -13
right_child=1 -3 6 5 -6 -7 7 8 -10 -11 -12 12 -14 -15
leaf_value=-0.017594853168995644 0.03564275747009462 0.004587007418177841 -0.0025531888722988565 -0.01615031519159519 0.0020091263352102237 -0.00057220353545139359 -0.0059833735804487916 -0.0048202958831859008 0.033845326289901737 0.017088464661517477 0.013340107741401966 0.0094505180696298364 -0.0093734234632531343 -0.0035477865896231908
leaf_weight=790.70294822193682 157.40178028121591 1199.2771448334679 6025.3523703897372 296.22720856778324 229.63131497055292 2668.9018222400919 264.15333606489003 267.228266665712 151.09206424281001 345.41365274973214 361.14654665999115 2126.7970644542947 676.87097082938999 1027.9324889294803
leaf_count=34919 2664 21790 184229 9371 7605 83785 6120 6252 2647 8653 6390 62613 15970 23162
internal_value=0 0.00819009 -0.000792626 -0.00495859 -0.0131829 -0.00212851 0.000683748 0.00792665 0.0127377 0.00753208 -4.48496e-05 -0.000535258 0.00263802 0.00521517
internal_weight=0 1356.68 15231.5 3985.46 1020.33 2965.13 11246 1027.89 763.734 612.642 10218.1 9856.95 3831.6 3154.73
internal_count=476170 24454 451716 135680 42524 93156 316036 23672 17552 14905 292364 285974 101745 85775
is_linear=0
shrinkage=0.1


Tree=45
num_leaves=15
num_cat=0
split_feature=18 18 79 4 4 2 14 14 4 81 80 79 37 69
split_gain=8.12505 12.433 10.3945 8.94938 11.0652 8.66358 8.58143 8.32801 7.88355 7.03937 9.21355 6.84354 7.27404 6.94355
threshold=1.0000000180025095e-35 0.15000000000000005 0.038620228488081505 1.5000000000000002 2.5000000000000004 1.0000000180025095e-35 7.5000000000000009 4.5000000000000009 -1.0000000180025095e-35 0.042912550567298098 0.039082703806859916 0.030123967980930328 0.15000000000000005 0.041712491126150282
decision_type=2 2 2 2 2 2 2 2 2 2 2 2 2 2
left_child=2 7 6 5 -5 8 -1 -2 -3 11 -11 12 -7 -13
right_child=1 3 -4 4 -6 9 -8 -9 -10 10 -12 13 -14 -15
leaf_value=0.014099889337186903 0.0062998400968142772 0.0010293766032291492 0.029002320287581974 0.03159730290557243 0.004301871395989843 -0.020605894832752686 -0.016494282211604257 -0.016864628932399525 0.028482117376628154 -0.0020413858010897468 0.022511757935692347 -0.0015507071654022857 -0.0043010680527321345 0.0075635170269135361
leaf_weight=221.88389435876161 198.37617469765246 232.67771056294441 214.86746417637914 162.62991810962558 1711.5732796257362 343.18674201332033 156.23896353691816 713.11390424147248 190.04103126283735 332.13988307863474 283.09548598527908 9560.7063064612448 1349.7524785529822 915.95789932832122
leaf_count=6455 6441 3189 5297 2703 34511 11362 5615 28159 4889 8618 6181 286019 44570 22161
internal_value=0 -0.00048163 0.0114389 0.000203811 0.00667037 -0.000713819 0.00145849 -0.0118231 0.0133713 -0.00117953 0.00925654 -0.00170713 -0.00760633 -0.000753865
internal_weight=0 15993.3 592.99 15081.8 1874.2 13207.6 378.123 911.49 422.719 12784.8 615.235 12169.6 1692.94 10476.7
internal_count=476170 458803 17367 424203 37214 386989 12070 34600 8078 378911 14799 364112 55932 308180
is_linear=0
shrinkage=0.1


Tree=46
num_leaves=15
num_cat=0
split_feature=64 0 81 50 34 69 41 65 53 34 34 57 14 39
split_gain=6.55965 8.31781 12.3979 11.9777 8.58193 7.04435 6.62063 6.22765 6.19882 6.13201 7.6794 6.02261 6.28978 9.92544
threshold=0.038244621755324913 1.0000000180025095e-35 0.037390253206057392 10.500000000000002 0.82142727525000014 0.037777690845836299 1.5000000000000002 0.044719352781580256 1.0000000180025095e-35 0.66538879760000003 0.72696229170000015 2.5000000000000004 5.5000000000000009 0.55000000000000016
decision_type=2 2 2 2 2 2 2 2 2 2 2 2 2 2
left_child=11 7 3 4 5 -3 -5 9 -4 -2 -11 12 13 -1
right_child=1 2 8 6 -6 -7 -8 -9 -10 10 -12 -13 -14 -15
leaf_value=-0.0016368184831136276 -0.018898536286662632 -0.0047783984663096329 0.017414059918042346 0.00062663185365610316 -0.0089995611159453814 0.010157144460208239 0.027508236851931663 0.0077006964923753462 0.0058272912030823886 0.014936185292259666 -0.0062967035638754956 -0.0093683727570116268 -0.0022267538436594593 0.013160051431807663
leaf_weight=1139.4084370890632 295.19448674656451 588.44223449006677 837.29605105612427 152.12138043530285 1044.611578816548 681.54364244826138 230.3620943762362 427.64844719134271 1029.3714233199134 202.85992890316993 1062.4699118388817 920.67613941524178 7219.306824865751 752.85814051423222
leaf_count=32422 12039 19467 18038 3627 18983 17250 5561 8841 22364 7275 28091 34712 225996 21504
internal_value=0 0.00240775 0.00475947 0.000423369 -0.00228563 0.00323683 0.0168169 -0.00299051 0.0110246 -0.00592035 -0.00289261 -0.00166047 -0.000881623 0.00425027
internal_weight=0 6551.92 4563.75 2697.08 2314.6 1269.99 382.483 1988.17 1866.67 1560.52 1265.33 10032.2 9111.57 1892.27
internal_count=476170 161536 105290 64888 55700 36717 9188 56246 40402 47405 35366 314634 279922 53926
is_linear=0
shrinkage=0.1


Tree=47
num_leaves=15
num_cat=0
split_feature=68 18 77 35 18 80 57 8 38 77 67 58 81 45
split_gain=6.81315 8.34383 7.37104 8.04753 7.57803 6.67154 7.3148 9.9125 6.90901 5.94156 5.72624 5.59404 5.58339 7.06081
threshold=0.055376454097663654 0.45000000000000007 0.042727506225780885 0.36619664305000005 0.8500000000000002 0.033108471651316099 1.0000000180025095e-35 1.0000000180025095e-35 0.15000000000000005 0.030413194821280447 0.036681335331393387 3.5000000000000004 0.031419086546624959 1.5000000000000002
decision_type=2 2 2 2 2 2 2 2 2 2 2 2 2 2
left_child=5 10 3 -3 -4 6 7 8 -1 -8 -2 -10 13 -7
right_child=1 2 4 -5 -6 12 9 -9 11 -11 -12 -13 -14 -15
leaf_value=-0.010489312575432501 0.0082324348176806682 -0.00094208090449240814 -0.02589218102790283 0.021759203936462215 0.0039693076967628966 -0.022382398099621999 -0.014493719308539411 -0.017008203881456154 0.024361322682949927 -0.0041392693284534798 0.032910790713502946 0.0055467473787929687 0.0012242731628280322 -0.0017823356598144378
leaf_weight=181.51029795687646 209.77756591886282 391.68580651097 160.03034542687237 259.69055678322911 181.21846828237176 224.8521400699392 758.49573187623173 210.82456488255411 226.96974676288664 2057.2465539705008 170.39615480042994 520.26993591152132 10389.987172544003 639.89819263946265
leaf_count=4997 4921 6817 2135 4953 2227 8186 35764 6622 6192 67948 3401 14157 284696 23154
internal_value=0 0.00669602 0.00187124 0.00810846 -0.0100344 -0.000659863 -0.00419271 0.00256712 0.00701068 -0.00692852 0.0192934 0.0112616 0.000581705 -0.00713876
internal_weight=0 1372.8 992.625 651.376 341.249 15210.1 3955.32 1139.57 928.75 2815.74 380.174 747.24 11254.7 864.75
internal_count=476170 24454 16132 11770 4362 451716 135680 31968 25346 103712 8322 20349 316036 31340
is_linear=0
shrinkage=0.1


Tree=48
num_leaves=15
num_cat=0
split_feature=76 38 41 35 67 42 38 72 57 77 34 48 58 77
split_gain=6.53229 7.58909 10.818 9.85585 12.1086 7.61606 6.53115 11.9584 10.6899 11.2047 8.65293 8.49695 20.4461 8.01256
threshold=0.043608610015285869 0.45000000000000007 2.5000000000000004 0.41273474165000007 0.036681335331393387 7.5000000000000009 0.15000000000000005 0.048108820145159742 1.0000000180025095e-35 0.049839830059450037 0.9247905726500002 1.0000000180025095e-35 3.5000000000000004 0.026119103381025192
decision_type=2 2 2 2 2 2 2 2 2 2 2 2 2 2
left_child=6 3 5 4 -2 -3 -1 8 11 13 -11 12 -8 -10
right_child=1 2 -4 -5 -6 -7 7 -9 9 10 -12 -13 -14 -15
leaf_value=-0.0047604472304131496 0.0096728112099800766 -0.0078883769299036514 -0.021627043098314123 -0.0052819986313305464 0.043072492642782206 0.017938589372952361 0.047184931416866867 -0.0065489453392402839 -0.0096700453269336142 0.0010496751924229241 0.028180618998119075 0.004369992571096353 0.0057458595714144252 0.00033282581550207415
leaf_weight=3057.030567326583 289.31440459005535 196.02437794022262 180.90762561745942 181.63782080262899 173.72155311889946 273.46088509075344 172.12567029334605 2055.8736735582352 914.07384025678039 228.48790415935218 242.11861059255898 1768.5263050347567 386.25710241030902 6461.8548862859607
leaf_count=90218 6147 3934 3647 3334 3436 5512 4524 41650 38220 5442 5306 46188 10124 208488
internal_value=0 0.0067706 -0.00085073 0.0144596 0.0222037 0.00715505 -0.000626222 0.000407233 0.00181295 4.77188e-05 0.0150081 0.00776548 0.0185198 -0.000906796
internal_weight=0 1295.07 650.393 644.674 463.036 469.485 15286.3 12229.3 10173.4 7846.54 470.607 2326.91 558.383 7375.93
internal_count=476170 26010 13093 12917 9583 9446 450160 359942 318292 257456 10748 60836 14648 246708
is_linear=0
shrinkage=0.1


Tree=49
num_leaves=15
num_cat=0
split_feature=21 76 68 34 2 40 62 2 1 3 50 61 50 35
split_gain=6.20608 9.1928 9.11045 8.91317 8.59784 8.40673 7.2878 6.96674 24.761 16.3033 10.3513 9.35612 13.0046 9.06193
threshold=4.5000000000000009 0.033740313428602821 0.055376454097663654 1.3842420426500002 9.5000000000000018 1.5000000000000002 0.035163764518478753 2.5000000000000004 1.5000000000000002 1.0000000180025095e-35 8.5000000000000018 0.038683815229879105 8.5000000000000018 0.42373340265000009
decision_type=2 2 2 2 2 2 2 2 2 2 2 2 2 2
left_child=2 3 5 -2 7 -1 -6 8 -3 11 -10 13 -13 -9
right_child=1 4 -4 -5 6 -7 -8 9 10 -11 -12 12 -14 -15
leaf_value=0.020200211101328702 -0.0057495382664786735 -0.0048248681906282332 0.028663105461783307 0.014043943663238318 -0.0034650707417047165 -0.0012960925868809236 0.022654588229518713 -0.0096098133792902312 0.0068519532429835136 0.0041143875307261078 0.023170042075149999 -0.0048391573852139816 0.022080238253108481 0.0058668443680434234
leaf_weight=232.80092721618712 3927.371362881735 1613.1515276907012 164.85457206331193 241.49257046729326 160.00709818396717 832.52347071096301 321.37523394357413 3027.854383460246 1145.8971400540322 3093.6600490016863 588.32065064180642 526.90972224995494 272.15221541561186 432.3475895235315
leaf_count=6787 125321 50797 2664 4066 4827 24321 8498 94212 30560 80158 15739 12158 6321 9741
internal_value=0 -0.000595143 0.00678669 -0.00460295 0.000899087 0.00340141 0.0139727 0.000310936 0.00409271 -0.00141069 0.0123877 -0.00542376 0.00432931 -0.00767603
internal_weight=0 15350.5 1230.18 4168.86 11181.7 1065.32 481.382 10700.3 3347.37 7352.92 1734.22 4259.26 799.062 3460.2
internal_count=476170 442398 33772 129387 313011 31108 13325 299686 97096 202590 46299 122432 18479 103953
is_linear=0
shrinkage=0.1


Tree=50
num_leaves=15
num_cat=0
split_feature=18 18 2 41 38 33 78 20 20 58 52 8 31 43
split_gain=6.19258 9.76786 12.3092 5.98493 8.05174 5.65049 6.1967 6.67786 7.34461 5.99821 11.5821 5.91888 7.55557 7.13529
threshold=1.0000000180025095e-35 0.25000000000000006 5.5000000000000009 2.5000000000000004 0.35000000000000003 0.31614868930000006 0.044000933534365481 1.2650345785000001 0.70200601885000002 4.5000000000000009 1.0000000180025095e-35 1.0000000180025095e-35 103.50000000000001 4.5000000000000009
decision_type=2 2 2 2 2 2 2 2 2 2 2 2 2 2
left_child=-1 2 -2 4 -4 -3 11 8 -8 10 -10 -7 13 -13
right_child=1 5 3 -5 -6 6 7 -9 9 -11 -12 12 -14 -15
leaf_value=0.0099268715750471213 -0.015697951088386574 -0.0096469011141878547 -0.020290923619760579 0.019623485363211495 0.0082623301700695852 0.0011984905976088155 0.018289737460579419 0.024200749441746224 -0.015289607554396191 -0.019217447721350103 0.022896731711944965 0.00021301131702138943 -0.01926286671741527 -0.016229051868964263
leaf_weight=600.00857977475971 876.44498717598617 543.29510557465255 165.02483279071748 159.41629033535719 245.94655186776072 10654.767111467198 239.61235799733549 212.71128690615296 151.78285950049758 156.47415368724614 166.61923444084823 1801.987132480368 295.69885721988976 309.2285910397768
leaf_count=17367 35086 22277 5717 5473 8455 288640 6598 4460 3632 3763 3978 53412 8125 9187
internal_value=0 -0.000421247 -0.008257 0.00317659 -0.00320318 0.000358886 0.000747487 0.00864703 0.00401651 -0.00318546 0.00469323 0.000186728 -0.00429207 -0.00219525
internal_weight=0 15979 1446.83 570.388 410.971 14532.2 13988.9 927.2 714.489 474.876 318.402 13061.7 2406.91 2111.22
internal_count=476170 458803 54731 19645 14172 404072 381795 22431 17971 11373 7610 359364 70724 62599
is_linear=0
shrinkage=0.1


Tree=51
num_leaves=15
num_cat=0
split_feature=81 18 18 14 65 24 22 33 0 38 38 0 37 18
split_gain=5.08617 5.99519 11.1129 7.18839 5.6115 5.19482 10.4572 8.88614 8.67303 7.66114 7.44028 9.95763 7.71737 6.81368
threshold=0.042912550567298098 1.0000000180025095e-35 0.15000000000000005 4.5000000000000009 0.044719352781580256 1.0000000180025095e-35 1.0000000180025095e-35 0.47890452015000001 1.5000000000000002 0.45000000000000007 0.15000000000000005 4.5000000000000009 0.45000000000000007 0.45000000000000007
decision_type=2 2 2 2 2 2 2 2 2 2 2 2 2 2
left_child=1 -1 3 -3 -2 6 13 -7 -9 -10 11 -8 -13 -4
right_child=4 2 5 -5 -6 7 10 8 9 -11 -12 12 -14 -15
leaf_value=0.0096265274259018912 0.003578660557669876 0.00529877199145877 0.020984848940593104 -0.017706040380925322 0.024308102113517808 -0.0085526271130560317 -0.0030168733041363981 -0.0072675527147604323 0.022918690051627444 -0.0001257955750426703 0.00076459410485567249 -0.0064968431734864877 -0.037951284370668192 0.0048387644997985634
leaf_weight=568.42251125536859 704.38063788693398 175.5996478786692 312.51745748333633 599.73884579725564 160.30826987884939 1705.0339696342126 1622.6436006063595 443.71746063791215 286.79870853573084 290.28023462370038 7799.5189035199583 153.11581168696284 159.00310215074569 1596.8196328179911
leaf_count=16492 17966 5865 8707 25201 2717 34934 52642 8545 5036 5050 246297 4458 4539 37721
internal_value=0 -0.000455893 -0.000834312 -0.0124959 0.00742178 -0.000205084 0.000714879 -0.00413479 0.00324432 0.0113269 -0.00061237 -0.00616326 -0.0225207 0.00748153
internal_weight=0 15713.2 15144.8 775.338 864.689 14369.4 11643.6 2725.83 1020.8 577.079 9734.28 1934.76 312.119 1909.34
internal_count=476170 455487 438995 31066 20683 407929 354364 53565 18631 10086 307936 61639 8997 46428
is_linear=0
shrinkage=0.1


Tree=52
num_leaves=15
num_cat=0
split_feature=19 35 14 81 48 31 31 55 40 6 20 6 31 19
split_gain=4.99851 8.99315 5.08754 6.59259 8.79549 9.28596 11.875 7.11489 6.99066 6.25543 5.61893 8.33057 9.19675 9.23834
threshold=1.5500000000000003 0.38223027470000009 6.5000000000000009 0.037390253206057392 1.5000000000000002 54.500000000000007 9.5000000000000018 1.0000000180025095e-35 3.5000000000000004 1.0000000180025095e-35 0.57527161085000011 1.0000000180025095e-35 24.500000000000004 0.45000000000000007
decision_type=2 2 2 2 2 2 2 2 2 2 2 2 2 2
left_child=2 -2 3 -1 5 6 -5 -6 -7 -8 -4 -12 -13 -14
right_child=1 -3 10 4 7 8 9 -9 -10 -11 11 12 13 -15
leaf_value=-0.00088613367066065006 0.022810319251793717 -0.0045680436892765871 -0.0063116833494093437 -0.0018732988794140867 0.0044686243994117294 0.0073146342133594807 0.018657064921285726 -0.011607548316513866 -0.016052733474649639 0.04186287491639705 -0.0025792092867180827 -0.011905276010849314 0.017429627703404765 0.0017333492642406211
leaf_weight=4131.5399009976536 256.26433465816081 225.59456339105964 2196.1683988785371 200.88789863791317 785.71680192649364 820.21739555709064 329.38454858306795 423.78122076112777 151.70557651575655 179.44610545039177 5070.0919463345781 264.31138597242534 643.52371849492192 898.54552978277206
leaf_count=115197 5215 4594 85674 4507 19311 19466 9736 10436 3596 3886 153702 6022 16055 18773
internal_value=0 0.00999244 -0.000343877 0.00167691 0.00533958 0.0100173 0.0187133 -0.00116411 0.00366727 0.0268409 -0.00190806 -0.000501661 0.00532954 0.00828359
internal_weight=0 481.859 16095.3 7022.68 2891.14 1681.64 709.719 1209.5 971.923 508.831 9072.64 6876.47 1806.38 1542.07
internal_count=476170 9809 466361 186135 70938 41191 18129 29747 23062 13622 280226 194552 40850 34828
is_linear=0
shrinkage=0.1


Tree=53
num_leaves=15
num_cat=0
split_feature=21 19 28 76 4 34 8 20 38 19 57 46 34 16
split_gain=5.03239 11.938 12.6441 7.43424 7.18857 6.76108 6.26154 6.11 7.64587 6.04162 10.5139 7.13046 6.76727 12.1541
threshold=4.5000000000000009 1.0000000180025095e-35 1.0000000180025095e-35 0.033740313428602821 1.0000000180025095e-35 1.3842420426500002 1.0000000180025095e-35 1.1304036805000004 0.45000000000000007 0.25000000000000006 1.0000000180025095e-35 6.5000000000000009 0.84102179835000002 1.0000000180025095e-35
decision_type=2 2 2 2 2 2 2 2 2 2 2 2 2 2
left_child=1 -1 -3 5 7 -2 9 8 -4 10 11 -5 13 -11
right_child=3 2 4 6 -6 -7 -8 -9 -10 12 -12 -13 -14 -15
leaf_value=0.026963793114729535 -0.0051635641806173803 0.027693784084095049 -0.024135218805554123 0.022706320712421974 0.016234730346056492 0.011948576069595533 -0.0046761195644706216 0.010279330040323333 -0.00059788871898113155 0.0039934158188029544 -0.0049977653059779864 0.0023726531636648249 0.00047910841216979716 0.020247086867059061
leaf_weight=224.36845258809626 3904.6266165627167 155.60428893938661 278.12293584272265 233.31844452116638 154.53724237717688 245.402672752738 1757.5254041766748 150.41912440769374 273.95139151345938 2371.8656993191689 2439.6800908269361 661.16197149362415 3154.6379633285105 570.78092079423368
