tree
version=v3
num_class=1
num_tree_per_iteration=1
label_index=0
max_feature_idx=81
objective=binary sigmoid:1
feature_names=ps_ind_01 ps_ind_02_cat ps_ind_03 ps_ind_04_cat ps_ind_05_cat ps_ind_06_bin ps_ind_07_bin ps_ind_08_bin ps_ind_09_bin ps_ind_10_bin ps_ind_11_bin ps_ind_12_bin ps_ind_13_bin ps_ind_14 ps_ind_15 ps_ind_16_bin ps_ind_17_bin ps_ind_18_bin ps_reg_01 ps_reg_02 ps_reg_03 ps_car_01_cat ps_car_02_cat ps_car_03_cat ps_car_04_cat ps_car_05_cat ps_car_06_cat ps_car_07_cat ps_car_08_cat ps_car_09_cat ps_car_10_cat ps_car_11_cat ps_car_11 ps_car_12 ps_car_13 ps_car_14 ps_car_15 ps_calc_01 ps_calc_02 ps_calc_03 ps_calc_04 ps_calc_05 ps_calc_06 ps_calc_07 ps_calc_08 ps_calc_09 ps_calc_10 ps_calc_11 ps_calc_12 ps_calc_13 ps_calc_14 ps_calc_15_bin ps_calc_16_bin ps_calc_17_bin ps_calc_18_bin ps_calc_19_bin ps_calc_20_bin missing bin_sum ps_ind_06_bin_target_en ps_ind_07_bin_target_en ps_ind_08_bin_target_en ps_ind_09_bin_target_en ps_ind_12_bin_target_en ps_ind_16_bin_target_en ps_ind_17_bin_target_en ps_ind_18_bin_target_en ps_ind_04_cat_target_en ps_ind_05_cat_target_en ps_car_01_cat_target_en ps_car_02_cat_target_en ps_car_03_cat_target_en ps_car_04_cat_target_en ps_car_06_cat_target_en ps_car_07_cat_target_en ps_car_08_cat_target_en ps_car_09_cat_target_en ps_car_11_cat_target_en ps_ind_01_target_en ps_ind_03_target_en ps_ind_15_target_en ps_car_11_target_en
feature_infos=[0:7] [-1:4] [0:11] [-1:1] [-1:6] [0:1] [0:1] [0:1] [0:1] [0:1] [0:1] [0:1] [0:1] [0:4] [0:13] [0:1] [0:1] [0:1] [0:0.90000000000000002] [0:1.8] [-1:4.0379450218999997] [-1:11] [-1:1] [-1:1] [0:9] [-1:1] [0:17] [-1:1] [0:1] [-1:4] [0:2] [1:104] [-1:3] [-1:1.2649110641000001] [0.30872304309999998:3.5158025782000002] [-1:0.63639610310000005] [0:3.7416573868] [0:0.90000000000000002] [0:0.90000000000000002] [0:0.90000000000000002] [0:5] [0:6] [0:10] [0:9] [2:12] [0:7] [0:25] [0:18] [0:10] [0:13] [0:23] [0:1] [0:1] [0:1] [0:1] [0:1] [0:1] [0:8] [1:10] [0.028411093194365838:0.041657003008138245] [0.032494231291285855:0.047854933611888653] [0.03548130229567166:0.041372066810123988] [0.033305390035571064:0.037162118614573532] [0.036302119107583505:0.051782111634162742] [0.032658974228638234:0.04383492047756829] [0.033854764089622999:0.055246512433931201] [0.036025066522503577:0.038781163434903045] [0.034787063628360732:0.41176470588235292] [0.03392731990983653:0.08540004313133491] [0.028570431383498535:0.32558139534883723] [0:0.049567744636831605] [0.032670044405000348:0.048360665001525749] [0.022727272727272728:0.094017094017094016] [0.031853428614869998:0.073104693140794222] [0.034770995471432059:0.079803493449781659] [0.034746374434017978:0.044875242323807144] [0.033483708628023863:0.088691796008869186] [0.018161180476730987:0.078315623770169221] [0.033167363207955901:0.046133224112894215] [0.029185820975304304:0.065051736584583297] [0.030160337155369293:0.04618538901478364] [0:0.048418303182741609]
tree_sizes=1749 1795 1781 1794 1790 1800 1796 1785 1788 1805 1806 1791 1795 1802 1800 1788 1803 1799 1797 1798 1799 1798 1790 1812 1803 1801 1801 1799 1807 1808 1801 1788 1807 1792 1796 1788 1803 1804 1796 1806 1801 1806 1812 1806 1799 1793 1793 1785 1807 1778 1812 1787 1792 1791 1787 1793 1792 1789 1795 1793 1795 1795 1789 1788 1802 1803 1795 1784 1792 1790 1787 1786 1790 1798 1787 1782 1790 1779 1800 1791 1788 1784 1777

Tree=0
num_leaves=15
num_cat=0
split_feature=34 68 68 65 20 20 64 23 34 77 34 20 24 5
split_gain=934.049 483.562 303.843 261.056 183.641 172.496 169.894 88.7165 82.9532 81.4502 78.2997 71.6594 63.8664 55.3793
threshold=0.94264223315000006 0.050563780495028687 0.045540687483227649 0.04455063826177711 0.77115981415000012 0.75725653345000021 0.038246947353103265 -1.0000000180025095e-35 1.3554586229000003 0.033141790125276287 1.2258029918000002 0.85385154825000009 1.5000000000000002 1.0000000180025095e-35
decision_type=2 2 2 2 2 2 2 2 2 2 2 2 2 2
left_child=1 3 6 5 -3 9 10 -5 -8 -1 -2 -4 -7 -6
right_child=2 4 11 7 13 12 8 -9 -10 -11 -12 -13 -14 -15
leaf_value=-3.3177407102528722 -3.2666304226199174 -3.2581882703388318 -3.1828115944930433 -3.2736273237730411 -3.1520935661765774 -3.2855687929186677 -3.2195215628296849 -3.2220205930991552 -3.148594699488509 -3.2944735000920726 -3.2199044616958981 -3.0861372819211836 -3.2300105615122603 -3.2249217844856033
leaf_weight=3805.5381205528975 1510.9491528272629 663.84975446015596 150.20289900153875 771.06730195879936 312.20569841563702 4265.5235241353512 968.39956510812044 586.4831455051899 198.73701319843531 2488.3039994984865 470.24007894098759 156.62963047623634 217.45530760288239 156.87546173483133
leaf_count=108362 43024 18903 4277 21956 8890 121460 27575 16700 5659 70854 13390 4460 6192 4467
internal_value=-3.27476 -3.28683 -3.22845 -3.29266 -3.22435 -3.29786 -3.23771 -3.25133 -3.20744 -3.30854 -3.25554 -3.13346 -3.28287 -3.17645
internal_weight=0 13267.3 3455.16 12134.4 1132.93 10776.8 3148.33 1357.55 1167.14 6293.84 1981.19 306.833 4482.98 469.081
internal_count=476169 377784 98385 345524 32260 306868 89648 38656 33234 179216 56414 8737 127652 13357
is_linear=0
shrinkage=1


Tree=1
num_leaves=15
num_cat=0
split_feature=34 79 27 34 4 4 5 27 5 15 15 15 23 77
split_gain=744.043 255.932 223.992 179.174 165.953 118.193 114.323 80.8924 74.3843 66.3652 58.2954 57.7731 48.2584 43.0631
threshold=0.83616845550000007 0.034452903596760752 1.0000000180025095e-35 1.0999201699000001 1.5000000000000002 1.0000000180025095e-35 1.0000000180025095e-35 1.0000000180025095e-35 1.0000000180025095e-35 1.0000000180025095e-35 1.0000000180025095e-35 1.0000000180025095e-35 -1.0000000180025095e-35 0.051220456183497375
decision_type=2 2 2 2 2 2 2 2 2 2 2 2 2 2
left_child=2 9 -1 5 6 7 12 -3 -6 13 -9 -5 -4 -2
right_child=1 3 4 11 8 -7 -8 10 -10 -11 -12 -13 -14 -15
leaf_value=0.040253807548329676 0.014859410404690649 0.09226294840816758 -0.019875787204861623 0.11145644648788314 0.0459405097147658 0.0797213628150924 -0.036316415044090104 0.040368262065139403 -0.0096330757728907007 -0.0089041354533159374 0.00468322084117671 0.061606973283449773 0.0027319100801540415 0.071842530504567612
leaf_weight=657.37687945365906 823.24496260285378 151.89433228597045 3412.783465616405 384.96087401360273 503.48204926773906 419.96274389326572 4191.152158703655 688.39056733995676 461.7202457562089 1622.6828802786767 1366.5553557910025 586.99544307589531 1305.3272048532963 158.08857011049986
leaf_count=18655 22622 4192 99029 10080 13608 11138 121978 19161 12955 45949 39094 15973 37462 4273
internal_value=0 0.0273901 -0.0162677 0.0446689 -0.0200305 0.0310961 -0.0242976 0.0218426 0.019356 0.00351067 0.0166374 0.0813508 -0.0136211 0.0240391
internal_weight=0 6202.78 10531.8 3598.76 9874.47 2626.8 8909.26 2206.84 965.202 2604.02 2054.95 971.956 4718.11 981.334
internal_count=476169 172482 303687 99638 285032 73585 258469 62447 26563 72844 58255 26053 136491 26895
is_linear=0
shrinkage=0.1


Tree=2
num_leaves=15
num_cat=0
split_feature=77 68 16 68 34 16 20 20 20 20 14 5 77 34
split_gain=622.077 304.684 207.841 186.354 144.166 115.531 93.1446 91.3263 85.8711 66.6075 59.7545 49.2629 41.9783 40.097
threshold=0.037015821146173106 0.045540687483227649 1.0000000180025095e-35 0.050563780495028687 1.0826163967000002 1.0000000180025095e-35 0.96582217505000012 0.74519289855000015 0.75972854210000007 0.64250481775000012 6.5000000000000009 1.0000000180025095e-35 0.045802769416961001 1.4798055210000001
decision_type=2 2 2 2 2 2 2 2 2 2 2 2 2 2
left_child=3 2 4 5 9 7 11 -1 -5 -2 -4 -3 -11 -6
right_child=1 6 10 8 13 -7 -8 -9 -10 12 -12 -13 -14 -15
leaf_value=-0.036812735559121533 -0.017663414324157644 0.076171344226257487 0.081721271225411729 -0.0014336489007774798 0.026606421719336783 0.010745015317997214 0.12299662963753924 -0.013751861120359971 0.062623801945753885 0.0012229247766544591 0.033034429409616164 0.012268905226424438 0.03082186480761245 0.069784017964196463
leaf_weight=4188.2438968420029 1691.625834543258 328.0017797909677 468.14933743327856 487.72592648118734 1124.6370698139071 896.25696166232228 295.62342462316155 2910.7996467538178 366.5450238995254 2380.3909551016986 546.19752162322402 190.82220010831952 599.90645847842097 265.93573982268572
leaf_count=125907 48814 8308 12381 13358 29805 25197 6992 84815 9228 68251 14510 5105 16769 6729
internal_value=0 0.0202742 0.0136082 -0.0183426 0.00659828 -0.023086 0.0781956 -0.0273572 0.0260517 -0.0018148 0.0555048 0.0526682 0.00718092 0.0348638
internal_weight=0 7891.29 7076.84 8849.57 6062.5 7995.3 814.447 7099.04 854.271 4671.92 1014.35 518.824 2980.3 1390.57
internal_count=476169 217664 197259 258505 170368 235919 20405 210722 22586 133834 26891 13413 85020 36534
is_linear=0
shrinkage=0.1


Tree=3
num_leaves=15
num_cat=0
split_feature=77 68 16 20 27 68 6 6 18 69 69 76 16 77
split_gain=502.97 250.567 160.881 139.368 113.132 102.743 91.5755 75.8875 63.4402 60.9901 59.6996 57.726 47.8716 38.9489
threshold=0.035606105483482427 0.045540687483227649 1.0000000180025095e-35 0.75725653345000021 1.0000000180025095e-35 0.050563780495028687 1.0000000180025095e-35 1.0000000180025095e-35 0.35000000000000003 0.033443939700670243 0.037798809710627497 0.044453692150945502 1.0000000180025095e-35 0.047007602687521223
decision_type=2 2 2 2 2 2 2 2 2 2 2 2 2 2
left_child=3 2 6 9 -3 12 10 -6 -8 -1 -2 -4 -5 -10
right_child=1 4 11 5 7 -7 8 -9 13 -11 -12 -13 -14 -15
leaf_value=-0.038623843246096384 -0.017217674463253223 0.14091895100061141 0.036506312304771249 -0.013214386410051199 0.026584407452175024 0.048456557871913677 -0.008385422434412813 0.091739507574785134 0.022247453420390653 -0.015903190402052958 0.0065513220484683084 0.10300627002758089 0.025872777398886854 0.058601694003260707
leaf_weight=2765.0420518666506 1913.487112082541 162.72135777026415 987.82323031127453 2532.5584049709141 512.27607506513596 357.40293402969837 568.07583152875304 274.57584149390459 1363.6711291261017 2062.8975654393435 2359.9367809332907 150.41147704795003 357.5760423541069 375.94938673824072
leaf_count=84745 54968 3697 25069 74835 12368 8545 15595 6190 37497 62568 66622 3725 9939 9806
internal_value=0 0.0165435 0.0105807 -0.0181413 0.0650171 -0.00212352 0.00457685 0.0493206 0.0206292 -0.0289157 -0.00409159 0.0452939 -0.00837841 0.030104
internal_weight=0 8668.93 7719.35 8075.48 949.573 3247.54 6581.12 786.852 2307.7 4827.94 4273.42 1138.23 2890.13 1739.62
internal_count=476169 235537 213282 240632 22255 93319 184488 18558 62898 147313 121590 28794 84774 47303
is_linear=0
shrinkage=0.1


Tree=4
num_leaves=15
num_cat=0
split_feature=34 16 16 34 20 68 68 18 80 23 68 20 80 34
split_gain=431.598 176.002 140.348 118.517 94.7274 92.4506 91.342 89.4881 53.7431 50.0661 46.8285 43.9083 43.2736 34.31
threshold=0.78582647180000009 1.0000000180025095e-35 1.0000000180025095e-35 1.2406906234500001 0.78042453825000013 0.054641716896535027 0.038841025587015167 0.65000000000000002 0.038827844419664734 -1.0000000180025095e-35 0.054641716896535027 0.80253502235000018 0.032539368575382664 0.91986850030000011
decision_type=2 2 2 2 2 2 2 2 2 2 2 2 2 2
left_child=2 3 4 5 8 7 12 11 -1 -4 -6 -2 -3 -14
right_child=1 6 9 -5 10 -7 -8 -9 -10 -11 -12 -13 13 -15
leaf_value=-0.038349175464347462 -0.020323616145850886 0.0075276775409332131 -5.1311139053052625e-05 0.04600319095157944 -0.00972899452360672 0.054101900999392265 0.11870266343876353 0.013384876594865059 -0.016716397967228524 0.044504586163475857 0.040077273424942425 0.0088237860595579056 0.025751708438047628 0.069305670886826112
leaf_weight=2713.3191960565746 1787.2938517443836 293.02758539095521 593.37264398857951 812.44880406931043 2721.6461045444012 365.04213374853134 172.39420109987259 3160.2143085617572 1991.1830101069063 438.6093961596489 202.8434582836926 727.07652262225747 292.25492367893457 474.56806438788772
leaf_count=84826 51715 7288 16649 19316 79903 8103 3734 87903 62051 11536 4610 20037 7475 11023
internal_value=0 0.0164022 -0.0157256 0.0101451 -0.0204075 0.0053215 0.0511958 0.00218349 -0.0291931 0.0188857 -0.00627442 -0.0118951 0.0402152 0.0527062
internal_weight=0 8084.32 8660.97 6852.08 7628.99 6039.63 1232.24 5674.58 4704.5 1031.98 2924.49 2514.37 1059.85 766.823
internal_count=476169 216594 259575 187074 231390 167758 29520 159655 146877 28185 84513 71752 25786 18498
is_linear=0
shrinkage=0.1


Tree=5
num_leaves=15
num_cat=0
split_feature=34 79 20 2 6 74 6 16 74 68 76 5 14 14
split_gain=351.795 160.098 151.712 93.0763 91.6949 65.0874 63.4483 58.3768 52.0806 49.2122 48.407 45.8848 39.2011 39.1281
threshold=0.83616845550000007 0.034452903596760752 0.75972854210000007 1.0000000180025095e-35 1.0000000180025095e-35 0.042645861223565736 1.0000000180025095e-35 1.0000000180025095e-35 0.042645861223565736 0.054641716896535027 0.044453692150945502 1.0000000180025095e-35 8.5000000000000018 5.5000000000000009
decision_type=2 2 2 2 2 2 2 2 2 2 2 2 2 2
left_child=2 10 5 -4 9 11 8 -6 12 -3 13 -1 -5 -2
right_child=1 4 3 6 7 -7 -8 -9 -10 -11 -12 -13 -14 -15
leaf_value=-0.015464504897402224 0.012241672183012281 0.013332761423467045 0.070224797319453164 -0.00039413844630162775 0.040451071700974048 0.018490206573756714 0.024776790631890453 0.092199930634237745 0.038452542533445981 0.063312898075858479 0.036867008530571642 -0.033906998280420902 -0.023125332402332218 -0.014789465287302357
leaf_weight=2518.6191593594849 800.53344815783203 2155.8335318341851 192.29095770046115 1712.6104092374444 1332.8488911688328 361.3282677307725 775.57433117553592 260.61538410186768 234.23595349863172 216.81879683211446 298.1248275116086 2905.1435015127063 1362.0443574041128 1617.4790868014097
leaf_count=77935 21082 57064 4800 49687 32665 10261 21767 5453 6213 4456 7603 93458 39566 44159
internal_value=0 0.0175515 -0.0120474 0.00223395 0.0303608 -0.0226052 -0.000966962 0.0489147 -0.00700107 0.0179001 -0.00115267 -0.0253429 -0.0104639 -0.00584024
internal_weight=0 6682.25 10061.8 4276.76 3966.12 5785.09 4084.47 1593.46 3308.89 2372.65 2716.14 5423.76 3074.65 2418.01
internal_count=476169 172482 303687 122033 99638 181654 117233 38118 95466 61520 72844 171393 89253 65241
is_linear=0
shrinkage=0.1


Tree=6
num_leaves=15
num_cat=0
split_feature=77 79 16 16 19 34 76 79 79 77 18 34 19 23
split_gain=314.341 138.235 107.185 96.8775 80.9372 70.6404 45.2013 44.5176 42.5589 38.2126 37.2314 36.9332 36.271 32.8515
threshold=0.037732402181999143 0.034452903596760752 1.0000000180025095e-35 1.0000000180025095e-35 0.35000000000000003 1.1379942841000001 0.044453692150945502 0.036566569267652775 0.040911967623133684 0.030643839534389563 0.65000000000000002 0.55938647000000008 0.8500000000000002 -1.0000000180025095e-35
decision_type=2 2 2 2 2 2 2 2 2 2 2 2 2 2
left_child=2 6 4 5 9 10 13 -6 -4 -1 -3 -9 -5 -2
right_child=1 3 8 12 7 -7 -8 11 -10 -11 -12 -13 -14 -15
leaf_value=-0.032967001787964648 -0.013705312254525932 -0.00012482382041811729 0.0052465091432158453 0.044558209164729537 -0.018841561546262042 0.044874152851712701 0.034433541398639016 -0.041965455059550669 0.051934026226039813 -0.01442488336340733 0.021546418855415847 0.0097519925933154099 0.094141842774504547 0.0094119132538852367
leaf_weight=2818.9863300956786 1889.0727225132287 1415.5402131639421 821.79416044428945 563.75001684948802 1307.9419431723654 821.04703921824694 303.71865638159215 150.73396785929799 256.0938863530755 1834.8906020224094 1801.8896946217865 1645.3638542145491 199.82412406802177 911.26928389072418
leaf_count=92420 52793 39368 22333 12389 39678 18175 7504 4505 6681 57189 47644 47253 4145 24092
internal_value=0 0.014238 -0.0132092 0.0248691 -0.0173146 0.018693 -0.00220854 -0.00480784 0.0163389 -0.0256564 0.0120119 0.00541171 0.057534 -0.00618265
internal_weight=0 7906.11 8835.8 4802.05 7757.92 4038.48 3104.06 3104.04 1077.89 4653.88 3217.43 1796.1 763.574 2800.34
internal_count=476169 206110 270059 121721 241045 105187 84389 91436 29014 149609 87012 51758 16534 76885
is_linear=0
shrinkage=0.1


Tree=7
num_leaves=15
num_cat=0
split_feature=69 68 20 15 65 36 80 78 27 76 36 36 18 20
split_gain=269.86 166.097 116.976 115.07 65.7596 59.8702 57.6587 54.4083 42.039 38.2882 36.6478 31.2562 41.1098 28.3384
threshold=0.037798809710627497 0.048904598762786286 0.66825327935000012 1.0000000180025095e-35 0.04455063826177711 2.7370892179000008 0.032539368575382664 0.041429846078648046 1.0000000180025095e-35 0.044453692150945502 2.9142135623500005 2.7370892179000008 0.35000000000000003 1.2731604317000003
decision_type=2 2 2 2 2 2 2 2 2 2 2 2 2 2
left_child=2 3 9 7 13 -4 -5 -2 -7 11 -8 -1 -13 -3
right_child=1 4 5 6 -6 8 10 -9 -10 -11 -12 12 -14 -15
leaf_value=-0.044804784535104711 0.01757668233621491 0.029483463847099458 -0.025855805429236989 -0.016569994381540491 0.10868716766317461 0.055813130291314517 -0.013376931834225017 0.058582898043721222 0.0021748768948838238 0.018881333774143666 0.011627287127084726 -0.036545968136329064 -0.01260821502117632 0.075593944362228174
leaf_weight=858.98215007223189 2486.2371220029891 645.77153879590333 799.58823553845286 1797.2444430962205 162.44513224810362 153.75678771547973 766.5897152479738 371.9791384357959 2941.0090590044856 182.30767678283155 2490.5357340630144 1277.1562680695206 1636.9873353708535 167.94639065489173
leaf_count=28535 65159 14984 24013 53071 3123 3643 23578 9138 81679 5133 70918 39431 50564 3200
internal_value=0 0.0116783 -0.0137653 0.00687697 0.0505971 -0.00146263 -0.00219152 0.0229134 0.00483978 -0.025878 0.00574235 -0.0280407 -0.0230992 0.0390004
internal_weight=0 8888.75 7849.79 7912.59 976.163 3894.35 5054.37 2858.22 3094.77 3955.43 3257.13 3773.13 2914.14 813.718
internal_count=476169 243171 232998 221864 21307 109335 147567 74297 85322 123663 94496 118530 89995 18184
is_linear=0
shrinkage=0.1


Tree=8
num_leaves=15
num_cat=0
split_feature=60 27 79 34 79 16 19 20 20 14 34 80 16 4
split_gain=248.624 131.206 113.834 111.405 61.1248 58.5118 50.1889 43.0652 41.2987 36.5755 35.8715 30.0176 28.6726 28.5446
threshold=0.040174582451587261 1.0000000180025095e-35 0.037660109418300627 0.75196024820000007 0.034452903596760752 1.0000000180025095e-35 0.45000000000000007 0.5790616782000001 0.81872612245000009 7.5000000000000009 0.97206747965000007 0.032539368575382664 1.0000000180025095e-35 1.5000000000000002
decision_type=2 2 2 2 2 2 2 2 2 2 2 2 2 2
left_child=1 12 7 6 -5 10 9 -2 -6 -3 13 -10 -1 -4
right_child=2 3 5 4 8 -7 -8 -9 11 -11 -12 -13 -14 -15
leaf_value=0.019582349744707933 -0.013631946762340828 -0.017081429972177615 0.0074904335648964442 -0.01424790901574411 -0.0029411348015984488 0.07396687057213984 -0.0061428399327678419 0.013912312847768456 0.0014280470452707602 -0.036394559316973503 0.045889503692392537 0.02981205665124714 0.064354861764540264 0.04982890996419146
leaf_weight=760.89504472725093 809.7336987182498 1892.7402899563313 752.86088747344911 2115.398161938414 1805.1330474615097 353.2534838616848 1614.451620882377 1898.4679757915437 596.29145240783691 2034.7264860272408 730.2032971046865 993.14585894905031 176.14891905337572 201.9572825320065
leaf_count=19719 23724 61964 21712 61283 51088 6862 47750 50061 15285 67961 15685 24830 3752 4493
internal_value=0 -0.00792854 0.0191119 -0.0109747 -0.000905611 0.0369628 -0.0209857 0.00567677 0.00740892 -0.0270871 0.0292051 0.0191635 0.0279988 0.0164456
internal_weight=0 11988.9 4746.48 11051.9 5509.97 2038.27 5541.92 2708.2 3394.57 3927.47 1685.02 1589.44 937.044 954.818
internal_count=476169 353632 122537 330161 152486 48752 177675 73785 91203 129925 41890 40115 23471 26205
is_linear=0
shrinkage=0.1


Tree=9
num_leaves=15
num_cat=0
split_feature=77 79 5 68 80 23 68 74 23 79 23 77 19 8
split_gain=217.609 109.587 96.2077 80.9327 68.6942 65.0251 47.0239 41.2296 38.2491 37.0679 32.0688 31.5228 27.3283 23.5318
threshold=0.04130957121382952 0.053229703044132527 1.0000000180025095e-35 0.038841025587015167 0.037360392091218643 1.0000000180025095e-35 0.038841025587015167 0.042645861223565736 -1.0000000180025095e-35 0.031666418230650806 -1.0000000180025095e-35 0.028800593511877911 0.25000000000000006 1.0000000180025095e-35
decision_type=2 2 2 2 2 2 2 2 2 2 2 2 2 2
left_child=1 2 5 4 10 6 -1 11 -5 -6 -2 -4 -13 -7
right_child=3 -3 7 8 9 13 -8 -9 -10 -11 -12 12 -14 -15
leaf_value=-0.01121101743411557 -0.011992246770667264 0.043476377153533287 -0.035576715953046428 0.023072803422334309 0.0045360682953180832 0.026620708894481534 0.019339238019955157 0.018816278182716868 0.067448527717490103 0.029222791544363649 0.012259163886861567 -0.028395986333262149 -0.0080464177695346029 -0.0038574632825930824
leaf_weight=4291.4889050778002 1351.3651334531605 389.72177237272263 1518.71863550134 386.21735963411629 898.41880995035172 893.02650835178792 570.85603019967675 236.68905349820852 390.75365483388305 1883.1155089773238 914.1000832375139 1233.6769009623677 1419.0143192503601 353.64301311038435
leaf_count=130814 37050 10009 52259 8045 23680 24233 13581 6364 7132 46092 23009 40714 43214 9973
internal_value=0 -0.0085952 -0.0105248 0.0153456 0.0107203 -0.00240026 -0.00762431 -0.0217842 0.0453902 0.0212491 -0.00220696 -0.0240879 -0.0175103 0.017975
internal_weight=0 10906.8 10517.1 5823.97 5047 6109.01 4862.34 4408.1 776.971 2781.53 2265.47 4171.41 2652.69 1246.67
internal_count=476169 331161 321152 145008 129831 178601 144395 142551 15177 69772 60059 136187 83928 34206
is_linear=0
shrinkage=0.1


Tree=10
num_leaves=15
num_cat=0
split_feature=5 68 77 18 16 15 77 71 0 8 8 77 20 77
split_gain=185.349 128.548 95.1419 70.3522 46.167 39.6831 36.5672 30.5778 28.8705 36.9266 27.8065 23.4413 21.8796 20.4423
threshold=1.0000000180025095e-35 0.038841025587015167 0.037015821146173106 0.55000000000000016 1.0000000180025095e-35 1.0000000180025095e-35 0.028800593511877911 0.036165943782156228 1.5000000000000002 1.0000000180025095e-35 1.0000000180025095e-35 0.045802769416961001 0.58229067310000004 0.047557240094165988
decision_type=2 2 2 2 2 2 2 2 2 2 2 2 2 2
left_child=1 2 7 11 10 8 -5 12 -4 -10 -3 -2 -1 -8
right_child=3 4 5 6 -6 -7 13 -9 9 -11 -12 -13 -14 -15
leaf_value=-0.028690548667900578 -0.03201484079843351 0.035749797719190624 0.0097601029428635837 -0.022623151181991673 0.071308967195753803 0.0048254613194351204 -0.0035519296135638951 0.0052099521671872947 0.041960761859987677 -0.0032651324927014803 0.0025479398595531447 0.0068553646104520041 -0.0088404108270076706 0.02290594833850737
leaf_weight=764.42854203656316 1965.5966352745891 884.39651560410857 970.67629573121667 1010.0627456791699 279.04365197196603 3191.996637839824 2493.1638394333422 1132.1694446299225 928.52726765349507 224.1110758613795 352.89590292423964 168.44422292336822 2029.5159046314657 330.76768747717142
leaf_count=26219 66318 18320 23043 34310 4790 85892 74112 33603 20633 5509 8004 4535 62870 8011
internal_value=0 0.00758021 0.00315229 -0.0143939 0.0345665 0.0118726 -0.00629364 -0.00865362 0.0224667 0.0331673 0.0262801 -0.0289467 -0.0142714 -0.000452913
internal_weight=0 10757.8 9241.43 5968.04 1516.34 5315.31 3833.99 3926.11 2123.31 1152.64 1237.29 2134.04 2793.94 2823.93
internal_count=476169 288883 257769 187286 31114 135077 116433 122692 49185 26142 26324 70853 89089 82123
is_linear=0
shrinkage=0.1


Tree=11
num_leaves=15
num_cat=0
split_feature=69 79 14 36 18 2 6 69 77 77 79 14 77 16
split_gain=175.169 102.272 74.167 70.4457 65.124 41.895 39.0386 34.2933 32.436 28.8047 22.8781 21.1104 20.2361 20.0566
threshold=0.037798809710627497 0.034452903596760752 8.5000000000000018 2.7370892179000008 0.35000000000000003 1.0000000180025095e-35 1.0000000180025095e-35 0.044473471831719256 0.035606105483482427 0.04130957121382952 0.031666418230650806 5.5000000000000009 0.041867649607100078 1.0000000180025095e-35
decision_type=2 2 2 2 2 2 2 2 2 2 2 2 2 2
left_child=3 7 5 -1 10 -3 -6 11 -4 -7 -5 13 -12 -2
right_child=1 2 8 4 6 9 -8 -9 -10 -11 12 -13 -14 -15
leaf_value=-0.03028199263522361 -0.002072342668105766 0.070229473996466951 -0.011552485127589135 -0.04568795089006758 -0.0066510267798813305 0.015683529416977218 0.013513772168385252 0.026148127831796087 0.013391830108384085 0.035257244743338662 -0.026346463875022687 -0.012631926268831847 0.00392295390857681 0.032937964647451821
leaf_weight=1570.4624369051307 882.17692821845412 213.15008645690978 861.11776589602232 390.94272783398628 3269.5944403577596 1694.0769790001214 1359.1852217763662 344.68934530578554 1320.9742096532136 1351.7092471662909 745.9551319219172 2201.0948763340712 313.75682030245662 200.89388093166053
leaf_count=53125 25328 4609 26483 13182 99131 47267 34423 9397 31809 28942 25043 64721 8094 4615
internal_value=0 0.00914411 0.0178162 -0.0114013 -0.006524 0.0273697 -0.000729877 -0.00385858 0.00354807 0.0243703 -0.025012 -0.00700793 -0.0173844 0.00442156
internal_weight=0 9069.88 5441.03 7649.9 6079.43 3258.94 4628.78 3628.86 2182.09 3045.79 1450.65 3284.17 1059.71 1083.07
internal_count=476169 243171 139110 232998 179873 80818 133554 104061 58292 76209 46319 94664 33137 29943
is_linear=0
shrinkage=0.1


Tree=12
num_leaves=15
num_cat=0
split_feature=59 71 34 8 18 2 76 27 78 34 18 32 2 2
split_gain=138.079 92.6167 69.3537 62.7069 58.3065 45.3413 41.6551 39.6782 34.1 33.1043 39.3059 31.8998 27.3423 26.776
threshold=0.035034048101252047 0.036165943782156228 1.3554586229000003 1.0000000180025095e-35 0.75000000000000011 1.0000000180025095e-35 0.044453692150945502 1.0000000180025095e-35 0.041429846078648046 0.66027323415000005 0.35000000000000003 1.0000000180025095e-35 1.5000000000000002 5.5000000000000009
decision_type=2 2 2 2 2 2 2 2 2 2 2 2 2 2
left_child=4 2 5 6 7 -2 8 -1 13 -7 -11 -12 -6 -3
right_child=1 3 -4 -5 12 9 -8 -9 -10 10 11 -13 -14 -15
leaf_value=0.019196096674056008 0.044713091883839901 0.0088200854596061466 0.046992664271378604 -0.0058654997325903128 0.022876752565144355 -0.02035135519658959 0.060600800837365271 -0.024142131702487007 0.048615254688326337 -0.017669210825228755 0.03955733992615651 0.0013671127288892319 -0.0056262128595922101 0.030604812056365067
leaf_weight=226.51764096878469 196.2167949937284 1514.4875189978629 293.99960779026151 822.9377293754369 401.08893193863332 1047.4944668654352 299.94072516448796 3135.622457511723 395.45001490414143 1112.3845488149673 231.2150169685483 4046.5228342022747 2091.7020082324743 899.20001296512783
leaf_count=5841 4523 37862 5905 22062 11501 33824 5930 106050 8799 33173 5839 110581 63894 20385
internal_value=0 0.00642247 -0.000534843 0.0186806 -0.0126295 -0.00264118 0.0251777 -0.0212223 0.0213954 -0.00408452 -0.000923291 0.00343132 -0.0010401 0.0169358
internal_weight=0 10859.8 6927.83 3932.02 5854.93 6633.83 3109.08 3362.14 2809.14 6437.62 5390.12 4277.74 2492.79 2413.69
internal_count=476169 288883 193845 95038 187286 187940 72976 111891 67046 183417 149593 116420 75395 58247
is_linear=0
shrinkage=0.1


Tree=13
num_leaves=15
num_cat=0
split_feature=69 79 80 20 16 34 69 76 68 77 18 34 80 2
split_gain=131.691 97.0668 81.0634 63.4261 42.6256 40.4205 29.4871 26.4942 25.485 26.7976 22.3616 26.8315 23.0487 22.1262
threshold=0.033443939700670243 0.034452903596760752 0.032539368575382664 0.67337764010000012 1.0000000180025095e-35 0.66739285500000012 0.044473471831719256 0.044453692150945502 0.054641716896535027 0.035606105483482427 0.35000000000000003 0.61195898685000005 0.038827844419664734 1.0000000180025095e-35
decision_type=2 2 2 2 2 2 2 2 2 2 2 2 2 2
left_child=3 6 8 7 13 -5 -2 10 9 -3 -1 -12 -13 -4
right_child=1 2 4 5 -6 -7 -8 -9 -10 -11 11 12 -14 -15
leaf_value=-0.033579037355181265 -0.0079801729704410199 -0.02165579276946069 0.043492778161493641 -0.021404325549662807 0.043590990690489537 0.0062589145122765926 0.02214715993431958 0.015878643956852723 0.032249524551660497 0.0034375350312705836 -0.042780705311612779 -0.022236022949096476 0.0022564437094489977 0.015030867812738578
leaf_weight=1279.9170857258141 3806.7756097838283 698.17841888964176 296.80199977383018 708.93011675402522 739.1454716026783 2071.8582969494164 355.1820257678628 181.65452859178185 189.03301311470568 1089.9846400804818 319.89843542128801 834.94198800809681 711.75282315537333 3425.5256936177611
leaf_count=44777 111109 22456 6256 23264 14133 56969 9397 5084 3664 27069 12270 28012 22668 89041
internal_value=0 0.00649287 0.0141863 -0.0119408 0.021656 -0.000793511 -0.0054091 -0.0212547 -0.00266869 -0.00636002 -0.0233985 -0.0164177 -0.0109652 0.0173003
internal_weight=0 10600.6 6438.67 6108.95 4461.47 2780.79 4161.96 3328.16 1977.2 1788.16 3146.51 1866.59 1546.69 3722.33
internal_count=476169 283125 162619 193044 109430 80233 120506 112811 53189 49525 107727 62950 50680 95297
is_linear=0
shrinkage=0.1


Tree=14
num_leaves=15
num_cat=0
split_feature=16 77 68 77 68 5 71 18 69 14 78 20 62 20
split_gain=111.546 94.2805 53.2105 52.3728 45.1632 39.1804 33.6395 26.5201 25.7556 25.0001 19.131 19.1294 21.3491 20.4455
threshold=1.0000000180025095e-35 0.029210674424526354 0.054641716896535027 0.045802769416961001 0.054641716896535027 1.0000000180025095e-35 0.036165943782156228 0.55000000000000016 0.033443939700670243 5.5000000000000009 0.041429846078648046 0.58763290350000008 0.035233754325072301 1.421376969
decision_type=2 2 2 2 2 2 2 2 2 2 2 2 2 2
left_child=1 8 3 5 6 9 -2 -7 -1 -3 -8 -11 -13 -14
right_child=4 2 -4 -5 -6 7 10 -9 -10 11 -12 12 13 -15
leaf_value=-0.028726476533784424 0.0024862397853111962 0.010261832799720547 0.025718521219408919 0.014050802896469781 0.065827317577081698 -0.027003904390452055 0.02014562650548217 -0.0069401079606321086 -0.010479684475439314 -0.016926263732124244 0.050752323034601025 -0.012629755229092474 0.00081391263025339393 0.027153723777518859
leaf_weight=1469.2560795713216 1109.4040372595191 1723.479486009106 784.07320735789835 1824.6379376817495 190.28461956605315 1027.5770785454661 1007.8234417643398 1835.6574681028724 1633.7368969023228 907.09550709091127 256.12271690554917 950.98975311778486 1623.856491278857 360.03331530466676
leaf_count=54917 28149 46618 15559 44602 3076 37081 21528 58013 53293 28280 4952 27612 43828 8661
internal_value=0 -0.00371938 0.000610112 -0.00130993 0.0189521 -0.00463521 0.0151938 -0.0141407 -0.0191195 0.000255051 0.0263477 -0.00423391 -0.000311033 0.00559402
internal_weight=0 14140.4 11037.4 10253.3 2563.63 8428.69 2373.35 2863.23 3102.99 5565.45 1263.95 3841.98 2934.88 1983.89
internal_count=476169 418464 310254 294695 57705 250093 54629 95094 108210 154999 26480 108381 80101 52489
is_linear=0
shrinkage=0.1


Tree=15
num_leaves=15
num_cat=0
split_feature=76 69 79 14 19 2 69 0 81 5 5 62 68 14
split_gain=100.379 90.071 69.205 48.2392 44.4779 32.8252 22.5261 20.2965 20.4606 20.0485 18.2295 20.8858 16.8043 15.2345
threshold=0.044453692150945502 0.033443939700670243 0.034452903596760752 7.5000000000000009 0.45000000000000007 1.5000000000000002 0.044473471831719256 2.5000000000000004 0.037343520915394397 1.0000000180025095e-35 1.0000000180025095e-35 0.035233754325072301 0.038841025587015167 8.5000000000000018
decision_type=2 2 2 2 2 2 2 2 2 2 2 2 2 2
left_child=1 4 6 7 9 -2 13 -4 -9 -1 11 -5 -7 -3
right_child=5 2 3 10 -6 12 -8 8 -10 -11 -12 -13 -14 -15
leaf_value=-0.010510537605347814 0.072169210668398973 -0.0047074985184470198 0.013174971988918777 -0.0081526922818745285 0.0037742484244426139 0.016283387967261878 0.017642087495145807 0.017687382490092045 0.046350633100005152 -0.024104988742428099 -0.011544380911019286 0.012585907957772844 0.052686169142622578 -0.018612003092540144
leaf_weight=2186.6971007585526 151.21494325622916 2274.4080176893622 2078.2577161509544 720.47150405868888 1309.2356556840241 804.18658341653645 334.55696737766266 558.55877003073692 449.41489488631487 2152.8466108608991 831.49093364365399 1489.7338540740311 150.54930595494807 1205.712199497968
leaf_count=67547 3367 66076 51040 19810 36440 19693 8767 12944 9706 79661 25200 35385 2889 37644
internal_value=0 -0.00229701 0.00343197 0.0100145 -0.0123808 0.02888 -0.00714221 0.0188227 0.0304672 -0.0172547 0.0010773 0.00582564 0.0220236 -0.00952481
internal_weight=0 15591.4 9942.6 6127.93 5648.78 1105.95 3814.68 3086.23 1007.97 4339.54 3041.7 2210.21 954.736 3480.12
internal_count=476169 450220 266572 154085 183648 25949 112487 73690 22650 147208 80395 55195 22582 103720
is_linear=0
shrinkage=0.1


Tree=16
num_leaves=15
num_cat=0
split_feature=71 80 34 20 36 77 79 16 79 16 34 20 32 2
split_gain=90.5908 71.9654 58.9954 51.4346 35.1545 38.1669 34.3634 31.3623 26.797 25.0893 24.0245 23.7336 21.3664 21.0882
threshold=0.044011254080418928 0.032539368575382664 1.3554586229000003 0.64250481775000012 3.6736043311500004 0.055412658049849427 0.036566569267652775 1.0000000180025095e-35 0.036566569267652775 1.0000000180025095e-35 0.64173866360000009 0.86077724590000015 1.0000000180025095e-35 1.0000000180025095e-35
decision_type=2 2 2 2 2 2 2 2 2 2 2 2 2 2
left_child=1 11 3 8 5 6 -2 10 -3 -8 -5 -1 -12 -14
right_child=4 2 -4 7 -6 -7 9 -9 -10 -11 12 -13 13 -15
leaf_value=-0.022554500977006536 0.0014725599220286405 -0.020480340174859835 0.039632515002126667 -0.013570292968997241 -0.0038603513724777836 0.062889641313496766 0.018088167603982942 0.022852982234109597 -0.0026363763981872923 0.047382321917842252 0.036623075145870231 -0.005716924484493369 0.036026225183473488 0.0015311944977674898
leaf_weight=2221.108555296436 982.34785569831729 1571.1873224135488 369.33134319074452 859.87067256681621 856.80071524530649 187.51730909012258 1186.4709864258766 809.75758125260472 1812.3948284909129 387.96740262955427 200.82074686512351 1343.5442086234689 186.09929875470698 3716.6095857731998
leaf_count=75092 26983 54344 6692 27824 20311 3721 30465 17912 56897 7001 4783 37221 3881 103042
internal_value=0 -0.00408758 0.00044799 -0.00113249 0.0138224 0.0193431 0.0161494 0.00460522 -0.0109223 0.0253067 0.00162817 -0.0162083 0.00481293 0.00317608
internal_weight=0 13090.7 9526.07 9156.74 3601.1 2744.3 2556.79 5773.16 3383.58 1574.44 4963.4 3564.65 4103.53 3902.71
internal_count=476169 387688 275375 268683 88481 68170 64449 157442 111241 37466 139530 112313 111706 106923
is_linear=0
shrinkage=0.1


Tree=17
num_leaves=15
num_cat=0
split_feature=60 69 14 79 79 77 20 20 20 20 74 14 23 0
split_gain=78.7158 63.331 49.6176 34.7505 30.0698 24.7784 21.3106 21.2882 21.1507 21.0932 18.1834 17.6202 16.9223 14.1535
threshold=0.040174582451587261 0.051102154208843391 8.5000000000000018 0.037660109418300627 0.034452903596760752 0.038357131463013339 0.88617857620000018 1.421376969 0.44335355620000005 1.0000000180025095e-35 0.042645861223565736 1.0000000180025095e-35 1.0000000180025095e-35 1.0000000180025095e-35
decision_type=2 2 2 2 2 2 2 2 2 2 2 2 2 2
left_child=1 2 4 9 8 -4 -6 12 -1 -2 -10 -11 13 -5
right_child=3 -3 5 7 6 -7 -8 -9 10 11 -12 -13 -14 -15
leaf_value=-0.030371874466811458 -0.016137972567710074 0.031909701597053232 -0.020294342499968428 -0.0076061880894826728 -0.00087892532554544099 -0.0049368841468278093 0.014125048390344298 0.041759716973436313 -0.0079965595871339373 0.03950779531233662 0.026872977382797814 0.0043187358089178387 0.029472249105207682 0.01525351092423323
leaf_weight=401.97442297451198 493.13265570811927 452.46246691606939 2753.7414586376399 370.75453980080783 2651.2905420809984 1698.6566575486213 1472.3284057993442 354.62844384647906 2005.8313708901405 152.467679053545 161.59664993174374 2133.1945513412356 578.93617263436317 1005.0940214265138
leaf_count=14789 15099 11031 96596 8667 80547 46867 35186 6273 64401 3733 4215 54953 11013 22799
internal_value=0 -0.00476578 -0.00625467 0.0101531 -0.000812706 -0.0144352 0.00447821 0.0192183 -0.00930406 0.00261919 -0.0053968 0.00666606 0.0151289 0.00909343
internal_weight=0 11597.9 11145.4 5088.21 6693.02 4452.4 4123.62 2309.41 2569.4 2778.79 2167.43 2285.66 1954.78 1375.85
internal_count=476169 353632 342601 122537 199138 143463 115733 48752 83405 73785 68616 58686 42479 31466
is_linear=0
shrinkage=0.1


Tree=18
num_leaves=15
num_cat=0
split_feature=68 77 15 20 0 20 65 14 69 23 8 20 2 20
split_gain=72.5596 65.8793 45.4425 31.1318 23.8728 21.704 18.0358 17.4071 17.2852 15.4835 15.2906 14.7989 14.5366 14.3219
threshold=0.054641716896535027 0.029210674424526354 1.0000000180025095e-35 0.58763290350000008 1.5000000000000002 0.55198498160000009 0.04455063826177711 2.5000000000000004 0.033443939700670243 -1.0000000180025095e-35 1.0000000180025095e-35 1.6491475043000003 6.5000000000000009 0.63072374190000013
decision_type=2 2 2 2 2 2 2 2 2 2 2 2 2 2
left_child=1 5 4 8 -3 -1 -2 -5 -4 -9 12 -11 13 -6
right_child=6 2 3 7 10 -7 -8 9 -10 11 -12 -13 -14 -15
leaf_value=-0.028175929266677037 0.017638732213071433 0.0022378149021808811 -0.023845745719925735 0.029924053577655416 -0.0021046899433974954 -0.0097623899432945464 0.049909890894656535 -0.0044675490487814037 -0.0053682253963671699 0.0040845825698069896 -0.0021798085541591076 0.035852118418088302 0.03460816097607821 0.021073449992707154
leaf_weight=882.53368915617466 1034.5650358702987 2472.1823296844959 962.09954193979502 192.2634351849556 366.29564928263426 2330.4915395900607 208.00278286263347 3574.8323635682464 1068.5824357699603 1573.5892710275948 365.14031089283526 161.71389805339277 508.7125446498394 979.3837307523936
leaf_count=35174 21469 65249 35044 5152 9345 79573 3076 103457 32629 41230 9199 3676 10764 21132
internal_value=0 -0.00207788 0.00127114 -0.00354046 0.00899671 -0.0148201 0.0230408 0.000364896 -0.0141225 -0.000705349 0.016525 0.00704502 0.0202081 0.0147643
internal_weight=0 15437.8 12224.8 7533.08 4691.71 3213.03 1242.57 5502.4 2030.68 5310.14 2219.53 1735.3 1854.39 1345.68
internal_count=476169 451624 336877 221188 115689 114747 24545 153515 67673 148363 50440 44906 41241 30477
is_linear=0
shrinkage=0.1


Tree=19
num_leaves=15
num_cat=0
split_feature=76 5 79 14 78 77 20 18 20 20 79 80 77 80
split_gain=69.7855 55.9811 41.8731 33.409 24.9092 22.0655 20.5912 18.358 15.0582 14.2815 14.0655 13.7773 11.7699 11.62
threshold=0.044453692150945502 1.0000000180025095e-35 0.031666418230650806 8.5000000000000018 0.04513217427005304 0.045802769416961001 0.96160671465000014 0.65000000000000002 0.87874198055000019 0.48055945965000008 0.038778296836917622 0.032539368575382664 0.051220456183497375 0.039291517125399585
decision_type=2 2 2 2 2 2 2 2 2 2 2 2 2 2
left_child=1 2 12 5 6 9 -4 -2 -5 -3 -11 -8 -1 -6
right_child=7 3 4 8 13 -7 11 -9 -10 10 -12 -13 -14 -15
leaf_value=-0.010279241701330544 0.049480349149164812 -0.021072181924186056 0.00013573722194292856 -0.025880473718740013 0.014669567934585412 0.020098898629427146 0.00066860840579061715 0.017416819464588694 -0.0058006845414453959 -0.0093892280087073138 0.0067662305145728564 0.015913665780243336 0.015049457379805812 0.043978601999753598
leaf_weight=2495.3232937008142 221.17629938013852 577.13114992529154 4298.1140450108796 1456.2928981427103 341.43819209560752 335.39897845126688 858.96125061251223 926.92474504746497 502.27771398238838 1477.8325291704386 848.23077525012195 1913.0555076021701 198.02162160910666 224.02453565970063
leaf_count=75759 5089 22390 117197 55526 8731 8130 21133 20860 15229 49850 25275 41052 4845 5103
internal_value=0 -0.00195588 0.00230349 -0.010421 0.00608499 -0.00418597 0.00446971 0.0235937 -0.020731 -0.00699154 -0.00349792 0.0111897 -0.00841701 0.0262812
internal_weight=0 15526.1 10328.9 5197.16 7635.59 3238.59 7070.13 1148.1 1958.57 2903.19 2326.06 2772.02 2693.34 565.463
internal_count=476169 450220 273820 176400 193216 105645 179382 25949 70755 97515 75125 62185 80604 13834
is_linear=0
shrinkage=0.1


Tree=20
num_leaves=15
num_cat=0
split_feature=69 64 34 20 80 68 34 2 34 78 80 23 69 2
split_gain=61.0211 41.0548 36.2684 37.3953 22.3972 20.9078 19.5159 18.346 17.7005 16.7205 16.3012 16.8569 13.8897 13.6253
threshold=0.037798809710627497 0.038246947353103265 0.61025160770000009 0.48637680535000005 0.031029867378202472 0.054641716896535027 0.72160433055000006 1.0000000180025095e-35 1.1087741722000002 0.04513217427005304 0.037360392091218643 1.0000000180025095e-35 0.044473471831719256 6.5000000000000009
decision_type=2 2 2 2 2 2 2 2 2 2 2 2 2 2
left_child=2 4 -1 8 -2 9 -6 -5 -4 12 11 -9 13 -3
right_child=1 5 3 7 6 -7 -8 10 -10 -11 -12 -13 -14 -15
leaf_value=-0.025960564641136441 -0.010720839003630545 0.0029457748302315731 -0.022111988109173985 0.029242430950913417 -0.0070101689376459893 0.039397342125998241 0.0078508195990563117 -0.011611796988554241 0.012820519934494446 0.03699043249141578 0.0039566954891379095 0.012641086102971242 0.029085016477714179 0.019194852119634693
leaf_weight=889.54944917745888 1468.9077863674611 2051.1784728076309 1327.2484560552984 202.73248788900673 1240.4839522447437 288.16009674035013 3072.231316447258 1837.9537683203816 162.85078929923475 235.38931265473366 2544.4058844819665 339.52430674061179 318.88086128793657 689.51828968524933
leaf_count=34743 44002 50462 49529 4399 39313 4275 78483 58709 3756 4781 72399 9463 6718 15137
internal_value=0 0.00515632 -0.00703803 -0.00441398 -5.61075e-05 0.0135669 0.00357629 -0.000214059 -0.0182943 0.0113079 -0.00147876 -0.00783015 0.00933206 0.0070338
internal_weight=0 9364.75 7304.27 6414.72 5781.62 3583.13 4312.72 4924.62 1490.1 3294.97 4721.88 2177.48 3059.58 2740.7
internal_count=476169 243171 232998 198255 161798 81373 117796 144970 53285 77098 140571 68172 72317 65599
is_linear=0
shrinkage=0.1


Tree=21
num_leaves=15
num_cat=0
split_feature=68 34 14 18 6 34 0 69 69 79 0 14 32 35
split_gain=55.0285 55.0743 33.1363 24.3795 24.3559 20.6665 17.055 17.031 14.8066 14.3279 14.2958 13.7444 13.6984 12.7407
threshold=0.038841025587015167 0.64173866360000009 6.5000000000000009 0.55000000000000016 1.0000000180025095e-35 0.95727963390000015 1.5000000000000002 0.042834237179757866 0.039711304656541289 0.040121285379611661 3.5000000000000004 10.500000000000002 1.0000000180025095e-35 0.33570817360000005
decision_type=2 2 2 2 2 2 2 2 2 2 2 2 2 2
left_child=1 -1 5 6 10 12 8 11 -4 -8 -2 13 -3 -5
right_child=4 2 3 7 -6 -7 9 -9 -10 -11 -12 -13 -14 -15
leaf_value=-0.017341672512007036 0.0014553133369041788 0.023953777127854722 -0.029113980185869033 0.01397747967861083 0.027750557334216372 0.015204905573407104 -0.010368755592075396 0.021062761494352142 -0.0074924511967580376 0.016531605328889924 0.022549955291116419 -0.010060504286981378 -9.5667074913612657e-05 -0.0017851436002780333
leaf_weight=2151.0629405546933 1294.1356460303068 255.776292482391 782.11790812388062 678.12310094945133 806.53789091296494 1680.3711493052542 723.9514526501298 346.03500021249056 532.27683104947209 272.54033676162362 427.35476683266461 1410.5213183127344 3199.4918753653765 2103.1668847389519
leaf_count=79547 32017 6341 29342 18274 13212 35222 22548 8649 16590 7857 8596 42018 96322 59634
internal_value=0 -0.00260835 3.61246e-05 -0.00451728 0.0134105 0.00610841 -0.012878 -0.000259618 -0.0203581 -0.00301151 0.00669199 -0.00201979 0.00168459 0.00205804
internal_weight=0 14135.4 11984.4 6848.73 2528.03 5135.64 2310.89 4537.85 1314.39 996.492 1721.49 4191.81 3455.27 2781.29
internal_count=476169 422344 342797 204912 53825 137885 76337 128575 45932 30405 40613 119926 102663 77908
is_linear=0
shrinkage=0.1


Tree=22
num_leaves=15
num_cat=0
split_feature=76 71 19 79 15 36 0 77 14 18 72 36 79 69
split_gain=49.4457 44.2005 35.3093 30.0863 27.2189 22.3461 22.129 20.194 19.3634 19.241 18.4743 17.5847 17.7302 16.059
threshold=0.044453692150945502 0.044011254080418928 0.25000000000000006 0.053229703044132527 1.0000000180025095e-35 3.6736043311500004 2.5000000000000004 0.054016434984071833 6.5000000000000009 0.55000000000000016 0.040775472578193674 2.9142135623500005 0.029692644098203776 0.041421313585852583
decision_type=2 2 2 2 2 2 2 2 2 2 2 2 2 2
left_child=1 2 6 4 13 7 8 -3 -1 -2 -8 -6 -13 -4
right_child=9 5 3 -5 11 -7 10 -9 -10 -11 -12 12 -14 -15
leaf_value=-0.0070338396859668086 0.052725407111195194 0.010134541778015137 0.0039165224810585163 0.0293213409136177 -0.01627190413615116 -0.0062783637870717311 -0.0061824560947085607 0.040825314918737816 -0.02206493283351826 0.014635167770276573 0.025172895987913193 -0.021658306636036462 0.00028230864744667 0.030861158564290281
leaf_weight=1549.7039413359016 152.19908896647394 2351.9759601354599 2412.3595056124032 327.15483824908733 1282.1331207118928 790.47275209799409 782.25923004001379 235.89341986365616 1917.4623498898 1030.7793298345059 247.31628348492086 421.62293588370085 2912.8688081372529 243.52417393215001
leaf_count=50572 3221 58931 63907 6834 43805 18664 25628 4426 70363 22728 5593 13370 82660 5467
internal_value=0 -0.00167575 -0.00450015 -0.000344218 -0.00167873 0.0084372 -0.0115238 0.0129321 -0.0153466 0.0195358 0.00134947 -0.00631891 -0.00249193 0.00638714
internal_weight=0 15474.7 12096.4 7599.66 7272.51 3378.34 4496.74 2587.87 3467.17 1182.98 1029.58 4616.62 3334.49 2655.88
internal_count=476169 450220 368199 216043 209209 82021 152156 63357 120935 25949 31221 139835 96030 69374
is_linear=0
shrinkage=0.1


Tree=23
num_leaves=15
num_cat=0
split_feature=65 34 79 79 77 20 3 78 68 79 80 80 20 80
split_gain=43.2544 46.3317 31.2886 22.908 19.7062 16.5737 16.5723 26.3761 16.3366 13.8157 12.3832 12.2957 12.2659 12.2346
threshold=0.04455063826177711 0.6161312911500002 0.034452903596760752 0.053229703044132527 0.052546377264014107 0.46670374750000004 1.0000000180025095e-35 0.035144494715221707 0.038841025587015167 0.037660109418300627 0.035035480042690033 0.032539368575382664 0.91087181895000013 0.031029867378202472
decision_type=2 2 2 2 2 2 2 2 2 2 2 2 2 2
left_child=1 -1 5 4 6 -3 7 9 13 -4 -9 -7 -11 -2
right_child=8 2 3 -5 -6 11 -8 10 -10 12 -12 -13 -14 -15
leaf_value=-0.018656593989973949 -0.0070651324852071713 -0.019358121953892738 0.0006365957287352798 0.025684537684236189 0.018321312675205297 -0.014513187271331471 0.0065762466832132715 -0.0043644051176514286 0.028077417775307974 -0.021667460633129923 0.012931842497873486 -0.0009068499603438866 -0.0012458065780780341 0.011475987425640726
leaf_weight=1559.113353414461 444.44836202077568 862.91064197197556 716.23062137700617 440.18409671261907 686.37077536247671 859.50830020196736 2683.2221752554178 708.56183240562677 482.36306263878942 1105.4551005512476 995.46594156324863 2922.2146870270371 400.73202599585056 1786.1594053898007
leaf_count=59125 11200 32255 22158 8808 13862 29154 73011 21038 7434 36016 25577 87878 9582 39071
internal_value=0 -0.00241066 -0.000364822 0.00353037 0.00219377 -0.00685276 0.000519027 -0.00362031 0.0113902 -0.0107971 0.00573979 -0.00399929 -0.0162341 0.00778167
internal_weight=0 13940 12380.9 7736.22 7296.04 4644.63 6609.67 3926.45 2712.97 2222.42 1704.03 3781.72 1506.19 2230.61
internal_count=476169 418464 359339 210052 201244 149287 187382 114371 57705 67756 46615 117032 45598 50271
is_linear=0
shrinkage=0.1


Tree=24
num_leaves=15
num_cat=0
split_feature=69 36 79 8 5 20 81 74 18 16 18 31 5 15
split_gain=38.9016 29.1771 26.1451 24.8505 24.2311 23.57 16.6185 16.3682 13.8256 15.3283 13.6569 12.8015 11.9999 11.6433
threshold=0.037798809710627497 2.7370892179000008 0.053229703044132527 1.0000000180025095e-35 1.0000000180025095e-35 0.48637680535000005 0.037343520915394397 0.042645861223565736 0.8500000000000002 1.0000000180025095e-35 0.35000000000000003 103.50000000000001 1.0000000180025095e-35 1.0000000180025095e-35
decision_type=2 2 2 2 2 2 2 2 2 2 2 2 2 2
left_child=1 -1 3 4 6 10 -2 8 9 -6 -3 -5 -12 -8
right_child=2 5 -4 11 7 -7 13 -9 -10 -11 12 -13 -14 -15
leaf_value=-0.018863344166322266 0.0049179437217092906 -0.020843677738078239 0.03194037292974157 -0.0042074186503921604 -0.016486589430324751 0.00084161157721628738 0.025410448034898878 0.020022444825021343 0.0041162879068606436 0.015156306751360258 0.015259040415750484 -0.0288691151188607 -0.020558633927802637 0.0099185735990728694
leaf_weight=1363.1580733861774 2957.8052213266492 939.77608923055232 324.93765475042164 1493.0671222694218 1105.0727971568704 4505.3816871270537 870.82902041263878 285.19606362469494 890.31898208707571 177.7065858040005 240.73023906722665 245.02392794191837 152.97667899541557 1095.3867276925594
leaf_count=53125 70458 35791 5683 42192 38261 130895 16556 7028 25794 4451 7280 6070 5907 26678
internal_value=0 -0.00569035 0.00406675 0.00307368 0.00560648 -0.00261494 0.00965454 -0.00250189 -0.00545797 -0.012103 -0.0142934 -0.00768405 0.00134191 0.0167799
internal_weight=0 7202.02 9445.34 9120.41 7382.32 5838.86 4924.02 2458.29 2173.1 1282.78 1333.48 1738.09 393.707 1966.22
internal_count=476169 232998 243171 237488 189226 179873 113692 75534 68506 42712 48978 48262 13187 43234
is_linear=0
shrinkage=0.1


Tree=25
num_leaves=15
num_cat=0
split_feature=77 79 14 57 68 2 65 69 34 68 14 3 78 14
split_gain=36.2203 29.5931 23.7573 20.1549 15.7849 15.0348 14.6711 14.3038 12.3065 11.4999 11.323 11.3134 10.9959 11.3635
threshold=0.029210674424526354 0.031666418230650806 7.5000000000000009 1.0000000180025095e-35 0.065677475210885808 1.0000000180025095e-35 0.04455063826177711 0.045614527899559755 1.4798055210000001 0.045540687483227649 8.5000000000000018 1.0000000180025095e-35 0.04032866233720947 11.500000000000002
decision_type=2 2 2 2 2 2 2 2 2 2 2 2 2 2
left_child=3 -2 6 -1 12 -5 7 8 -3 -8 11 -7 -4 -14
right_child=1 2 4 5 -6 10 9 -9 -10 -11 -12 -13 13 -15
leaf_value=0.0062392878393115877 -0.005738647829434439 0.004541241775579 -0.0042861079828862263 0.016400231219334274 0.030368878327429523 -0.016683033002090435 0.015130164959645725 0.034621049742606706 0.029448244147311883 0.041981087641135319 -0.023620573562406138 0.00081590674993664092 0.014608848546751775 -0.0068783592058536003
leaf_weight=658.18152615614235 3474.0384652577341 3876.38225970231 3305.6637686323375 160.43745640106499 162.06555765867233 948.8750738017261 794.14017662592232 179.98399486765265 209.07656537368894 199.59425240196288 974.22776727564633 605.04976599663496 721.25620894320309 373.61683883704245
leaf_count=21336 105793 100423 94153 3955 2594 35712 14442 3680 3246 2484 39580 20818 17900 10053
internal_value=0 0.00219395 0.00499976 -0.00944506 -0.000280505 -0.0132847 0.00958067 0.00703134 0.00581588 0.0205232 -0.0151685 -0.00986949 -0.00140928 0.00727651
internal_weight=0 13295.8 9821.78 3346.77 4562.6 2688.59 5259.18 4265.44 4085.46 993.734 2528.15 1553.92 4400.54 1094.87
internal_count=476169 354768 248975 121401 124700 100065 124275 107349 103669 16926 96110 56530 122106 27953
is_linear=0
shrinkage=0.1


Tree=26
num_leaves=15
num_cat=0
split_feature=76 69 20 6 14 68 74 2 34 2 68 4 2 19
split_gain=34.1679 28.6594 25.8705 24.6983 20.6642 17.7676 15.9694 17.639 16.6471 13.492 10.9195 10.8906 10.5657 10.4942
threshold=0.044453692150945502 0.041421313585852583 0.57363963065000012 1.0000000180025095e-35 6.5000000000000009 0.048904598762786286 0.042645861223565736 1.0000000180025095e-35 0.62958237500000014 9.5000000000000018 0.038841025587015167 1.0000000180025095e-35 7.5000000000000009 0.25000000000000006
decision_type=2 2 2 2 2 2 2 2 2 2 2 2 2 2
left_child=1 2 4 6 -1 -2 7 -4 -9 -10 -5 -6 13 -3
right_child=5 12 3 10 11 -7 -8 8 9 -11 -12 -13 -14 -15
leaf_value=-0.0015284592754562113 0.011449541023108113 -0.0041792561092768039 0.023013403633078449 0.0045465560643473384 -0.019550958546664068 0.048082214427142757 0.013427696181105351 -0.017218949963917016 -0.0047338903501395546 0.01658032249891038 0.020409133005062235 0.0013055865027601843 0.036087464040927802 0.015308692176465993
leaf_weight=1622.7664058282971 1063.1278789993376 408.34635720215738 220.70154324360192 2631.9170500338078 1774.0620334576815 151.23585553281009 519.19430025666952 1055.4482183586806 5046.4705789238214 315.55686299875379 519.64847145974636 291.49933661147952 162.63887288793921 854.65374478697777
leaf_count=53053 23778 10624 5177 63066 68479 2171 11427 40025 149600 8852 7737 8509 3795 19876
internal_value=0 -0.00141003 -0.00278576 -0.000214251 -0.00997318 0.0160117 -0.00346223 -0.00478324 -0.00573919 -0.00347954 0.00716207 -0.0166076 0.0120972 0.00900795
internal_weight=0 15422.9 13997.3 10308.9 3688.33 1214.36 7157.37 6638.18 6417.48 5362.03 3151.57 2065.56 1425.64 1263
internal_count=476169 450220 415925 285884 130041 25949 215081 203654 198477 158452 70803 76988 34295 30500
is_linear=0
shrinkage=0.1


Tree=27
num_leaves=15
num_cat=0
split_feature=77 2 57 77 36 35 14 36 73 3 2 78 60 61
split_gain=28.4496 25.8479 23.9292 22.2147 16.6192 20.5347 15.3731 14.81 13.3753 12.8792 16.1713 15.6834 13.8036 12.6274
threshold=0.045802769416961001 1.0000000180025095e-35 1.0000000180025095e-35 0.029210674424526354 3.6736043311500004 0.32411416820000005 2.5000000000000004 2.9142135623500005 0.053687232529354735 1.0000000180025095e-35 1.5000000000000002 0.033435956205347665 0.040174582451587261 0.038426684552897834
decision_type=2 2 2 2 2 2 2 2 2 2 2 2 2 2
left_child=1 -1 -3 7 5 -2 -7 -4 9 10 -5 -12 13 -13
right_child=4 2 3 8 -6 6 -8 -9 -10 -11 11 12 -14 -15
leaf_value=0.018840651790839651 0.038469579992041675 0.00461006807837387 -0.021780583352008588 0.009126203332767327 -0.0062589844406024915 0.033524859084804119 0.0059073181358863516 -0.0062751130229535866 0.013312474492205406 0.0011636245575816385 -0.020283172753342321 -0.013297723701044643 0.010773716261261205 0.0048112669951452386
leaf_weight=576.69844502396882 287.15763733908534 3309.8809020146728 1141.0314459986985 519.32016762718558 525.65910220146179 232.70266293175519 1505.7801064550877 1338.7672812379897 498.5101722907275 3159.0922398418188 1012.8840098008513 1586.4443013463169 429.67579372227192 508.47146674804389
leaf_count=11555 6005 85282 46665 15250 11295 4458 33070 49445 9460 93211 34026 51850 10516 14081
internal_value=0 -0.0018921 -0.00277751 -0.00517612 0.0095846 0.0136961 0.00960403 -0.0134097 -0.00252945 -0.00362389 -0.007352 -0.00977109 -0.00555357 -0.00890237
internal_weight=0 14080.8 13504.1 10194.2 2551.3 2025.64 1738.48 2479.8 7714.4 7215.89 4056.8 3537.48 2524.59 2094.92
internal_count=476169 421341 409786 324504 54828 43533 37528 96110 228394 218934 125723 110473 76447 65931
is_linear=0
shrinkage=0.1


Tree=28
num_leaves=15
num_cat=0
split_feature=76 23 19 36 78 78 2 2 15 78 14 25 78 24
split_gain=26.1287 23.4719 21.4707 16.5644 15.247 20.0581 15.1719 15.077 16.485 15.0105 12.8665 11.536 14.6611 10.8723
threshold=0.044453692150945502 1.0000000180025095e-35 0.25000000000000006 3.6736043311500004 0.041429846078648046 0.033435956205347665 1.5000000000000002 1.5000000000000002 1.0000000180025095e-35 0.038356392974418181 6.5000000000000009 -1.0000000180025095e-35 0.035144494715221707 1.0000000180025095e-35
decision_type=2 2 2 2 2 2 2 2 2 2 2 2 2 2
left_child=1 2 9 4 5 -3 -2 11 -9 10 -1 -4 -13 -11
right_child=6 3 7 -5 -6 -7 -8 8 -10 13 -12 12 -14 -15
leaf_value=-0.0053815705473067897 0.040572666234788952 0.024874836169800921 0.018917405398308884 -0.0066597261491775726 0.027281798481180782 0.0016247199924867225 0.0092698694799314262 0.004469862877083345 -0.0060662826607030783 -0.0043076750328923325 -0.017830610090700329 -0.011157517556619145 0.02297021903748123 0.019421624588955775
leaf_weight=1523.4675946049392 181.53908207826316 470.13844451121986 665.46937087737024 792.45536551810801 420.60116663761437 1760.6121698375791 1052.6867044921964 2380.0103388242424 3948.9087865389884 767.47087432444096 1824.4301260560751 397.82373008131981 184.14613245986402 257.99390441924334
leaf_count=50572 3367 11099 18854 18664 8858 43400 22582 61583 122299 25613 70363 9344 3963 5608
internal_value=0 -0.00124787 -0.00334413 0.00602599 0.00981759 0.00652476 0.0138741 -0.000123644 -0.00210413 -0.00892327 -0.0121656 0.00992442 -0.000358864 0.00166232
internal_weight=0 15393.5 11949.7 3443.81 2651.35 2230.75 1234.23 7576.36 6328.92 4373.36 3347.9 1247.44 581.97 1025.46
internal_count=476169 450220 368199 82021 63357 54499 25949 216043 183882 152156 120935 32161 13307 31221
is_linear=0
shrinkage=0.1


Tree=29
num_leaves=15
num_cat=0
split_feature=79 18 20 77 69 27 34 36 77 73 4 77 69 18
split_gain=24.3642 20.8942 17.1296 15.0128 14.1215 14.0817 14.9343 12.8953 12.9607 12.6673 12.4647 13.6522 12.2487 11.6642
threshold=0.034452903596760752 0.35000000000000003 1.5146162845500002 0.026155068766623237 0.042834237179757866 1.0000000180025095e-35 0.57948751910000007 3.6736043311500004 0.059660875026167057 0.033870416557358035 1.0000000180025095e-35 0.036312827225130899 0.044473471831719256 0.75000000000000011
decision_type=2 2 2 2 2 2 2 2 2 2 2 2 2 2
left_child=1 -1 3 -2 7 -3 -7 8 10 -6 -5 -12 -8 -4
right_child=2 5 13 4 9 6 12 -9 -10 -11 11 -13 -14 -15
leaf_value=-0.017496583563951004 -0.011201634369098341 0.014687239238328828 0.040055698994634792 0.00019594173269466247 0.028270510994683157 -0.027457365879535622 -0.0038080964965079471 -0.0093297839294983528 0.026912206819252407 0.0030190747685228366 0.022835022575551873 0.0021072003971821045 0.021528986360107027 0.010607648177508896
leaf_weight=1118.3872367385775 837.67373214289546 441.01995893567801 166.72914852015674 5548.1066888533533 393.50493037700653 256.70338799059391 4091.2105020787567 959.53118024207652 220.07149974256754 401.2114050667733 561.06069595739245 732.74974523112178 200.13303949311376 695.94816114380956
leaf_count=41950 30881 10397 3258 161110 8992 10812 128307 22753 3688 7694 14804 13085 4809 13629
internal_value=0 -0.0051429 0.00279813 0.00159168 0.00280724 -0.00237361 -0.00402798 0.00154751 0.00302544 0.0155224 0.00225711 0.0110958 -0.00262646 0.0162991
internal_weight=0 6107.45 10516.6 9653.91 8816.24 4989.07 4548.05 8021.52 7061.99 794.716 6841.92 1293.81 4291.34 862.677
internal_count=476169 196275 279894 263007 232126 154325 143928 215440 192687 16686 188999 27889 133116 16887
is_linear=0
shrinkage=0.1


Tree=30
num_leaves=15
num_cat=0
split_feature=16 34 79 78 77 20 34 20 79 35 69 69 77 31
split_gain=22.4671 25.4041 15.4405 16.8258 15.2492 13.4944 12.4268 11.6631 10.823 10.637 10.2619 9.00289 12.7489 12.0159
threshold=1.0000000180025095e-35 0.60597916095000015 0.029692644098203776 0.04513217427005304 0.051220456183497375 0.48637680535000005 0.99652961840000021 0.51326153890000015 0.040121285379611661 0.40149717870000007 0.033443939700670243 0.041421313585852583 0.031738774101937012 49.500000000000007
decision_type=2 2 2 2 2 2 2 2 2 2 2 2 2 2
left_child=1 -1 9 4 5 6 10 -7 -5 -3 -4 -9 -13 -14
right_child=-2 2 3 8 -6 7 -8 11 -10 -11 -12 12 13 -15
leaf_value=-0.015345854342751659 0.0080872554478878377 -0.014986768766579592 -0.02098230365843386 0.0074410935141243952 0.011739274886497354 0.027154324066839888 0.0098009523140363906 -0.0011128118711071296 0.034983423906628938 0.0036540628848161453 -0.004463929668552886 0.034046677381579307 -0.019312809700561345 0.014553438726991772
leaf_weight=1252.103942126967 2781.829833926633 1106.1066307527944 756.96696015819907 429.56022053398192 988.4846810400486 160.93377112224698 290.96644154563546 6834.451712783426 213.62901295349002 423.25331187341362 747.45809186249971 177.91616738960147 162.70675416849554 294.20477816462517
leaf_count=50475 57705 38152 32447 11538 20368 5661 7135 194861 5038 12777 25094 4976 3655 6287
internal_value=0 -0.00176153 -0.000410178 0.000892409 -7.7036e-05 -0.00131624 -0.00911654 0.000519174 0.016589 -0.00982788 -0.0127753 -5.47092e-05 0.0113367 0.00249363
internal_weight=0 13838.7 12586.6 11057.3 10414.1 9425.6 1795.39 7630.21 643.189 1529.36 1504.43 7469.28 634.828 456.912
internal_count=476169 418464 367989 317060 300484 280116 64676 215440 16576 50929 57541 209779 14918 9942
is_linear=0
shrinkage=0.1


Tree=31
num_leaves=15
num_cat=0
split_feature=14 20 67 79 20 34 67 0 34 32 14 78 34 0
split_gain=21.5455 17.2027 19.4675 16.5791 13.3768 11.2673 11.2002 14.736 12.8667 11.5139 11.4454 10.7583 10.2696 10.045
threshold=7.5000000000000009 0.89495109895000013 0.036709468655968143 0.040121285379611661 1.5277638854000002 0.67060321910000009 0.036709468655968143 4.5000000000000009 0.91986850030000011 1.0000000180025095e-35 3.5000000000000004 0.04323091881561069 1.3554586229000003 3.5000000000000004
decision_type=2 2 2 2 2 2 2 2 2 2 2 2 2 2
left_child=3 2 13 5 11 -1 9 -8 -9 -7 -11 -5 -12 -2
right_child=1 -3 -4 4 -6 6 7 8 -10 10 12 -13 -14 -15
leaf_value=-0.0081927917477622094 -0.017209539939377273 0.0017588096934039209 -0.0005837659156755216 0.0055568165816691191 0.034158668922636456 0.019923428771315605 0.011842111926237403 -0.028135103263104495 0.0094352846405708467 0.0062235213106317973 -0.0092595278562209865 0.028001176606792286 0.017726836432480585 -0.0021066649718409032
leaf_weight=1208.4855694770813 1952.8441654369235 3048.1054751686752 1995.4604099113494 2074.4285109173506 211.19742980413139 237.23749878816307 1779.4811749085784 191.01328003965318 174.36041841097176 925.6220934111625 1859.3782104589045 238.0744375102222 152.58630786649883 568.61139083653688
leaf_count=44108 72163 78003 66605 49752 3468 5536 46200 5016 3447 23903 53200 4842 2563 17363
internal_value=0 -0.00404616 -0.00796347 0.00318452 0.0100677 0.000523582 0.0025037 0.00808622 -0.0102061 -0.00126775 -0.00297913 0.00786749 -0.0072129 -0.0138037
internal_weight=0 7565.02 4516.92 9051.86 2523.7 6528.16 5319.68 2144.85 365.374 3174.82 2937.59 2312.5 2011.96 2521.46
internal_count=476169 234134 156131 242035 58062 183973 139865 54663 8463 85202 79666 54594 55763 89526
is_linear=0
shrinkage=0.1


Tree=32
num_leaves=15
num_cat=0
split_feature=68 14 2 18 20 34 18 7 81 35 78 33 76 0
split_gain=19.7303 20.1732 18.4524 14.6942 13.5576 13.5402 12.5461 12.0682 9.78081 10.376 11.4311 9.33508 9.1214 8.20236
threshold=0.054641716896535027 8.5000000000000018 9.5000000000000018 0.35000000000000003 1.0000000180025095e-35 0.68026034150000003 1.0000000180025095e-35 1.0000000180025095e-35 0.037343520915394397 0.39420804650000002 0.04032866233720947 0.51748959570000008 0.034044804743397196 1.5000000000000002
decision_type=2 2 2 2 2 2 2 2 2 2 2 2 2 2
left_child=1 2 3 6 -5 -3 -1 -8 9 10 -6 12 13 -10
right_child=-2 5 -4 4 8 -7 7 -9 11 -11 -12 -13 -14 -15
leaf_value=0.0096295056305037308 0.011486427539030897 -0.015276637848197548 0.025348049589241972 0.026709608052099282 -0.0010348161288023054 -0.0033254392259418337 -0.017263166869042848 0.0049780242599422051 -0.012120737135072654 -0.0093885327678330643 0.013415435848658543 0.028316967459258297 0.0093583982616112418 0.0061344722017312708
leaf_weight=335.25488439388573 1349.8725572992116 1221.8840979905799 316.18880463205278 226.79915880132467 2903.7087798435241 4229.0005781305954 1028.4370360802859 319.83679420128465 476.52948822639883 1107.0553059950471 674.63035568967462 183.08489537984133 1732.1158403372392 509.06623393297195
leaf_count=9933 24545 50478 8135 6768 85392 127312 35809 9498 13428 28014 17555 3034 43559 12709
internal_value=0 -0.0011267 0.00158286 0.000791592 0.00261756 -0.00600445 -0.00768243 -0.0119871 0.00189729 -0.000927984 0.00168951 0.00646071 0.00498831 -0.00269181
internal_weight=0 15263.6 9812.71 9496.52 7812.99 5450.88 1683.53 1348.27 7586.19 4685.39 3578.34 2900.8 2717.71 985.596
internal_count=476169 451624 273834 265699 210459 177790 55240 45307 203691 130961 102947 72730 69696 26137
is_linear=0
shrinkage=0.1


Tree=33
num_leaves=15
num_cat=0
split_feature=76 69 79 18 18 8 2 35 2 37 60 15 0 21
split_gain=17.9641 16.8024 15.4371 17.7655 12.9134 12.5474 24.0526 15.7005 11.8182 11.5279 9.19476 8.92358 8.40398 8.34814
threshold=0.044453692150945502 0.037798809710627497 0.040121285379611661 0.55000000000000016 0.55000000000000016 1.0000000180025095e-35 7.5000000000000009 0.32870958950000001 2.5000000000000004 0.45000000000000007 0.040174582451587261 1.0000000180025095e-35 5.5000000000000009 10.500000000000002
decision_type=2 2 2 2 2 2 2 2 2 2 2 2 2 2
left_child=1 2 3 -1 -2 6 13 -8 9 -7 -4 -9 -5 -3
right_child=4 5 10 12 -6 8 7 11 -10 -11 -12 -13 -14 -15
leaf_value=-0.01589993823868428 0.037258284114719271 0.0065011136456476883 -0.0016651068020188651 -0.001633951212430612 0.0074233535352302513 -0.0082358046505866533 0.038481135158187851 0.024462248290949992 -0.011158826837317559 0.022906760252511125 0.013482318657638524 0.00075608160653075002 -0.022612983772949465 -0.0012867891061262989
leaf_weight=1764.7590078907087 167.33326749689877 2104.7104308251292 1467.567457462661 2655.6595334047452 1090.5806570798159 235.94575360603631 279.04471722431481 263.98416826501489 1207.946040302515 239.52928137592971 551.27301657013595 398.46704329922795 205.74076371267438 3977.6978292539716
leaf_count=69446 3221 53933 48161 87362 22728 6618 6807 5268 33668 6748 12250 10539 5789 103631
internal_value=0 -0.00103806 -0.00482504 -0.00800906 0.0113921 0.00185198 0.00371038 0.0185841 -0.00590204 0.00745283 0.00247111 0.0102029 -0.00314239 0.00140808
internal_weight=0 15352.3 6645 4626.16 1257.91 8707.33 7023.9 941.496 1683.42 475.475 2018.84 662.451 2861.4 6082.41
internal_count=476169 450220 223008 162597 25949 227212 180178 22614 47034 13366 60411 15807 93151 157564
is_linear=0
shrinkage=0.1


Tree=34
num_leaves=15
num_cat=0
split_feature=81 80 2 16 0 69 45 20 20 39 36 18 73 47
split_gain=16.3563 16.8724 14.6057 14.527 11.6464 11.2931 10.7638 10.1495 9.56336 9.30202 9.27888 9.3872 9.43217 8.53909
threshold=0.043687829889854847 0.032539368575382664 1.5000000000000002 1.0000000180025095e-35 3.5000000000000004 0.037798809710627497 1.5000000000000002 1.5146162845500002 0.7860104710000001 0.65000000000000002 1.8660254038000004 0.55000000000000016 0.034224752930460289 7.5000000000000009
decision_type=2 2 2 2 2 2 2 2 2 2 2 2 2 2
left_child=1 2 8 5 -2 10 -7 9 -1 13 -3 12 -12 -5
right_child=4 3 -4 7 -6 6 -8 -9 -10 -11 11 -13 -14 -15
leaf_value=-0.0036269605077211965 0.0075989559072560456 -0.023950339637003343 -0.0079998246467004822 0.0076313332553098858 0.036973242961774566 -0.004908528534959049 0.0052696553110460169 0.032611096172833913 0.029117090651042579 -0.0042188292852532432 -0.015586921832540068 0.00032977940527172085 0.0021680099237305966 0.029004414588386096
leaf_weight=174.21015563607216 674.90548670198768 227.68169596698135 3876.5866590440273 1020.1481806449592 168.71834224276245 1408.1570420153439 3963.5627547316253 166.91789847053587 182.77967415004969 534.2674424033612 932.00691188313067 2607.846481542103 440.68405339401215 228.86619379371405
leaf_count=6309 16966 10011 126390 20422 3708 36686 103073 2501 4568 10673 37623 78861 13835 4543
internal_value=0 -0.000818295 -0.0062174 0.00116412 0.0134736 -0.000437385 0.00260152 0.00903118 0.0131381 0.00682407 -0.00431649 -0.00319346 -0.00988694 0.0115477
internal_weight=0 15763.7 4233.58 11530.1 843.624 9579.94 5371.72 1950.2 356.99 1783.28 4208.22 3980.54 1372.69 1249.01
internal_count=476169 455495 137267 318228 20674 280089 139759 38139 10877 35638 140330 130319 51458 24965
is_linear=0
shrinkage=0.1


Tree=35
num_leaves=15
num_cat=0
split_feature=79 18 19 14 18 20 34 26 59 20 18 37 34 26
split_gain=14.9776 16.0403 13.6922 14.3226 13.542 10.6988 11.822 10.816 10.4551 14.2831 9.3027 9.53244 8.9552 8.89217
threshold=0.031666418230650806 0.35000000000000003 1.5500000000000003 7.5000000000000009 1.0000000180025095e-35 1.2580987578500002 0.62958237500000014 7.5000000000000009 0.035034048101252047 0.87874198055000019 0.15000000000000005 0.8500000000000002 0.61361111005000002 6.5000000000000009
decision_type=2 2 2 2 2 2 2 2 2 2 2 2 2 2
left_child=1 -1 3 4 -2 6 -3 -7 9 -5 -6 -12 -10 -11
right_child=2 5 -4 8 10 7 -8 -9 12 13 11 -13 -14 -15
leaf_value=-0.018373169018098476 0.028817333849373163 -0.016077914109225769 0.020256072713382121 -0.014436187320029515 -0.012256042269252804 -0.028938106879868381 0.0026324037469736832 -0.0021417012842312642 -0.01732735277122634 0.020154883763316058 0.003057612825586838 0.0165955667466476 0.0017476612722368884 -0.0066672356653269156
leaf_weight=757.65782680269331 217.63914130534977 389.27709416113794 384.74215988442302 1298.7928162664175 355.96760272234678 278.27932813391089 2548.7151674786583 328.38428796641529 265.09067042544484 225.7604447118938 5264.5851049497724 577.13054373767227 3439.0823675114661 273.14287789165974
leaf_count=30202 5673 16529 7323 51945 11351 7915 79196 8590 9655 6851 129873 14359 89066 7641
internal_value=0 -0.00516612 0.00168866 0.00108921 0.00429969 -0.00234316 0.00015333 -0.0144333 -0.00265428 -0.00891171 0.00343872 0.00439509 0.00038255 0.00547013
internal_weight=0 4302.31 12301.9 11917.2 6415.32 3544.66 2937.99 606.664 5501.87 1797.7 6197.68 5841.72 3704.17 498.903
internal_count=476169 142432 333737 326414 161256 112230 95725 16505 165158 66437 155583 144232 98721 14492
is_linear=0
shrinkage=0.1


Tree=36
num_leaves=15
num_cat=0
split_feature=67 14 19 42 17 14 79 1 49 18 35 79 1 32
split_gain=13.2788 13.6858 14.7022 13.3461 12.0379 10.8372 12.4722 21.9773 10.494 11.2706 10.319 10.2543 9.94092 9.43231
threshold=0.036709468655968143 2.5000000000000004 0.45000000000000007 8.5000000000000018 1.0000000180025095e-35 12.500000000000002 0.037660109418300627 1.5000000000000002 1.0000000180025095e-35 0.35000000000000003 0.38183763940000004 0.031666418230650806 1.5000000000000002 1.0000000180025095e-35
decision_type=2 2 2 2 2 2 2 2 2 2 2 2 2 2
left_child=1 3 13 4 -1 6 8 -8 -2 -10 -5 -4 -7 -3
right_child=5 2 11 10 -6 12 7 -9 9 -11 -12 -13 -14 -15
leaf_value=0.02944235125435983 0.022198712465049623 0.0072885179111745156 -0.0091797341564874638 -0.026523058695145197 0.004591371390880737 -0.0018685498596617473 0.015340405182555078 -0.0031557524319481599 -0.013057038935160123 0.0017667437134993886 0.0087988929057028261 0.0044736077367537675 -0.032359552822113738 -0.0085081152556280484
leaf_weight=327.54199360869825 209.26051965728402 410.76368866022676 708.97025910858065 168.49445610586554 481.42251971177757 366.10094517469406 1930.5249244030565 962.79242316726595 622.81141345296055 2906.1337206447497 162.44715045392513 2454.4830454783514 151.03964479919523 4738.6924417354167
leaf_count=7888 6436 10950 20794 4685 12932 10789 45512 22978 22932 85568 3813 56478 4782 159632
internal_value=0 -0.00254283 -0.00395184 0.00773253 0.0146533 0.0031688 0.00425609 0.00918555 0.000440756 -0.000849455 -0.0091848 0.00141372 -0.010774 -0.00724804
internal_weight=0 9452.82 8312.91 1139.91 808.965 7148.66 6631.52 2893.32 3738.21 3528.95 330.942 3163.45 517.141 5149.46
internal_count=476169 277172 247854 29318 20820 198997 183426 68490 114936 108500 8498 77272 15571 170582
is_linear=0
shrinkage=0.1


Tree=37
num_leaves=15
num_cat=0
split_feature=77 2 3 27 35 2 60 77 0 2 1 1 80 65
split_gain=13.5544 12.3297 13.241 11.4373 13.8159 13.4926 16.0577 13.5116 10.2892 21.2054 16.9881 10.0184 11.4784 10.6949
threshold=0.054171369450714831 1.0000000180025095e-35 1.0000000180025095e-35 1.0000000180025095e-35 0.36159368805000008 1.5000000000000002 0.040174582451587261 0.038398323883377307 4.5000000000000009 3.5000000000000004 1.5000000000000002 1.5000000000000002 0.039291517125399585 0.04455063826177711
decision_type=2 2 2 2 2 2 2 2 2 2 2 2 2 2
left_child=1 -1 3 4 -3 -5 7 -7 9 -4 -10 12 13 -11
right_child=-2 2 8 5 -6 6 -8 -9 10 11 -12 -13 -14 -15
leaf_value=0.012817722545474404 0.0099823049291492359 0.021927752272095757 -0.0028542100499813548 0.0060745612054603562 -0.0030744841195363697 -0.013453286130779949 0.0039769226218538357 -0.003153755298454939 0.0014914135922003016 0.003361849928209871 -0.023221680935701001 2.0361577442106396e-05 0.023223489751503547 0.028139818841976173
leaf_weight=629.17627390660346 1238.8397673834115 351.32647049985826 2445.1322553073987 887.4066146351397 595.86734303086996 3197.1374570224434 1089.4571523535997 2117.179418916814 919.11162617336959 1011.0201856298372 398.87172923702747 738.47977925650775 769.57789441104978 210.46045234054327
leaf_count=11972 23993 7519 78609 27232 12791 121736 25968 58793 23022 30093 10746 20924 18499 4272
internal_value=0 -0.000891358 -0.00147689 -0.00413843 0.00619917 -0.00548139 -0.00708276 -0.00935004 0.00190029 0.00390935 -0.00598771 0.00996818 0.0136578 0.00763108
internal_weight=0 15360.2 14731 8238.37 947.194 7291.18 6403.77 5314.32 6492.65 5174.67 1317.98 2729.54 1991.06 1221.48
internal_count=476169 452176 440204 254039 20310 233729 206497 180529 186165 152397 33768 73788 52864 34365
is_linear=0
shrinkage=0.1


Tree=38
num_leaves=15
num_cat=0
split_feature=71 34 35 77 18 79 77 79 34 62 35 14 39 0
split_gain=12.2469 14.921 12.5145 11.6942 9.69769 12.9259 12.778 9.19965 10.1299 12.1122 11.8122 10.2073 8.95315 8.9308
threshold=0.044011254080418928 1.3554586229000003 0.46534932805000007 0.054171369450714831 0.8500000000000002 0.034452903596760752 0.02370800694625633 0.029692644098203776 1.2406906234500001 0.035233754325072301 0.35078482710000009 9.5000000000000018 0.35000000000000003 4.5000000000000009
decision_type=2 2 2 2 2 2 2 2 2 2 2 2 2 2
left_child=1 2 3 4 5 -1 -7 -2 9 11 -11 -9 -12 -6
right_child=7 -3 -4 -5 13 6 -8 8 -10 10 12 -13 -14 -15
leaf_value=-0.0098618678579748785 -0.0096130180569484105 0.015060293796795229 -0.017698392432033912 0.013649474119192127 0.0038968797821545631 -0.028283006563079468 -0.00012507867283482977 0.0063173801670619936 -0.0067930582141672875 0.0083659544739327352 0.0091247784297065655 -0.022903969298402209 0.038333624596935408 -0.0086701544649259894
leaf_weight=2736.3451683158055 394.54403241258115 517.40171540342271 504.5155609883368 481.37595354765654 3266.8718082550913 167.32421763986349 4376.1821360867471 293.65534534491599 491.78247735276818 2044.7072938168421 176.36718629486859 201.61019431613386 259.12559864390641 683.86544295027852
leaf_count=101655 10771 8440 11257 10518 96413 6740 133919 6969 7351 49510 3337 5650 4893 18746
internal_value=0 -0.00157299 -0.00227745 -0.00161317 -0.00226737 -0.00443213 -0.00116205 0.00485589 0.00650234 0.00869979 0.0115509 -0.0055779 0.0265045 0.00172155
internal_weight=0 12733.9 12216.5 11712 11230.6 7279.85 4543.51 3861.79 3467.25 2975.47 2480.2 495.266 435.493 3950.74
internal_count=476169 387688 379248 367991 357473 242314 140659 88481 77710 70359 57740 12619 8230 115159
is_linear=0
shrinkage=0.1


Tree=39
num_leaves=15
num_cat=0
split_feature=68 2 27 2 1 3 60 0 1 23 0 77 39 81
split_gain=11.9391 11.9484 11.6629 11.2636 25.4202 16.8401 17.2639 16.3351 24.1347 12.5941 12.2678 12.0735 9.55366 11.3758
threshold=0.054641716896535027 9.5000000000000018 1.0000000180025095e-35 1.5000000000000002 1.5000000000000002 1.0000000180025095e-35 0.040174582451587261 4.5000000000000009 1.5000000000000002 -1.0000000180025095e-35 2.5000000000000004 0.038398323883377307 0.35000000000000003 0.031522288028172876
decision_type=2 2 2 2 2 2 2 2 2 2 2 2 2 2
left_child=1 2 -1 4 -4 6 11 12 9 -9 -6 -5 -7 -14
right_child=-2 -3 3 5 10 7 -8 8 -10 -11 -12 -13 13 -15
leaf_value=0.0076385613213291008 0.0088444361982674934 0.011850749199079668 -0.010571431792994876 -0.014150162135889774 0.0088573726789691904 -0.0024097827969599456 0.0035933386949807966 -0.011104454574276267 -0.034078440137541965 0.014691210807969524 0.035883235902698922 -0.0041469289330703556 -0.013286504348371085 0.0097183417077806224
leaf_weight=1274.6681217867881 1376.6373681612313 703.11598026193678 704.90514078363776 2762.2944938847795 1054.2654202179983 1627.6787263993174 1201.6556226853281 484.10361615475267 305.78347265534103 310.76394748035818 199.78990857116878 2142.3488733777776 238.14724067784846 2207.0986719196662
leaf_count=27273 24545 20243 21590 108830 30326 48850 27803 13804 8664 6765 4803 59223 8927 64523
internal_value=0 -0.000880403 -0.00149717 -0.00237678 0.00462249 -0.00359234 -0.00714887 0.000605386 -0.0102038 -0.0010193 0.013163 -0.00978075 0.00352642 0.00747786
internal_weight=0 15216.6 14513.5 13238.8 1958.96 11279.9 6106.3 5173.58 1100.65 794.868 1254.06 4904.64 4072.92 2445.25
internal_count=476169 451624 431381 404108 56719 347389 195856 151533 29233 20569 35129 168053 122300 73450
is_linear=0
shrinkage=0.1


Tree=40
num_leaves=15
num_cat=0
split_feature=16 36 77 0 67 1 2 81 33 80 0 2 29 80
split_gain=10.5219 14.6177 10.0224 9.05834 15.4356 13.7728 15.377 13.4624 11.999 11.5597 9.94924 9.11112 17.0897 11.1828
threshold=1.0000000180025095e-35 1.8660254038000004 0.028271642970294181 1.5000000000000002 0.036709468655968143 1.5000000000000002 2.5000000000000004 0.037343520915394397 0.51748959570000008 0.032539368575382664 5.5000000000000009 3.5000000000000004 1.0000000180025095e-35 0.037360392091218643
decision_type=2 2 2 2 2 2 2 2 2 2 2 2 2 2
left_child=1 2 -1 4 5 -3 -7 9 10 -5 -9 12 13 -6
right_child=-2 3 -4 7 11 6 -8 8 -10 -11 -12 -13 -14 -15
leaf_value=-0.031303692165023676 0.005471834177799304 -0.010183763836014575 -0.0059869648673943265 -0.010280684862773531 -0.034103878702896571 0.0096184219531653768 -0.01582410339172003 0.0090958921019210059 0.031453681090164741 0.0022889074979867926 -0.0085899144719391255 0.0085857525020728975 0.0043796185803250138 -0.00343981642604966
leaf_weight=254.21293126326054 2837.983865512535 3102.1388354627416 406.28086871281266 1057.6918276464567 231.25905448012054 850.21854251995683 329.65033703763038 1832.5199190108106 202.53113639727235 2373.4877901934087 384.89101292937994 1393.9344270052388 1088.7130846939981 244.85007186979055
leaf_count=11806 57705 104037 15110 34524 7940 23732 10817 49830 3517 66361 9732 39130 34263 7665
internal_value=0 -0.00121592 -0.0157309 -0.000483627 -0.00284819 -0.00668614 0.00250989 0.00244252 0.00815415 -0.00158578 0.00602605 0.00270622 -0.00253123 -0.0183342
internal_weight=0 13752.4 660.494 13091.9 7240.76 4282.01 1179.87 5851.12 2419.94 3431.18 2217.41 2958.76 1564.82 476.109
internal_count=476169 418464 26916 391548 227584 138586 34549 163964 63079 100885 59562 88998 49868 15605
is_linear=0
shrinkage=0.1


Tree=41
num_leaves=15
num_cat=0
split_feature=76 2 54 20 25 77 76 34 8 2 34 35 2 50
split_gain=11.1898 10.9915 9.47808 9.33256 10.6255 10.5724 9.18389 14.3273 9.42749 14.1496 8.21124 8.24919 16.6519 7.97049
threshold=0.044453692150945502 9.5000000000000018 1.0000000180025095e-35 0.44335355620000005 1.0000000180025095e-35 0.027236195612133165 0.034044804743397196 1.3915773795500004 1.0000000180025095e-35 2.5000000000000004 0.55394900735000008 0.32411416820000005 7.5000000000000009 3.5000000000000004
decision_type=2 2 2 2 2 2 2 2 2 2 2 2 2 2
left_child=1 3 -2 4 5 -1 7 -5 10 -10 -8 12 -12 -13
right_child=2 -3 -4 6 -6 -7 8 -9 9 -11 11 13 -14 -15
leaf_value=-0.029934948075125829 0.0034719141981066782 0.011450593117105839 0.022513303901089798 -0.0056347124543346568 0.0026445458267327394 -0.0080858795486618649 -0.01298844132674843 0.022147209728554135 0.0088288668656216398 -0.012664513635239275 0.006590862447903429 -0.014193844187063334 0.039388360467578896 0.0029226336004894555
leaf_weight=262.47764157317579 916.15754515305161 696.64848946221173 365.77953180670738 3727.9519787067547 776.66852550208569 1417.4505799915642 300.71511512808502 195.35355136729777 449.59774815477431 960.93936289381236 1372.871499620378 288.83842406887561 174.47831032425165 4681.9476042436436
leaf_count=12939 18555 19947 7394 109185 25477 49878 12090 3120 12917 28214 35131 7961 4518 128843
internal_value=0 -0.000821153 0.00890506 -0.00140633 -0.00702787 -0.0114997 -0.000269973 -0.00425136 0.00162813 -0.00581367 0.00316753 0.00391288 0.0102891 0.00192804
internal_weight=0 15305.9 1281.94 14609.3 2456.6 1679.93 12152.7 3923.31 8229.39 1410.54 6818.85 6518.14 1547.35 4970.79
internal_count=476169 450220 25949 430273 88294 62817 341979 112305 229674 41131 188543 176453 39649 136804
is_linear=0
shrinkage=0.1


Tree=42
num_leaves=15
num_cat=0
split_feature=81 69 80 18 18 20 33 16 33 37 6 3 20 45
split_gain=10.1126 9.84824 10.2667 10.8846 16.0796 9.56417 8.77376 7.78619 7.39288 7.30702 10.3068 7.25526 10.4238 8.49578
threshold=0.043687829889854847 0.041421313585852583 0.032539368575382664 1.0000000180025095e-35 0.25000000000000006 0.57363963065000012 0.39993749025000008 1.0000000180025095e-35 0.46400419770000007 0.45000000000000007 1.0000000180025095e-35 1.0000000180025095e-35 0.7860104710000001 3.5000000000000004
decision_type=2 2 2 2 2 2 2 2 2 2 2 2 2 2
left_child=1 2 5 -4 -5 -1 -2 -6 11 -9 -11 -7 -13 -14
right_child=6 -3 3 4 7 8 -8 9 -10 10 -12 12 13 -15
leaf_value=-0.01486855909412862 0.0020747801973440105 0.0071351801063369779 0.017482660641099015 -0.014080601949749014 -0.00060767822493324949 -0.010068097461507088 0.022568079083376914 0.00033280604425466937 0.017929142464738514 0.0047565091364080809 0.027805465185712017 0.012764464118402825 -0.0010616406184419476 -0.024741167964885707
leaf_weight=906.66531153116375 510.16247313376516 1474.2082452755421 350.76874491292983 795.68693691492081 7670.9357486665249 1214.0956632569432 353.78708427399397 823.70934685505927 158.11429270356894 501.3002515565604 316.49459409713745 465.29624533466995 860.59599530138075 183.89126807264984
leaf_count=37853 12563 33753 10524 30312 221789 40848 8111 15925 3348 10995 4896 16366 23848 5038
internal_value=0 -0.000645532 -0.00145061 0.000165028 -0.000435922 -0.00591071 0.0104668 0.000729926 -0.0030926 0.0069807 0.0136767 -0.00431286 0.00031523 -0.00523063
internal_weight=0 15721.8 14247.6 10458.9 10108.1 3788.66 863.95 9312.44 2881.99 1641.5 817.795 2723.88 1509.78 1044.49
internal_count=476169 455495 421742 294441 283917 127301 20674 253605 89448 31816 15891 86100 45252 28886
is_linear=0
shrinkage=0.1


Tree=43
num_leaves=15
num_cat=0
split_feature=80 78 48 2 31 37 3 20 36 78 79 79 1 53
split_gain=9.07904 12.8264 9.93116 8.53298 8.68986 8.4018 8.14228 9.7558 9.37701 9.71463 10.7828 8.09964 10.9646 8.05878
threshold=0.040111907278236554 0.033435956205347665 1.0000000180025095e-35 1.0000000180025095e-35 37.500000000000007 0.45000000000000007 1.0000000180025095e-35 0.88229103395000008 2.9142135623500005 0.035144494715221707 0.037660109418300627 0.031666418230650806 1.5000000000000002 1.0000000180025095e-35
decision_type=2 2 2 2 2 2 2 2 2 2 2 2 2 2
left_child=3 2 -2 4 -1 -6 7 8 -5 10 -10 12 -9 -13
right_child=1 -3 -4 6 5 -7 -8 11 9 -11 -12 13 -14 -15
leaf_value=0.031213915632028522 0.013039367279441244 0.0089971101311662801 -0.010014812549599296 -0.014590657567815439 -0.010101690777782592 0.017309567331011386 0.001079002627445222 -0.018766455609614027 -0.0021155729246957098 0.0024172271161992196 -0.017199449129960652 0.010766526363542119 0.0091278818448962927 -0.0018056661741640359
leaf_weight=150.84336142987013 245.28638203348964 2203.2398371128365 784.36011361796409 1166.5480805290863 226.03149386867881 221.2935043592006 5630.8702565738931 412.05129706859589 1088.4109127409756 1333.792685306631 839.43398559745401 914.20992168411613 214.15422002598643 1152.7397867012769
leaf_count=2712 6810 54848 21927 48426 4190 4083 161084 12243 39547 38129 27576 21349 6432 26813
internal_value=0 0.00469115 -0.00452276 -0.00121512 0.0104579 0.00345877 -0.00176267 -0.00400958 -0.00689606 -0.00414403 -0.00868349 0.000736472 -0.00922695 0.003755
internal_weight=0 3232.89 1029.65 13350.4 598.168 447.325 12752.2 7121.34 4428.19 3261.64 1927.84 2693.16 626.206 2066.95
internal_count=476169 83585 28737 392584 10985 8273 381599 220515 153678 105252 67123 66837 18675 48162
is_linear=0
shrinkage=0.1


Tree=44
num_leaves=15
num_cat=0
split_feature=68 14 36 18 36 77 51 15 0 36 69 47 36 36
split_gain=9.23719 10.2253 9.15972 10.5698 8.3852 9.12034 8.65967 8.29885 7.21511 8.48793 6.64305 7.62689 11.904 7.9132
threshold=0.038841025587015167 2.5000000000000004 2.5476205269500007 0.75000000000000011 3.6736043311500004 0.054171369450714831 1.0000000180025095e-35 1.0000000180025095e-35 1.5000000000000002 3.3903632027500006 0.041421313585852583 7.5000000000000009 2.9142135623500005 3.6736043311500004
decision_type=2 2 2 2 2 2 2 2 2 2 2 2 2 2
left_child=1 8 3 7 5 6 -2 -3 -1 -10 11 13 -13 -4
right_child=4 2 10 -5 -6 -7 -8 -9 9 -11 -12 12 -14 -15
leaf_value=0.00042499345957449546 0.0079969689992422186 -0.0023369975714117959 -0.0020413063389490326 0.00024131719860551995 -0.0099543446976129782 0.0297355463167654 -0.011036864528428829 -0.024187717144766287 0.0052959194416206451 0.027481232141886136 0.0065491033742052359 -0.017024129579195618 0.0071068947553681872 -0.011500105212718688
leaf_weight=938.35689483676106 1925.2795198401436 254.97966629080474 6973.2144458787516 609.66687392722815 317.37596403248608 169.08295958116651 272.91043134219944 546.03917267266661 457.44319727644324 276.80764855444431 1024.3379294853657 235.08305180910975 1567.6678038546816 1012.9425710281357
leaf_count=26440 40468 9172 214781 22520 5491 2150 5716 24635 12174 5525 24451 8513 46205 27928
internal_value=0 -0.00109837 -0.00210178 -0.00968054 0.00530901 0.00735534 0.00563387 -0.0172322 0.00623481 0.0136596 -0.00111306 -0.00191485 0.00396015 -0.00324103
internal_weight=0 13896.5 12223.9 1410.69 2684.65 2367.27 2198.19 801.019 1672.61 734.251 10813.2 9788.91 1802.75 7986.16
internal_count=476169 422344 378205 56327 53825 48334 46184 33807 44139 17699 321878 297427 54718 242709
is_linear=0
shrinkage=0.1


Tree=45
num_leaves=15
num_cat=0
split_feature=2 18 76 2 21 18 57 19 18 45 28 40 58 42
split_gain=8.54298 13.5804 9.14952 8.70714 8.30338 8.56106 11.9046 9.28322 9.71981 10.5616 8.38923 8.4669 7.27642 8.95348
threshold=9.5000000000000018 0.65000000000000002 0.044453692150945502 1.5000000000000002 4.5000000000000009 0.55000000000000016 2.5000000000000004 0.25000000000000006 0.45000000000000007 1.5000000000000002 1.0000000180025095e-35 2.5000000000000004 2.5000000000000004 8.5000000000000018
decision_type=2 2 2 2 2 2 2 2 2 2 2 2 2 2
left_child=2 -2 4 -4 10 6 7 -6 9 -9 -1 -12 -7 -14
right_child=1 -3 3 -5 5 12 -8 8 -10 -11 11 -13 13 -15
leaf_value=0.027067832093743541 0.027304058134284544 -0.0005743252090215892 0.026844806786310918 0.0040339575949626741 -0.0064977910421048189 0.010060157316183493 -0.016253560833463281 0.032799806468753745 -0.0078431579979556208 0.0045210366132934507 0.011781834270468651 -0.0068699768950306926 0.001087183507164161 -0.0060956117869243225
leaf_weight=174.71834241040051 290.31841468065977 438.88945670984685 198.40939461812377 1068.5210499372333 2405.2634431552142 641.34582456946373 845.68656152393669 177.79553278908134 396.7117383107543 513.54771997500211 534.21390681061894 447.04421565961093 6005.6658120770007 2440.6945458799601
leaf_count=4062 9053 11496 3367 21980 80278 17902 34401 5441 11748 15582 15133 12695 165554 67477
internal_value=0 0.0105249 -0.000545116 0.00760628 -0.0012533 -0.00195346 -0.00560782 -0.00303063 0.00463391 0.0117936 0.0068791 0.00328439 -0.000208658 -0.000988386
internal_weight=0 729.208 15849.6 1266.93 14582.7 13426.7 4339 3493.32 1088.05 691.343 1155.98 981.258 9087.71 8446.36
internal_count=476169 20549 455620 25347 430273 398383 147450 113049 32771 21023 31890 27828 250933 233031
is_linear=0
shrinkage=0.1


Tree=46
num_leaves=15
num_cat=0
split_feature=81 41 0 78 58 21 20 26 77 55 14 77 38 20
split_gain=8.24001 8.38755 7.8359 6.98542 7.05842 6.99588 8.31362 7.09628 8.24407 9.91214 8.32034 6.7139 6.70748 6.5593
threshold=0.043687829889854847 4.5000000000000009 3.5000000000000004 0.04032866233720947 5.5000000000000009 4.5000000000000009 0.46670374750000004 2.5000000000000004 0.047007602687521223 1.0000000180025095e-35 4.5000000000000009 0.027501446420877703 0.45000000000000007 0.91940876170000008
decision_type=2 2 2 2 2 2 2 2 2 2 2 2 2 2
left_child=1 3 12 5 -5 -1 -7 11 -9 10 -10 -8 -2 -12
right_child=2 -3 -4 4 -6 6 7 8 9 -11 13 -13 -14 -15
leaf_value=0.0079499951670742985 -0.0052320351416692843 0.019235495590881176 0.028042504840100596 0.0016306524538672656 0.017097422463415276 -0.0088092425039208808 -0.0079590536970433143 -0.0049242805474263452 0.030227240504639603 -0.0085227278915539009 0.018387305702824302 0.004509862227573774 0.014459863321076861 -0.0051946460572030841
leaf_weight=666.3131380006671 347.04151513054967 210.72271524835378 179.27056076750159 3219.8430236764252 324.82448909897357 1807.850947949104 516.45317431446165 5304.6208856925368 183.71556107513607 357.64173141494393 210.79975106753409 2635.6163262538612 344.86684557422996 267.78594075702131
leaf_count=19365 8540 6182 3708 82702 8272 70031 19541 151910 3215 6995 4535 77577 8426 5170
internal_value=0 -0.000581088 0.00941045 -0.000850574 0.00304799 -0.00200691 -0.00259483 -0.00140931 -0.00334115 0.00489255 0.0121368 0.00246688 0.00458297 0.00519235
internal_weight=0 15706.2 871.179 15495.5 3544.67 11950.8 11284.5 9476.63 6324.56 1019.94 662.301 3152.07 691.908 478.586
internal_count=476169 455495 20674 449313 90974 358339 338974 268943 171825 19915 12920 97118 16966 9705
is_linear=0
shrinkage=0.1


Tree=47
num_leaves=15
num_cat=0
split_feature=76 8 43 72 35 80 33 18 4 47 58 81 77 35
split_gain=8.73681 10.4511 9.28113 8.67711 8.02872 7.1615 10.6112 7.72491 7.82537 8.61348 10.4864 10.1198 9.57964 7.78396
threshold=0.034044804743397196 1.0000000180025095e-35 5.5000000000000009 0.04878905350997792 0.52796774895000009 0.031029867378202472 0.31614868930000006 0.8500000000000002 1.5000000000000002 3.5000000000000004 4.5000000000000009 0.037343520915394397 0.034358643744030574 0.34720310315000008
decision_type=2 2 2 2 2 2 2 2 2 2 2 2 2 2
left_child=4 2 5 -3 -1 -2 -7 -8 9 11 13 -9 -12 -11
right_child=1 3 -4 -5 -6 6 7 8 -10 10 12 -13 -14 -15
leaf_value=-0.0042107952932946991 -0.0036108985241059149 -0.0030436641053491228 0.017532926541493164 -0.025331606014560967 0.017541028355517501 -0.016916072921565467 0.0016380619993519728 0.0078404678533285557 0.022815927617635581 0.019273094547892763 0.011344990311172814 0.037867324291792716 -0.015166502914048335 0.002843408158986112
leaf_weight=4980.9846582617611 1742.743114634417 1647.5496857352555 410.19295681547374 195.39280120097101 175.67417040280998 245.84873767104 4442.6560715325177 328.24615866318345 330.7087227627635 445.37881746608764 196.33229610975832 170.56358327809721 445.71126152947545 817.96237772889435
leaf_count=152159 55743 49416 11355 4726 3230 9877 124582 8394 5763 10200 6354 3976 9385 21009
internal_value=0 0.00148944 0.00281658 -0.00540668 -0.00346977 0.00215801 0.00351234 0.00421206 0.00839333 0.00640943 0.0033469 0.0181079 -0.00705948 0.00863554
internal_weight=0 11419.3 9576.34 1842.94 5156.66 9166.15 7423.41 7177.56 2734.9 2404.19 1905.38 498.81 642.044 1263.34
internal_count=476169 320780 266638 54142 155389 255283 199540 189663 65081 59318 46948 12370 15739 31209
is_linear=0
shrinkage=0.1


Tree=48
num_leaves=15
num_cat=0
split_feature=19 55 32 34 77 76 21 78 34 35 38 31 31 41
split_gain=7.48611 9.30702 7.13728 6.67079 6.33974 6.71469 9.61384 7.59455 6.41031 9.4743 8.52958 6.95684 8.77842 8.35572
threshold=1.5500000000000003 1.0000000180025095e-35 1.0000000180025095e-35 0.91443316665000007 0.059660875026167057 0.034044804743397196 6.5000000000000009 0.04513217427005304 1.3242000498500002 0.44519652910000007 1.0000000180025095e-35 94.500000000000014 53.500000000000007 1.5000000000000002
decision_type=2 2 2 2 2 2 2 2 2 2 2 2 2 2
left_child=2 -2 3 -1 5 7 -7 8 9 10 -4 12 -12 -14
right_child=1 -3 4 -5 -6 6 -8 -9 -10 -11 11 -13 13 -15
leaf_value=0.0040488015307292057 0.0021093617813899616 0.030913399898532118 -0.019627664567966552 0.026109515867486506 0.010131896963703708 0.010893935655559269 -0.00075198592169950485 0.0098558860318145834 0.011569419135355696 -0.026314528663222495 -0.0067768358072355017 -0.012146955240446428 0.014969277482610703 -0.0018276528493577958
leaf_weight=689.00234146602452 325.30036171711981 171.22113960422575 376.49416498467326 171.10871483571827 501.41171675547957 766.64322333689779 9401.5939892120659 341.04227641783655 205.4028801843524 228.54909621551633 1390.14911223948 766.50838185008615 489.00670214556158 750.97016053274274
leaf_count=16836 6423 3432 12392 3526 8641 21773 273214 9305 3578 5581 45915 24578 16142 24833
internal_value=0 0.0120422 -0.000424859 0.00843751 -0.000925762 -0.00130252 0.000126069 -0.0044964 -0.00565985 -0.00654422 -0.00534668 -0.00376372 -0.00132056 0.00479651
internal_weight=0 496.522 16077.9 860.111 15217.8 14716.4 10168.2 4548.12 4207.08 4001.68 3773.13 3396.63 2630.13 1239.98
internal_count=476169 9855 466314 20362 445952 437311 294987 142324 133019 129441 123860 111468 86890 40975
is_linear=0
shrinkage=0.1


Tree=49
num_leaves=15
num_cat=0
split_feature=2 68 2 44 31 2 1 0 25 3 0 1 57 2
split_gain=6.98119 7.76994 7.69096 6.85509 7.30442 6.5151 17.6188 11.3808 9.79195 9.04994 13.5655 18.4073 11.6815 9.29115
threshold=9.5000000000000018 0.065677475210885808 2.5000000000000004 8.5000000000000018 84.500000000000014 1.5000000000000002 1.5000000000000002 3.5000000000000004 -1.0000000180025095e-35 1.0000000180025095e-35 4.5000000000000009 1.5000000000000002 1.5000000000000002 3.5000000000000004
decision_type=2 2 2 2 2 2 2 2 2 2 2 2 2 2
left_child=1 5 -3 -2 -5 6 -1 8 -8 -7 13 12 -12 -11
right_child=3 2 -4 4 -6 9 7 -9 -10 10 11 -13 -14 -15
leaf_value=-0.0083616937767157489 0.024367763572580248 0.0031521913460829396 0.029034625398418619 0.012034801725426186 -0.012776434690101033 -0.0041256289756843086 0.015500537476033466 0.036316027519560999 -0.0016562093337929096 -0.0019570683986137823 0.0063945847835742368 -0.028115063015316823 -0.018364502510165845 0.007279805867507168
leaf_weight=755.30724731925875 217.61462070327252 358.38754263333976 168.92032255604863 333.86175036150962 184.07777842786163 7219.780757307075 708.14580909069628 152.0369507195428 627.37514092121273 1779.9335081782192 659.56886307895184 334.72447311133146 267.98162341862917 2805.2615858362988
leaf_count=22959 6058 4921 3040 9685 4806 221278 20537 3192 15378 58660 15315 9425 7558 73357
internal_value=0 -0.000491542 0.0114435 0.00947433 0.00321679 -0.000902606 0.00407662 0.0103922 0.00744097 -0.00175724 0.00116697 -0.0080129 -0.000758644 0.00369413
internal_weight=0 15837.4 527.308 735.554 517.94 15310.1 2242.87 1487.56 1335.52 13067.3 5847.47 1262.27 927.55 4585.2
internal_count=476169 455620 7961 20549 14491 447659 62066 39107 35915 385593 164315 32298 22873 132017
is_linear=0
shrinkage=0.1


Tree=50
num_leaves=15
num_cat=0
split_feature=18 18 20 78 80 77 29 20 20 25 8 2 43 37
split_gain=7.40114 15.1514 6.22154 5.78838 6.95799 5.63468 6.09911 15.5619 10.2308 8.9395 8.19561 9.04553 11.4388 8.04867
threshold=1.0000000180025095e-35 0.15000000000000005 0.54227522255000016 0.04513217427005304 0.040111907278236554 0.055412658049849427 1.0000000180025095e-35 1.0000000180025095e-35 0.57635703040000008 1.0000000180025095e-35 1.0000000180025095e-35 5.5000000000000009 2.5000000000000004 0.65000000000000002
decision_type=2 2 2 2 2 2 2 2 2 2 2 2 2 2
left_child=2 -2 -1 5 -5 6 7 9 -9 -3 -8 13 -13 -12
right_child=1 3 -4 4 -6 -7 10 8 -10 -11 11 12 -14 -15
leaf_value=0.02637185370121016 -0.013098773769189035 0.00052042984559801109 0.0040651935283131865 0.0035714762394714779 0.024600603836941529 0.0080348678301940969 0.0020507606319084791 -0.021091477724362828 -0.0043073718195798735 0.028322107632762147 -0.0053108000908741095 0.002199796591808328 -0.023691001242363802 0.015221362779285805
leaf_weight=181.7177312457934 894.2743222117424 254.25173206627369 400.83847852610052 831.53817168530077 194.06015882454813 779.01794292964041 7683.1751175960526 411.38621659949422 3098.709969076328 212.17166057415307 626.39551648125052 272.19152648467571 457.39906958863139 274.62538302130997
leaf_count=6116 34607 9830 11211 20733 4025 14059 215474 15487 89141 7552 18945 7775 13017 8197
internal_value=0 -0.000451615 0.0110233 0.000297646 0.00755053 -0.000231061 -0.000715573 -0.00399409 -0.00627448 0.0131672 0.000684189 -0.00575487 -0.0140318 0.000947271
internal_weight=0 15989.2 582.556 15094.9 1025.6 14069.3 13290.3 3976.52 3510.1 466.423 9313.79 1630.61 729.591 901.021
internal_count=476169 458842 17327 424235 24758 399477 385418 122010 104628 17382 263408 47934 20792 27142
is_linear=0
shrinkage=0.1


Tree=51
num_leaves=15
num_cat=0
split_feature=69 68 34 45 27 72 34 38 34 37 39 58 0 18
split_gain=6.1223 6.346 9.29785 10.5687 8.6878 12.9139 9.0714 7.94487 10.0442 7.80714 7.35209 7.1791 6.95048 9.33624
threshold=0.041421313585852583 0.038841025587015167 0.71148343455000018 1.5000000000000002 1.0000000180025095e-35 0.04878905350997792 0.60597916095000015 0.15000000000000005 0.78582647180000009 0.55000000000000016 0.75000000000000011 3.5000000000000004 3.5000000000000004 0.55000000000000016
decision_type=2 2 2 2 2 2 2 2 2 2 2 2 2 2
left_child=1 4 3 -3 5 9 -6 8 -8 -1 -10 -5 13 -4
right_child=-2 2 12 11 6 -7 7 -9 10 -11 -12 -13 -14 -15
leaf_value=0.027089628207713046 0.0058084088914993268 0.034832688389914761 0.0092916949739220676 -0.010990473603300311 -0.011544026540791298 -0.0073174934900131971 -0.015234099913920716 -0.00010606216864268959 -0.0050677831318487274 0.0029815592303082299 0.01397760470510219 0.014463806558781525 0.010534879985900698 -0.0094569254896313699
leaf_weight=330.57978579588234 1612.0265132933855 177.50907201878726 380.87212276086211 160.75690946076065 975.74941076524556 345.48216486163437 865.45777726173401 8531.3023521509022 1012.7719758348539 226.27160410583019 253.40417426452041 356.56704165507108 464.09046968072653 877.60891687683761
leaf_count=8360 36008 4889 8527 4402 44248 5703 32135 261359 26488 5670 6647 9652 7147 14934
internal_value=0 -0.000677867 0.0040135 0.0137783 -0.00158217 0.00787055 -0.00231503 -0.0014705 -0.0069313 0.0172935 -0.00125616 0.00655396 7.46575e-05 -0.00378276
internal_weight=0 14958.4 2417.4 694.833 12541 902.334 11638.7 10662.9 2131.63 556.851 1266.18 517.324 1722.57 1258.48
internal_count=476169 440161 49551 18943 390610 19733 370877 326629 65270 14030 33135 14054 30608 23461
is_linear=0
shrinkage=0.1


Tree=52
num_leaves=15
num_cat=0
split_feature=19 41 43 34 14 1 67 73 14 20 31 34 20 78
split_gain=5.88174 8.15834 6.2309 6.35789 5.59683 6.13858 5.61319 7.86682 8.56722 9.63764 7.51424 6.30824 7.88672 9.79138
threshold=1.5500000000000003 1.5000000000000002 5.5000000000000009 0.71316718800000012 12.500000000000002 1.5000000000000002 0.036709468655968143 0.046882981438999431 5.5000000000000009 1.1254165809500003 7.5000000000000009 0.55938647000000008 1.2179644837000001 0.04032866233720947
decision_type=2 2 2 2 2 2 2 2 2 2 2 2 2 2
left_child=2 -2 4 -4 6 -6 7 -1 -9 -10 -8 -12 -13 -14
right_child=1 -3 3 -5 5 -7 10 8 9 -11 11 12 13 -15
leaf_value=-0.0032671774129294723 0.026470046022871948 0.00036632354550675462 0.023967872710639909 0.0028064240979051316 -0.0043408551399799194 -0.025427948367984916 -0.013291458341928707 0.016470746823131016 -0.0096662821858876872 0.014814094707454427 -0.012209790900998663 0.0052637291030549309 -0.010450154909574247 0.010555475753642532
leaf_weight=7184.1868664640933 197.08726352453232 305.03147139772773 199.4146675253287 492.93833820987493 655.68412530142814 174.86599227227271 307.90511133335531 446.58929595723748 465.14172667358071 245.80111886747181 269.58670648373663 4555.5220276387408 755.27661968022585 314.23246514983475
leaf_count=225500 3890 5965 7334 12579 20731 5830 7414 8086 10497 4643 10789 129426 16820 6665
internal_value=0 0.0106123 -0.000378534 0.00890144 -0.000796427 -0.00878058 -0.000340491 -0.0020345 0.00561608 -0.00120245 0.00193777 0.00273326 0.00344943 -0.00427849
internal_weight=0 502.119 16067.1 692.353 15374.8 830.55 14544.2 8341.72 1157.53 710.943 6202.52 5894.62 5625.03 1069.51
internal_count=476169 9855 466314 19913 446401 26561 419840 248726 23226 15140 171114 163700 152911 23485
is_linear=0
shrinkage=0.1


Tree=53
num_leaves=15
num_cat=0
split_feature=18 18 21 35 21 20 20 38 46 34 38 45 18 35
split_gain=5.7231 12.5046 6.48317 5.29614 5.10375 12.9768 7.48436 6.99969 6.40512 8.11209 7.13346 7.55643 9.39466 6.69292
threshold=1.0000000180025095e-35 0.15000000000000005 7.5000000000000009 0.36619664305000005 4.5000000000000009 0.50466563595000002 1.1315089398500002 0.45000000000000007 8.5000000000000018 0.55938647000000008 0.15000000000000005 3.5000000000000004 0.55000000000000016 0.44682210875000006
decision_type=2 2 2 2 2 2 2 2 2 2 2 2 2 2
left_child=3 2 -2 -1 5 -3 7 -7 13 -10 -11 -12 -13 -6
right_child=1 4 -4 -5 8 6 -8 -9 9 10 11 12 -14 -15
leaf_value=0.019566282962066743 -0.01779532014837969 0.029357499930958503 0.00061964726237449591 0.00058446325255181466 -0.0015216044794804757 -0.014344335444381854 0.016637971958906803 0.0064969575404686883 -0.015054373567531032 -0.0040135945936442124 0.0026499185467372798 -0.0059382034389770392 0.018460848333130817 -0.014673017803379594
leaf_weight=280.93941612448543 603.72149412613362 207.64079704042524 279.77980667538941 308.28415511269122 7034.2129419827834 325.79546691663563 240.42473489791155 318.87733656913042 266.3038757937029 1245.4203729238361 4159.9822590555996 205.32188907172531 681.97783590201288 409.49131809733808
leaf_count=8238 25544 6145 9063 9089 202011 8768 5360 8636 11275 34566 114743 6574 17808 8349
