tree
version=v3
num_class=1
num_tree_per_iteration=1
label_index=0
max_feature_idx=81
objective=binary sigmoid:1
feature_names=ps_ind_01 ps_ind_02_cat ps_ind_03 ps_ind_04_cat ps_ind_05_cat ps_ind_06_bin ps_ind_07_bin ps_ind_08_bin ps_ind_09_bin ps_ind_10_bin ps_ind_11_bin ps_ind_12_bin ps_ind_13_bin ps_ind_14 ps_ind_15 ps_ind_16_bin ps_ind_17_bin ps_ind_18_bin ps_reg_01 ps_reg_02 ps_reg_03 ps_car_01_cat ps_car_02_cat ps_car_03_cat ps_car_04_cat ps_car_05_cat ps_car_06_cat ps_car_07_cat ps_car_08_cat ps_car_09_cat ps_car_10_cat ps_car_11_cat ps_car_11 ps_car_12 ps_car_13 ps_car_14 ps_car_15 ps_calc_01 ps_calc_02 ps_calc_03 ps_calc_04 ps_calc_05 ps_calc_06 ps_calc_07 ps_calc_08 ps_calc_09 ps_calc_10 ps_calc_11 ps_calc_12 ps_calc_13 ps_calc_14 ps_calc_15_bin ps_calc_16_bin ps_calc_17_bin ps_calc_18_bin ps_calc_19_bin ps_calc_20_bin missing bin_sum ps_ind_06_bin_target_en ps_ind_07_bin_target_en ps_ind_08_bin_target_en ps_ind_09_bin_target_en ps_ind_12_bin_target_en ps_ind_16_bin_target_en ps_ind_17_bin_target_en ps_ind_18_bin_target_en ps_ind_04_cat_target_en ps_ind_05_cat_target_en ps_car_01_cat_target_en ps_car_02_cat_target_en ps_car_03_cat_target_en ps_car_04_cat_target_en ps_car_06_cat_target_en ps_car_07_cat_target_en ps_car_08_cat_target_en ps_car_09_cat_target_en ps_car_11_cat_target_en ps_ind_01_target_en ps_ind_03_target_en ps_ind_15_target_en ps_car_11_target_en
feature_infos=[0:7] [-1:4] [0:11] [-1:1] [-1:6] [0:1] [0:1] [0:1] [0:1] [0:1] [0:1] [0:1] [0:1] [0:4] [0:13] [0:1] [0:1] [0:1] [0:0.90000000000000002] [0:1.8] [-1:3.4907914574999999] [-1:11] [-1:1] [-1:1] [0:9] [-1:1] [0:17] [-1:1] [0:1] [-1:4] [0:2] [1:104] [-1:3] [0.14142135619999999:1.2649110641000001] [0.29041150630000001:3.7206260026] [-1:0.63166446789999997] [0:3.7416573868] [0:0.90000000000000002] [0:0.90000000000000002] [0:0.90000000000000002] [0:5] [0:6] [1:10] [0:9] [2:12] [0:7] [0:24] [0:19] [0:10] [0:13] [0:22] [0:1] [0:1] [0:1] [0:1] [0:1] [0:1] [0:8] [1:10] [0.028618514034591817:0.041532140729142131] [0.032839817961473595:0.046898787015665667] [0.035363018260880494:0.041953934936928658] [0.033720481818388041:0.037066723710899141] [0.036309200705658844:0.050735778607511529] [0.032937310093189419:0.043283129360348144] [0.033991998508682619:0.054236583718634733] [0.036169020232231695:0.037984400487998796] [0.034801154274309472:0.38461538461538464] [0.033732737659779487:0.083138918345705193] [0.028756685981724983:0.30232558139534882] [0:0.049010157929858383] [0.032748815309934377:0.048026940288387651] [0.028571428571428571:0.10185185185185185] [0.03159253319161455:0.068627450980392163] [0.034775355947297873:0.079169370538611297] [0.034717527520760391:0.045045835893705873] [0.033456867039622848:0.098173515981735154] [0.020576131687242798:0.073362102785406044] [0.033380435652011625:0.044502325581395351] [0.029919482737586923:0.062570553136590878] [0.029860273778282147:0.046300256629597948] [0:0.046258243333651916]
tree_sizes=1731 1794 1789 1794 1789 1785 1792 1792 1808 1800 1806 1804 1804 1809 1805 1805 1794 1805 1790 1800 1799 1804 1807 1794 1805 1799 1798 1787 1794 1797 1806 1800 1788 1795 1811 1810 1808 1813 1794 1795 1792 1800 1793 1793 1804 1785 1802 1797 1775 1804 1794 1796 1778 1790 1788 1802 1802 1786 1780 1778 1786 1794 1802 1792 1795 1792 1790 1782 1780 1795 1805 1785 1786 1789 1792 1786 1787 1782 1777 1795 1790 1792 1787 1794 1795 1794 1796 1792 1777 1786 1776 1791 1780 1789 1789 1787 1784 1792 1791 1789 1802 1777 1800 1788 1790 1777 1793 1790 1787 1778 1782 1790 1803 1788 1782 1786 1800 1791 1767 1790 1796 1780 1776 1789 1775 1788 1798 1782 1798 1773 1783 1795 1783 1783 1793 1781 1783 1789 1786 1791 1794 1792 1799 1788 1781 1794 1803 1775 1789 1772 1785 1786 1793 1784 1800 1785 1792 1796 1803 1795 1787 1791 1794 1804 1801 1779 1785 1767 1783 1796 1783 1783 1780 1779 1795 1788 1795 1790 1798 1792 1788 1804 1780 1784 1807 1802 1780 1790 1800 1803 1793 1783 1788 1794 1783 1794 1790 1786 1780 1779 1796 1805 1801 1804

Tree=0
num_leaves=15
num_cat=0
split_feature=34 68 68 20 20 65 65 34 34 65 14 20 77 34
split_gain=882.548 560.592 365.525 226.635 193.581 160.785 132.501 108.584 87.6309 76.3871 69.9131 59.631 59.6089 52.43
threshold=0.94026712835000004 0.0526133874755675 0.046007118366235701 0.67476843910000006 0.8129806044000002 0.044114291113658687 0.044114291113658687 1.4736217119000004 0.70761063435000016 0.044114291113658687 5.5000000000000009 0.85348548110000011 0.035047570553162891 0.77651544715000009
decision_type=2 2 2 2 2 2 2 2 2 2 2 2 2 2
left_child=1 3 5 9 -3 7 8 -2 -5 12 -7 -4 -1 -6
right_child=2 4 11 6 13 10 -8 -9 -10 -11 -12 -13 -14 -15
leaf_value=-3.3192003595683675 -3.2559986379940318 -3.2509951770105774 -3.171083665980083 -3.3001651117304251 -3.1923406421986531 -3.1357337722297522 -3.2414094802327291 -3.1855818115358154 -3.2747849131762536 -3.272603813249459 -3.2150206520529974 -3.0831491369252091 -3.296719507976579 -3.1190377087901666
leaf_weight=3307.6947031468153 2452.0965669825673 711.08447486162186 150.87015527486801 2323.2458687275648 264.76026550680399 170.50153721123934 783.88564615696669 240.45808965712786 3282.5145585164428 570.11780743300915 319.8264674320817 157.75343051552773 1833.1285765916109 154.522505402565
leaf_count=94186 69823 20248 4296 66154 7539 4855 22321 6847 93469 16234 9107 4492 52198 4400
internal_value=-3.27476 -3.28657 -3.23004 -3.29286 -3.21922 -3.24012 -3.27992 -3.24971 -3.2853 -3.30733 -3.18745 -3.12614 -3.31118 -3.16533
internal_weight=0 13231 3491.51 12100.6 1130.37 3182.88 6389.65 2692.55 5605.76 5710.94 490.328 308.624 5140.82 419.283
internal_count=476169 376749 99420 344562 32187 90632 181944 76670 159623 162618 13962 8788 146384 11939
is_linear=0
shrinkage=1


Tree=1
num_leaves=15
num_cat=0
split_feature=34 4 27 4 34 15 69 77 5 79 80 79 79 79
split_gain=727.703 263.819 219.146 203.056 180.943 117.412 103.064 78.3044 67.9664 65.9867 60.4098 52.1658 51.1431 49.5562
threshold=0.83202307460000013 1.0000000180025095e-35 1.0000000180025095e-35 1.5000000000000002 1.2210744151000001 1.0000000180025095e-35 0.033492402284378608 0.04205835238420242 1.0000000180025095e-35 0.033568622517418177 0.033229445003675605 0.039264779372708919 0.035541528870928991 0.033568622517418177
decision_type=2 2 2 2 2 2 2 2 2 2 2 2 2 2
left_child=2 4 -1 6 5 9 -4 -3 -5 -2 -8 -12 -6 -7
right_child=1 7 3 8 12 13 10 -9 -10 -11 11 -13 -14 -15
leaf_value=0.039808806874949851 0.012363727680632651 0.046772908404689367 -0.036089828452983495 0.049538221136812666 0.03669438147040599 -0.013523447417366198 -0.031448817861403237 0.11572398759576197 -0.0039501859532994291 0.052216453367949216 -0.01400260542984528 0.015906837987270616 0.08538250383584825 0.011896435788545516
leaf_weight=652.51593312993646 785.38992292433977 289.64363992959261 4211.4937387146056 494.44025268405676 418.66216687113047 1385.7813449241221 1439.0129211582243 381.82775889337063 457.25588878244162 882.10188735276461 2404.2139356210828 769.86247537657619 445.12846862524748 1717.3290220014751
leaf_count=18578 21858 7689 122745 13494 11359 39329 41628 9763 12694 24529 69558 22247 12053 48645
internal_value=0 0.0267311 -0.0163013 -0.0200464 0.0196701 0.0120446 -0.0247792 0.0859815 0.023839 0.0334458 -0.0144533 -0.00674816 0.0617843 0.000544471
internal_weight=0 6305.86 10428.8 9776.28 5634.39 4770.6 8824.58 671.471 951.696 1667.49 4613.09 3174.08 863.791 3103.11
internal_count=476169 175225 300944 282366 157773 134361 256178 17452 26188 46387 133433 91805 23412 87974
is_linear=0
shrinkage=0.1


Tree=2
num_leaves=15
num_cat=0
split_feature=34 68 68 34 16 20 20 19 20 14 79 16 23 27
split_gain=585.1 330.179 217.765 177.568 110.069 106.605 98.3365 77.6841 70.0349 53.8174 53.5755 51.3188 50.1256 48.1869
threshold=0.79330521310000013 0.046007118366235701 0.0526133874755675 1.0948291310500002 1.0000000180025095e-35 0.67476843910000006 0.95671964200000004 0.55000000000000016 0.64975952640000012 8.5000000000000018 0.035541528870928991 1.0000000180025095e-35 -1.0000000180025095e-35 1.0000000180025095e-35
decision_type=2 2 2 2 2 2 2 2 2 2 2 2 2 2
left_child=2 3 5 4 8 13 -3 -4 -2 11 -5 -7 -8 -1
right_child=1 6 7 10 -6 9 12 -9 -10 -11 -12 -13 -14 -15
leaf_value=0.013582017816677819 -0.017734703628652856 0.053079261102226188 0.013155677580819506 0.023483337449921638 0.040964329552674657 -0.0075116759987228186 0.083464299269176145 0.082305835751195183 0.0080280669500877953 -0.024796669448274366 0.060098339660055879 0.034545726070827606 0.16362861716902891 -0.036563341611209464
leaf_weight=201.86272046342492 1683.6061909124255 504.30671886727214 650.28710774704814 780.26230634003878 702.56261412426829 2187.8377789631486 152.40111689269543 216.5630904212594 2826.9633432887495 1739.8812253251672 819.16857166215777 334.4853149317205 159.77533032372594 3780.9657527022064
leaf_count=5691 48507 12665 17514 20965 18721 63955 3465 5551 79760 51213 21173 9317 3620 114052
internal_value=0 0.0202912 -0.0172463 0.0130891 0.00414661 -0.0222589 0.0803839 0.0304313 -0.00158809 -0.0112671 0.0422362 -0.00193444 0.124493 -0.0340218
internal_weight=0 7629.05 9111.88 6812.56 5213.13 8245.03 816.483 866.85 4510.57 4262.2 1599.43 2522.32 312.176 3982.83
internal_count=476169 208876 267293 189126 146988 244228 19750 23065 128267 124485 42138 73272 7085 119743
is_linear=0
shrinkage=0.1


Tree=3
num_leaves=15
num_cat=0
split_feature=77 68 68 16 19 27 20 69 77 6 27 6 20 18
split_gain=500.743 261.872 158.994 157.964 99.7291 79.1161 77.8413 76.548 59.562 52.9839 50.3163 48.0198 44.9053 43.2007
threshold=0.036743521496780347 0.046007118366235701 0.0526133874755675 1.0000000180025095e-35 0.45000000000000007 1.0000000180025095e-35 0.75931709950000015 0.033492402284378608 0.051901860766215328 1.0000000180025095e-35 1.0000000180025095e-35 1.0000000180025095e-35 0.57689897435000004 0.55000000000000016
decision_type=2 2 2 2 2 2 2 2 2 2 2 2 2 2
left_child=2 3 4 7 10 -3 -4 13 -9 -7 -1 -5 -12 -2
right_child=1 5 6 11 -6 9 -8 8 -10 -11 12 -13 -14 -15
leaf_value=0.018705257131405303 -0.027505466540240345 0.12937388198247662 -0.0027330748170285137 0.029886537340491799 -0.0037723601651528001 0.034375317272015052 0.059107264020158916 0.0075821483862539832 0.041320306045601579 0.089048864669107719 -0.041818100842840523 0.07337867914278258 -0.023053649308708114 0.0014249518516946294
leaf_weight=208.87324040383101 897.43025694042444 165.15236519649625 471.68894606456161 691.50603352487087 2112.7566078677773 514.14252481609583 358.06197928264737 3657.5179596021771 610.6320423334837 270.51026849076152 2287.7055902890861 401.11993082612753 2881.9640271142125 1214.9159088432789
leaf_count=5847 26060 3734 12567 18109 61735 12223 8647 102662 16217 6018 71030 10051 86393 34876
internal_value=0 0.0170059 -0.0175814 0.0107198 -0.0221818 0.066465 0.0239529 0.00470344 0.012409 0.0532241 -0.0294132 0.0458532 -0.0313574 -0.0108661
internal_weight=0 8422.93 8321.05 7473.12 7491.3 949.805 829.751 6380.5 4268.15 784.653 5378.54 1092.63 5169.67 2112.35
internal_count=476169 229950 246219 207975 225005 21975 21214 179815 118879 18241 163270 28160 157423 60936
is_linear=0
shrinkage=0.1


Tree=4
num_leaves=15
num_cat=0
split_feature=34 16 68 68 68 59 34 20 60 15 18 19 14 18
split_gain=409.819 178.387 151.038 104.597 94.079 91.7161 89.9296 62.8854 50.734 47.8418 44.9138 40.6566 36.3653 33.244
threshold=0.79330521310000013 1.0000000180025095e-35 0.037772029207248238 0.056709536194163856 0.037772029207248238 0.035075327381866979 1.1131297548000003 0.66450165140000006 0.039869302488569638 1.0000000180025095e-35 0.45000000000000007 0.45000000000000007 8.5000000000000018 0.75000000000000011
decision_type=2 2 2 2 2 2 2 2 2 2 2 2 2 2
left_child=2 3 5 6 12 10 7 13 11 -7 -1 -4 -3 -2
right_child=1 4 8 -5 -6 9 -8 -9 -10 -11 -12 -13 -14 -15
leaf_value=-0.047383395700047452 -0.021446358105035614 0.053553737173905373 -0.0039809765405620307 0.05898252852398457 0.12003578004718388 0.0054268970649878345 0.029632629570947391 0.0093584186317055198 0.065592593097749494 -0.017535812154887736 -0.023795215228006143 0.04001083928546241 0.013435334235917385 0.010063591205842473
leaf_weight=1196.3985881209373 1416.4440452903509 689.38952132314444 700.00466296263039 409.59748327732086 173.46141920983791 1385.750839188695 1353.9824068434536 3045.3395719304681 189.98406015336514 2628.0204801745713 2481.5155506506562 300.16486501693726 336.09753298386931 438.47387031838298
leaf_count=37880 41461 16647 19161 8669 3650 41400 33713 83672 4740 80755 76101 7256 8379 12685
internal_value=0 0.0164156 -0.0149313 0.0100266 0.051926 -0.0200609 0.00682044 0.000517242 0.0182201 -0.00960796 -0.0314683 0.00922158 0.0404052 -0.0139979
internal_weight=0 7862.79 8881.84 6663.84 1198.95 7691.69 6254.24 4900.26 1190.15 4013.77 3677.91 1000.17 1025.49 1854.92
internal_count=476169 208876 267293 180200 28676 236136 171531 137818 31157 122155 113981 26417 25026 54146
is_linear=0
shrinkage=0.1


Tree=5
num_leaves=15
num_cat=0
split_feature=34 79 16 20 19 68 2 14 15 76 15 35 14 34
split_gain=333.118 165.225 118.13 103.912 81.6264 67.1916 56.1672 53.0177 50.5572 48.5916 44.9354 43.1896 39.1295 31.1011
threshold=0.7820024884000002 0.033568622517418177 1.0000000180025095e-35 0.8225341719 0.35000000000000003 0.051235201263281509 1.0000000180025095e-35 7.5000000000000009 1.0000000180025095e-35 0.042648579579619636 1.0000000180025095e-35 0.34445608535000005 5.5000000000000009 0.55455476880000021
decision_type=2 2 2 2 2 2 2 2 2 2 2 2 2 2
left_child=2 9 4 8 7 10 -6 -1 -3 12 -5 -4 -2 -8
right_child=1 3 11 5 6 -7 13 -9 -10 -11 -12 -13 -14 -15
leaf_value=-0.016158464071459041 0.00915335004189766 0.029894624501860596 0.043892210899958581 0.052696521961128652 0.05365281469887774 0.07694857727985395 -0.039963230851641024 -0.037956978503862024 0.00043671246770935705 0.032324149915883442 0.021722438002661021 0.0010545185486799582 -0.015092312298631503 -0.0053354228166447148
leaf_weight=2214.8234112244099 986.58969982340932 918.18310336768627 395.25545587204397 725.51654133945704 151.24070429615676 412.30765340477228 289.24492879211903 2248.4343083053827 1594.1277494616807 346.51112852245569 1321.4911664761603 581.78174573741853 2046.1061667948961 2511.4939271062613
leaf_count=69523 26699 23256 11168 17602 3868 7609 8752 71603 43786 9135 35068 16660 56665 74775
internal_value=0 0.01391 -0.0143006 0.0255067 -0.0186072 0.0401188 -0.00570619 -0.0271398 0.0112028 -0.00315139 0.0327005 0.0183843 -0.00720477 -0.00891159
internal_weight=0 8350.83 8392.27 4971.63 7415.24 2459.32 2951.98 4463.26 2512.31 3379.21 2047.01 977.037 3032.7 2800.74
internal_count=476169 219820 256349 127321 228521 60279 87395 141126 67042 92499 52670 27828 83364 83527
is_linear=0
shrinkage=0.1


Tree=6
num_leaves=15
num_cat=0
split_feature=77 23 19 34 16 74 79 79 14 80 16 5 4 60
split_gain=313.547 165.452 107.001 82.4195 71.9876 59.984 57.2992 51.2686 47.7876 44.8555 44.5245 32.2087 31.3665 31.3331
threshold=0.035257720779365759 -1.0000000180025095e-35 0.45000000000000007 1.35103648455 1.0000000180025095e-35 0.042640615310463564 0.033568622517418177 0.039264779372708919 8.5000000000000018 0.039297228081991431 1.0000000180025095e-35 1.0000000180025095e-35 1.5000000000000002 0.039869302488569638
decision_type=2 2 2 2 2 2 2 2 2 2 2 2 2 2
left_child=2 3 5 6 7 8 -2 -3 -1 -8 12 -11 -4 -9
right_child=1 4 10 -5 -6 -7 9 13 -10 11 -12 -13 -14 -15
leaf_value=-0.016956923262055449 -0.012666408112402258 0.010624885253527611 -0.0066005188764056413 0.055711893326659795 0.056631689238925725 0.023049558197706092 -0.0012229326388209418 0.026450244254115851 -0.036409466944047501 0.034461136874456948 0.039687010370181942 -0.00062930930546717194 0.032734384253859231 0.063997999146925597
leaf_weight=3126.5750072617084 2258.3488489892334 1521.9126356299967 1745.8634447455406 273.91648368909955 793.99352676793933 275.58856698870659 1935.4520190227777 609.42059510201216 2118.6408902537078 824.96016938611865 293.86256059631705 383.02067949622869 229.35878178477287 349.82084227912128
leaf_count=98255 64150 41157 52035 6189 17696 7588 52022 15887 68481 21299 7625 10540 5099 8146
internal_value=0 0.0125261 -0.0149112 0.0021982 0.0304238 -0.0224249 -0.000515398 0.022037 -0.0248142 0.0082143 0.00337001 0.0233348 -0.00203303 0.0401433
internal_weight=0 8950.85 7789.89 5675.7 3275.15 5520.8 5401.78 2481.15 5245.22 3143.43 2269.08 1207.98 1975.22 959.241
internal_count=476169 237086 239083 154200 82886 174324 148011 65190 166736 83861 64759 31839 57134 24033
is_linear=0
shrinkage=0.1


Tree=7
num_leaves=15
num_cat=0
split_feature=5 68 23 18 65 80 35 65 68 69 20 20 36 69
split_gain=273.627 195.319 102.014 83.6261 78.0192 56.3815 54.8285 49.7353 46.432 41.7676 34.4624 29.268 29.2407 26.6409
threshold=1.0000000180025095e-35 0.037772029207248238 -1.0000000180025095e-35 0.55000000000000016 0.044114291113658687 0.037482798135207003 0.39974990230000002 0.044114291113658687 0.0526133874755675 0.041935751889452123 0.67476843910000006 0.66450165140000006 2.9142135623500005 0.037310371747663239
decision_type=2 2 2 2 2 2 2 2 2 2 2 2 2 2
left_child=1 2 5 -2 13 -1 10 11 9 12 -7 -4 -5 -3
right_child=3 4 7 8 -6 6 -8 -9 -10 -11 -12 -13 -14 -15
leaf_value=-0.013895912336184008 -0.032425760903791997 0.014459537461126945 -0.0042262548620558915 -0.026522003304300157 0.094502542750775187 -0.021603165289301045 0.021643481397649621 0.041719833649459782 0.024743956499268794 0.037224202742425321 0.0055374037224253728 0.01964936382809649 -0.00721743214936354 0.044937816662333818
leaf_weight=2781.0144139770418 2230.5431400239468 470.453524120152 763.48521512933075 1225.235045870766 249.23860018327832 762.42306226864457 1277.1683798730373 731.33063718862832 385.77844551205635 165.89632646739483 1210.9154025390744 1567.6680200397968 2181.931046674028 734.62970547191799
leaf_count=82533 70864 10761 23016 38825 4814 23924 33810 16883 9042 4753 34656 42700 64017 15571
internal_value=0 0.0095455 0.00410382 -0.0169402 0.0435728 -0.00344321 0.00549974 0.0189676 -0.00821518 -0.0117737 -0.00494868 0.0118298 -0.0141595 0.0330394
internal_weight=0 10548.3 9094.01 6189.38 1454.32 6031.52 3250.51 3062.48 3958.84 3573.06 1973.34 2331.15 3407.17 1205.08
internal_count=476169 288668 257522 187501 31146 174923 92390 82599 116637 107595 58580 65716 102842 26332
is_linear=0
shrinkage=0.1


Tree=8
num_leaves=15
num_cat=0
split_feature=5 76 79 8 27 19 20 36 80 15 79 16 14 80
split_gain=223.198 135.579 116.217 79.3504 74.3243 74.1867 55.817 43.7321 40.4591 36.9435 35.5593 31.0339 30.1467 26.0161
threshold=1.0000000180025095e-35 0.042648579579619636 0.035541528870928991 1.0000000180025095e-35 1.0000000180025095e-35 0.55000000000000016 0.41870318935000006 2.9142135623500005 0.033229445003675605 1.0000000180025095e-35 0.039264779372708919 1.0000000180025095e-35 10.500000000000002 0.033229445003675605
decision_type=2 2 2 2 2 2 2 2 2 2 2 2 2 2
left_child=1 2 8 5 -2 10 -6 -8 -1 -7 -4 -3 -5 -9
right_child=4 11 3 12 6 9 7 13 -10 -11 -12 -13 -14 -15
leaf_value=-0.022765502708770168 0.023786990239712712 0.039162029144473448 -0.0010809421359623517 0.0054902460584387962 -0.039614425340238416 0.061529353356261307 -0.026926955898959787 -0.021129643588614831 -0.00088255815033478398 0.028420541109874565 0.023010246267156535 0.087882171960918312 -0.023706612390036998 -0.00056083852195339557
leaf_weight=1154.0411448441446 445.91882019490004 445.67923873476684 1079.2829006426036 1298.3424985501915 1034.4250646978617 549.27465193346143 1655.2684237044305 872.14429084956646 3154.0476669706404 872.11596810631454 1417.1929567940533 185.02054944261909 486.03138240799308 2085.027842849493
leaf_count=34308 11724 11365 29691 35585 34801 11901 53589 26263 89563 21386 37183 3818 13868 61124
internal_value=0 0.00848505 0.00565176 0.0150172 -0.0155167 0.0229783 -0.0186204 -0.0139121 -0.00674451 0.0412149 0.0125951 0.0534545 -0.00246245 -0.0066271
internal_weight=0 10641 10010.3 5702.24 6092.78 3917.87 5646.87 4612.44 4308.09 1421.39 2496.48 630.7 1784.37 2957.17
internal_count=476169 288668 273485 149614 187501 100161 175777 140976 123871 33287 66874 15183 49453 87387
is_linear=0
shrinkage=0.1


Tree=9
num_leaves=15
num_cat=0
split_feature=77 74 19 57 5 65 79 68 80 8 79 68 79 68
split_gain=214.704 100.698 77.2099 67.9829 54.0532 51.8843 51.8616 36.4693 33.2826 31.2937 31.0827 26.6493 25.2364 25.1347
threshold=0.035047570553162891 0.042640615310463564 0.55000000000000016 1.0000000180025095e-35 1.0000000180025095e-35 0.044114291113658687 0.033568622517418177 0.051235201263281509 0.035293139156492813 1.0000000180025095e-35 0.039264779372708919 0.046007118366235701 0.040737720304779644 0.046007118366235701
decision_type=2 2 2 2 2 2 2 2 2 2 2 2 2 2
left_child=2 3 5 9 6 8 -5 -4 -1 10 -2 -3 -7 -8
right_child=1 11 7 4 -6 12 13 -9 -10 -11 -12 -13 -14 -15
leaf_value=-0.032638966223611975 0.016432294110458733 0.030810521732999432 -0.00034083785747750141 -0.0064512847314499499 -0.01352743965845592 -0.0038249886113626685 0.011309164611555294 0.042364135187797157 -0.015785398979203856 -0.0067140578115633086 0.043088847198483708 0.069759806311652822 0.04154301629140246 0.03750507474340381
leaf_weight=1935.7284510023892 1201.4653722997755 765.01547141373158 1438.9032222460955 1771.7578083984554 1859.5294797308743 484.30728642828763 2210.7521444484591 232.24981047958136 2968.9046669192612 342.53610828146338 687.87524028122425 228.026242967695 164.1743180975318 439.00907038338482
leaf_count=66373 30302 18689 42486 49696 55161 14147 57740 4578 95987 8568 15536 3905 4537 8464
internal_value=0 0.00961947 -0.013251 0.00610423 0.000777265 -0.0189223 0.0067933 0.00559412 -0.0224371 0.0210956 0.0261375 0.0397542 0.00766071 0.0156493
internal_weight=0 9505.97 7224.27 8512.93 6281.05 5553.11 4421.52 1671.15 4904.63 2231.88 1889.34 993.042 648.482 2649.76
internal_count=476169 248061 228108 225467 171061 181044 115900 47064 162360 54406 45838 22594 18684 66204
is_linear=0
shrinkage=0.1


Tree=10
num_leaves=15
num_cat=0
split_feature=77 20 71 68 68 15 6 0 0 71 61 36 16 77
split_gain=178.638 103.834 82.13 72.1686 40.7341 38.6575 35.1308 25.3264 25.1771 21.9677 21.5146 19.8161 19.1905 18.5145
threshold=0.040068381165949081 0.64444739210000013 0.036233663380158036 0.046007118366235701 0.056709536194163856 1.0000000180025095e-35 1.0000000180025095e-35 1.5000000000000002 1.0000000180025095e-35 0.04387272586938467 0.038658476598904583 2.7370892179000008 1.0000000180025095e-35 0.050810048740805087
decision_type=2 2 2 2 2 2 2 2 2 2 2 2 2 2
left_child=1 9 5 6 7 8 10 -4 -2 -1 -3 -7 -8 -10
right_child=2 3 4 -5 -6 11 12 -9 13 -11 -12 -13 -14 -15
leaf_value=-0.023798702761506127 -0.0033656643844401295 -0.012456167097678264 0.01194439384034726 0.026982100583443819 0.065834684604300933 -0.025536398416690632 0.0057016932543397444 0.032317260351150123 0.019152957624018849 -0.0031290879723533532 0.0050846989464848969 -0.00035104501987259226 0.042288461049304754 0.054515110827467898
leaf_weight=3508.9229735732079 414.01699236594141 3299.8420995920897 1197.8803909830749 840.93501733615994 235.93449962511659 366.64465918019414 934.74603186361492 1243.7657103408128 725.03777178563178 602.46982620470226 887.26152661629021 2111.8854553233832 169.33478112518787 186.05206811241806
leaf_count=117736 10813 102006 29351 18286 3809 11353 27213 28686 18099 18919 25722 56028 3999 4149
internal_value=0 -0.00847406 0.0127395 -0.000230131 0.0261563 0.00329466 -0.00455501 0.0223223 0.0170823 -0.0207698 -0.0087392 -0.00407667 0.0113131 0.0263742
internal_weight=0 10243.5 6481.22 6132.12 2677.58 3803.64 5291.18 2441.65 1325.11 4111.39 4187.1 2478.53 1104.08 911.09
internal_count=476169 313881 162288 177226 61846 100442 158940 58037 33061 136655 127728 67381 31212 22248
is_linear=0
shrinkage=0.1


Tree=11
num_leaves=15
num_cat=0
split_feature=69 79 68 14 18 16 77 16 6 36 77 77 79 77
split_gain=186.058 106.996 65.839 63.7235 63.2921 44.1191 40.7571 36.3057 29.2312 28.2264 23.465 21.8927 21.0139 23.5239
threshold=0.033492402284378608 0.033568622517418177 0.069528561884173598 10.500000000000002 0.55000000000000016 1.0000000180025095e-35 0.031619414887286069 1.0000000180025095e-35 1.0000000180025095e-35 2.9142135623500005 0.04205835238420242 0.028509493349578641 0.042087868984477465 0.04087246697558615
decision_type=2 2 2 2 2 2 2 2 2 2 2 2 2 2
left_child=4 7 3 5 10 9 -6 11 -8 -3 -1 -2 13 -11
right_child=1 2 -4 -5 6 -7 8 -9 -10 12 -12 -13 -14 -15
leaf_value=-0.031409230783238276 -0.026349285412397418 -8.6590582632830283e-05 0.062868637176328304 -0.0045226085540911523 -0.018700190183591564 0.042243626631965459 -0.0043969397162865976 0.01633901888491212 0.020671286591434666 0.0092264613731890543 -0.009066435262334336 -0.0051490716134859546 0.050212063783794739 0.027809697336557263
leaf_weight=1935.2570648286492 586.81794942356646 903.60603089258075 287.52037749812007 1432.8638264723122 1438.3260654136539 726.49255772680044 1616.7186889033765 692.32103738002479 653.05132907815278 1485.5456338319927 620.84700689651072 2866.5381004754454 215.01025326550007 1258.0664068236947
leaf_count=65766 19772 26741 5138 39232 47656 15102 46374 16745 16473 42371 17283 83745 5343 28428
internal_value=0 0.00791845 0.0161189 0.0138867 -0.0138757 0.0196352 -0.00553011 -0.00456147 0.00281561 0.0153825 -0.0259824 -0.00875156 0.020107 0.0177477
internal_weight=0 10454.8 6309.11 6021.58 6264.2 4588.72 3708.1 4145.68 2269.77 3862.23 2556.1 3453.36 2958.62 2743.61
internal_count=476169 282617 162355 157217 193552 117985 110503 120262 62847 102883 83049 103517 76142 70799
is_linear=0
shrinkage=0.1


Tree=12
num_leaves=15
num_cat=0
split_feature=77 27 59 76 2 2 18 8 57 80 18 16 14 80
split_gain=132.443 87.4049 61.2536 42.8508 43.4544 38.2956 34.3064 30.5135 26.69 24.4351 24.2753 23.441 23.4343 20.9763
threshold=0.030341832082718765 1.0000000180025095e-35 0.035075327381866979 0.042648579579619636 5.5000000000000009 1.0000000180025095e-35 0.55000000000000016 1.0000000180025095e-35 1.0000000180025095e-35 0.033229445003675605 0.25000000000000006 1.0000000180025095e-35 8.5000000000000018 0.039116695028284305
decision_type=2 2 2 2 2 2 2 2 2 2 2 2 2 2
left_child=5 -2 6 4 10 -1 -3 11 -7 -8 -4 -6 -10 -13
right_child=1 2 3 -5 7 8 9 -9 12 -11 -12 13 -14 -15
leaf_value=0.028887518033359639 0.030407957003001942 -0.022943994020828667 -0.018644556942292143 0.035711955622202238 0.01690177427560274 -0.00094643035942910839 -0.018801528689535982 -0.0012374017053146098 -0.014340608945622269 0.0045485648287012081 0.0022233085781049986 0.021129224858704995 -0.0313678881811498 0.071135891839714818
leaf_weight=189.03707695938647 1226.3581902850419 1147.5158036332577 654.38501025922596 494.53854093700647 1612.8781424425542 821.03955257683992 613.35400041006505 805.20958711393178 2053.252900775522 1664.0305029377341 3763.3534307200462 168.98562780022621 1333.0428042765707 166.5639222972095
leaf_count=5007 26840 38405 18913 11101 39419 26066 18356 21265 67824 48193 101187 3299 47276 3018
internal_value=0 0.00507503 0.00227387 0.00724123 0.00527789 -0.0151434 -0.00884453 0.0151376 -0.0171217 -0.00174017 -0.000867779 0.0219047 -0.0210435 0.0459521
internal_weight=0 12317.2 11090.8 7665.91 7171.38 4396.37 3424.9 2753.64 4207.34 2277.38 4417.74 1948.43 3386.3 335.55
internal_count=476169 329996 303156 198202 187101 146173 104954 67001 141166 66549 120100 45736 115100 6317
is_linear=0
shrinkage=0.1


Tree=13
num_leaves=15
num_cat=0
split_feature=69 68 20 80 34 79 6 78 18 34 79 6 7 80
split_gain=143.479 77.1742 75.8043 65.7701 47.6821 43.0366 36.8097 27.2623 24.3016 31.3187 24.2723 23.0762 20.1603 16.2902
threshold=0.037310371747663239 0.056709536194163856 0.67198396255000004 0.033229445003675605 0.68303678975000015 0.031435521988378602 1.0000000180025095e-35 0.040739082240120371 0.45000000000000007 0.6377452534000001 0.035541528870928991 1.0000000180025095e-35 1.0000000180025095e-35 0.039297228081991431
decision_type=2 2 2 2 2 2 2 2 2 2 2 2 2 2
left_child=2 3 8 11 -5 -6 10 -7 -1 -10 -4 12 -2 -12
right_child=1 -3 6 4 5 7 -8 -9 9 -11 13 -13 -14 -15
leaf_value=-0.028665465106942862 -0.021333816641530376 0.040049442027934284 -0.018413923052006384 -0.0068375202897084809 0.0021337625077926751 0.017233790021463344 0.015153461469302167 0.039194049335508997 -0.036472482851861353 -0.0058431955613711117 -0.0068393526536068734 0.00912741390845127 0.0011456158092394372 0.013383029373910027
leaf_weight=1836.8019761200994 1221.5976933240891 703.89826146699488 1066.9478555489331 1183.3741597216576 1596.6564954966307 2496.983704412356 1082.9314547255635 730.75024040229619 428.57196027413011 1510.1789475902915 1047.6855070255697 566.54659218713641 592.44045803882182 642.72092414274812
leaf_count=62510 38056 12805 33282 37162 44372 62193 26838 17029 15579 47446 30559 14614 16268 17456
internal_value=0 0.0082453 -0.0103611 0.00557649 0.0111504 0.0155627 -0.000468838 0.0222055 -0.020423 -0.012614 -0.00660439 -0.00849015 -0.0139923 0.000849537
internal_weight=0 9092.25 7615.84 8388.35 6007.76 4824.39 3840.29 3227.73 3775.55 1938.75 2757.35 2380.58 1814.04 1690.41
internal_count=476169 242499 233670 229694 160756 123594 108135 79222 125535 63025 81297 68938 54324 48015
is_linear=0
shrinkage=0.1


Tree=14
num_leaves=15
num_cat=0
split_feature=69 64 20 69 68 77 6 14 77 14 78 57 73 77
split_gain=116.487 70.6889 63.3372 36.4439 29.6193 31.0139 29.5954 28.9933 24.7671 24.0907 16.2307 15.2618 14.9051 14.5048
threshold=0.037310371747663239 0.038110219726768792 0.67198396255000004 0.050111142803970957 0.056709536194163856 0.041353200203380035 1.0000000180025095e-35 7.5000000000000009 0.028938508943776007 6.5000000000000009 0.043956424457718433 1.5000000000000002 0.05404063672628908 0.028888372376161462
decision_type=2 2 2 2 2 2 2 2 2 2 2 2 2 2
left_child=2 7 9 4 5 -3 10 12 -9 13 -4 -10 -2 -1
right_child=1 3 6 -5 -6 -7 -8 8 11 -11 -12 -13 -14 -15
leaf_value=-0.025273262841442531 0.0062314303365722957 0.0033294126526397828 -0.0079445932548693702 0.053228646165099175 0.049673404983106302 0.024185839419188247 0.013441032819440766 -0.024608831029683066 0.0061027188370872017 -0.025865519558927619 0.024300568901004377 -0.0093799757536906052 0.035331577641913574 -0.0038860639889376223
leaf_weight=432.89382995478809 2455.1632924824953 1556.8489367272705 2574.3470559027046 281.98553672432899 236.84709763154387 1315.3702609185129 1097.9645367283374 577.43001259118319 1268.1246189959347 2085.7328807022423 166.17832618393004 1278.5905808079988 189.60579649172723 1185.5573148000985
leaf_count=16084 66858 43080 76454 6050 3865 28143 26838 19871 33707 72799 4843 36787 4138 36652
internal_value=0 0.00734781 -0.00943332 0.0188058 0.0156837 0.0128809 -0.000431455 0.000612634 -0.0059101 -0.0187616 -0.00598933 -0.00167044 0.00831765 -0.00960659
internal_weight=0 9159.97 7542.67 3391.05 3109.07 2872.22 3838.49 5768.91 3124.15 3704.18 2740.53 2546.72 2644.77 1618.45
internal_count=476169 242499 233670 81138 75088 71223 108135 161361 90365 125535 81297 70494 70996 52736
is_linear=0
shrinkage=0.1


Tree=15
num_leaves=15
num_cat=0
split_feature=76 69 79 19 14 68 79 73 14 15 16 7 19 69
split_gain=96.2832 87.5811 64.6901 39.6875 31.3042 29.1273 28.8752 24.0208 23.1857 20.0805 19.0985 15.4165 15.3512 15.276
threshold=0.042648579579619636 0.033492402284378608 0.033568622517418177 0.45000000000000007 10.500000000000002 0.037772029207248238 0.042087868984477465 0.035824625540429568 6.5000000000000009 1.0000000180025095e-35 1.0000000180025095e-35 1.0000000180025095e-35 0.55000000000000016 0.042806602148244395
decision_type=2 2 2 2 2 2 2 2 2 2 2 2 2 2
left_child=1 3 8 7 6 -2 9 10 13 12 -1 -6 -4 -3
right_child=5 2 4 -5 11 -7 -8 -9 -10 -11 -12 -13 -14 -15
leaf_value=-0.022458936906507534 0.020605369698359053 -0.0017672395639142633 0.011333394000554265 0.0030145878709823791 -0.009484900591349479 0.062590780860704812 0.03678782505373606 0.0007426482451123647 -0.013817130106463455 0.0053216173427332349 0.0004049625943998235 0.014656991828706129 0.030456148780526021 0.026504147418150183
leaf_weight=3278.3550499882549 905.62408363446593 1480.4303250852972 1001.4403776079416 1323.6528737843037 1040.8124954812229 202.11185684986413 485.94314385205507 664.53806408680975 2106.1346293464303 2499.9978138525039 411.16006675921381 354.63726170361042 722.7884020972997 219.45633053593338
leaf_count=116430 22415 41959 24470 36591 29422 3679 10465 19091 64361 65809 11981 9065 14598 5833
internal_value=0 -0.00224569 0.00342721 -0.0121489 0.00980569 0.0282658 0.0137031 -0.0167587 -0.00680514 0.0110475 -0.019911 -0.00334952 0.0193496 0.00188261
internal_weight=0 15589.3 9911.64 5677.71 6105.62 1107.74 4710.17 4354.05 3806.02 4224.23 3689.52 1395.45 1724.23 1699.89
internal_count=476169 450075 265982 184093 153829 26094 115342 147502 112153 104877 128411 38487 39068 47792
is_linear=0
shrinkage=0.1


Tree=16
num_leaves=15
num_cat=0
split_feature=34 76 79 16 69 14 3 77 20 18 14 34 71 79
split_gain=84.0547 51.7761 46.1152 43.2617 32.645 32.6412 27.7729 25.296 25.16 23.0389 22.7497 20.0151 18.5569 14.8234
threshold=0.70761063435000016 0.042648579579619636 0.033568622517418177 1.0000000180025095e-35 0.029337917118304056 5.5000000000000009 1.0000000180025095e-35 0.050810048740805087 0.61466449010000013 0.65000000000000002 10.500000000000002 0.55978338480000012 0.036233663380158036 0.035541528870928991
decision_type=2 2 2 2 2 2 2 2 2 2 2 2 2 2
left_child=3 2 5 8 6 7 -4 -2 13 -3 -6 -10 -5 -1
right_child=1 9 4 12 10 -7 -8 -9 11 -11 -12 -13 -14 -15
leaf_value=-0.035753545406734241 0.0014950124880200508 0.056638565343681661 -0.014750813104907994 -0.0019252356728409791 0.014767634937755715 -0.012527275054657509 0.013890297467018163 0.043703259385107898 -0.027602257338628273 0.018548981452023935 -0.0010859919098727517 -0.00499467804606575 0.032481992323231325 -0.0162086654884811
leaf_weight=698.85035112127662 1202.2639795783907 196.70915351063013 1036.0343990493566 359.22989889420569 4016.1759161539376 2679.0481324307621 502.91017853096128 161.00502447597682 475.44966814294457 823.99084630981088 1168.4927991237491 2220.6772666089237 278.09608343802392 872.52620551176369
leaf_count=27608 34187 4426 31231 10618 92872 81351 14107 3851 16023 18300 30537 71533 7132 32393
internal_value=0 0.00436442 0.00232366 -0.0112139 0.00739835 -0.00611712 -0.00539121 0.0064799 -0.0148433 0.0258896 0.0111946 -0.00898142 0.0130883 -0.024901
internal_weight=0 11786.6 10765.9 4904.83 6723.61 4042.32 1538.94 1363.27 4267.5 1020.7 5184.67 2696.13 637.326 1571.38
internal_count=476169 310862 288136 165307 168747 119389 45338 38038 147557 22726 123409 87556 17750 60001
is_linear=0
shrinkage=0.1


Tree=17
num_leaves=15
num_cat=0
split_feature=5 62 79 77 69 23 28 77 14 79 20 80 14 32
split_gain=77.1513 52.2988 54.9281 31.9813 30.1065 29.48 24.6513 22.8921 21.7103 19.4027 19.4663 19.1983 18.6401 16.8358
threshold=1.0000000180025095e-35 0.035393602764643602 0.039264779372708919 0.028938508943776007 0.037310371747663239 1.0000000180025095e-35 1.0000000180025095e-35 0.053509285646530937 6.5000000000000009 0.042087868984477465 0.45859828165000005 0.039297228081991431 10.500000000000002 1.0000000180025095e-35
decision_type=2 2 2 2 2 2 2 2 2 2 2 2 2 2
left_child=1 12 4 11 8 -4 -7 9 -3 10 -5 -2 -1 -6
right_child=3 2 5 7 13 6 -8 -9 -10 -11 -12 -13 -14 -15
leaf_value=-0.0020921883594835879 -0.02962323883183765 0.0038673987854794729 0.013559634388613738 -0.023946227400331796 0.039438437261450618 0.01523181674233404 0.050213964626766951 0.027098003961587569 -0.017030362393772595 0.021457012756297328 -0.0049147411826966098 -0.0075483014440982142 -0.0205306914460394 0.0072179077546779269
leaf_weight=2329.6743078622967 1038.7605087850243 980.78614810854197 1901.026177899912 657.6712559107691 171.35292233526707 337.91758394241333 498.76975231990218 212.96860776282847 1008.0965243130922 231.77464987337589 2940.1031273268163 634.6873080227524 717.01924571767449 3025.7471620049328
leaf_count=65685 39643 27594 44404 24192 4225 6121 10217 5194 30939 6353 89888 22231 22481 77002
internal_value=0 0.00470328 0.00898467 -0.00962508 0.00293528 0.0204439 0.0360855 -0.00481244 -0.00672496 -0.00658704 -0.00839369 -0.0212509 -0.00643157 0.00894481
internal_weight=0 10970.4 7923.7 5715.97 5185.98 2737.71 836.687 4042.52 1988.88 3829.55 3597.77 1673.45 3046.69 3197.1
internal_count=476169 288668 200502 187501 139760 60742 16338 125627 58533 120433 114080 61874 88166 81227
is_linear=0
shrinkage=0.1


Tree=18
num_leaves=15
num_cat=0
split_feature=68 77 65 20 77 80 0 35 0 8 69 6 2 14
split_gain=75.7931 57.5158 31.793 30.6282 27.1715 20.0176 25.6008 19.9852 18.5287 14.8298 14.7505 14.6511 18.0264 14.3658
threshold=0.046007118366235701 0.037351104588603475 0.044114291113658687 0.57689897435000004 0.051901860766215328 0.033229445003675605 1.5000000000000002 0.36407416180000007 2.5000000000000004 1.0000000180025095e-35 0.041935751889452123 1.0000000180025095e-35 1.5000000000000002 4.5000000000000009
decision_type=2 2 2 2 2 2 2 2 2 2 2 2 2 2
left_child=1 3 8 -1 5 -3 -7 10 -2 -8 11 12 -5 -6
right_child=2 4 -4 7 13 6 9 -9 -10 -11 -12 -13 -14 -15
leaf_value=-0.019989215584046566 0.0049094573318545316 -0.0085722885314777949 0.042896529003920547 0.017918385631667044 0.035632294252982956 -0.0031889399158630816 0.015513461842387161 -0.011780789477247765 0.026306841286465911 -0.00477363538380449 0.025714528618417054 0.015028187271679972 -0.0098584647947389647 0.010428578928095471
leaf_weight=2000.0198180601001 1336.458819149062 1750.9298079218715 384.49186235480011 277.92307288199663 310.94191194139421 2436.0614477265626 1840.1676902864128 2360.1278327982873 580.45802648924291 448.06185345351696 222.26917184889317 437.82762163504958 1466.2334203198552 829.34926147572696
leaf_count=78087 29512 49693 6251 9170 6511 65212 44400 76913 11402 11674 6474 12409 49189 19272
internal_value=0 -0.00289317 0.0166527 -0.0096036 0.0030673 0.000560685 0.00394557 -0.00524386 0.0113888 0.011541 0.0011731 -0.00132683 -0.00543236 0.0173013
internal_weight=0 14379.9 2301.41 6764.4 7615.51 6475.22 4724.29 4764.38 1916.92 2288.23 2404.25 2181.98 1744.16 1140.29
internal_count=476169 429004 47165 232242 196762 170979 121286 154155 40914 56074 77242 70768 58359 25783
is_linear=0
shrinkage=0.1


Tree=19
num_leaves=15
num_cat=0
split_feature=65 77 79 77 27 81 20 4 79 19 19 80 79 67
split_gain=64.5993 48.0638 30.7844 23.8611 22.0761 19.566 23.2247 19.3379 18.9987 14.1278 13.7517 13.0164 12.6641 13.3375
threshold=0.044114291113658687 0.028938508943776007 0.033568622517418177 0.045130221215424503 1.0000000180025095e-35 0.042369664758381907 0.47269164445000006 1.0000000180025095e-35 0.042087868984477465 0.75000000000000011 1.5500000000000003 0.039116695028284305 0.042087868984477465 0.036717848843270284
decision_type=2 2 2 2 2 2 2 2 2 2 2 2 2 2
left_child=1 8 5 10 -2 6 -3 9 11 -6 12 -1 13 -4
right_child=4 2 3 -5 7 -7 -8 -9 -10 -11 -12 -13 -14 -15
leaf_value=-0.02296434086414775 0.038096623058343326 -0.02451999049840858 -0.0052015665784524122 0.01726668090833822 0.0019140753190899969 0.023813084853914816 -0.0046582654898632307 0.031974000382215935 0.015360825320583364 0.022107756086163759 0.027786935932764979 -0.0089319511244812001 0.01510342615296493 0.0051366368155612713
leaf_weight=1466.6029307264835 338.1453148201108 719.13442730903625 2992.7899709939957 1154.9902905952185 1458.7670871950686 199.78810207918286 3246.6566041950136 359.98250233381987 199.38422496989369 454.36037075333297 193.11037505231798 1203.4783974774182 547.88710189796984 2140.39257530123
leaf_count=56421 5850 25093 85345 24719 36441 5846 97664 6128 5987 9328 4109 42170 13428 57640
internal_value=0 -0.00286932 9.03641e-05 0.00412723 0.0142573 -0.00672161 -0.00825988 0.0107109 -0.014416 0.00671 0.00154373 -0.0166396 0.000651672 -0.000890827
internal_weight=0 14064.2 11194.7 7029.17 2611.26 4165.58 3965.79 2273.11 2869.47 1913.13 5874.18 2670.08 5681.07 5133.18
internal_count=476169 418422 313844 185241 57747 128603 122757 51897 104578 45769 160522 98591 156413 142985
is_linear=0
shrinkage=0.1


Tree=20
num_leaves=15
num_cat=0
split_feature=34 68 23 34 20 2 80 32 3 69 16 2 69 6
split_gain=57.842 52.8704 44.21 42.2287 33.7038 26.5446 22.7915 21.7334 19.2747 16.4556 16.204 15.7684 12.5252 13.8261
threshold=0.61357322905000011 0.056709536194163856 1.0000000180025095e-35 1.35103648455 0.49021668520000006 1.0000000180025095e-35 0.033229445003675605 1.0000000180025095e-35 1.0000000180025095e-35 0.033492402284378608 1.0000000180025095e-35 9.5000000000000018 0.042806602148244395 1.0000000180025095e-35
decision_type=2 2 2 2 2 2 2 2 2 2 2 2 2 2
left_child=10 2 3 4 9 -6 -7 -8 -9 -2 -1 12 13 -4
right_child=1 -3 11 -5 5 6 7 8 -10 -11 -12 -13 -14 -15
leaf_value=-0.020806369538856829 -0.025148863995542038 0.022528326491911339 0.00010881581429892399 0.027483249080846872 0.037677872300006965 -0.011137288741395688 0.027543306967759619 -0.0053867135067189086 0.006544578445647967 -0.0068986866985975108 0.0074176100816267382 0.037782490368324095 0.025922888857982912 0.014960818921385033
leaf_weight=1561.935570679605 983.39682852849364 1143.4925865642726 1517.741713443771 437.08710273727775 169.98360109515488 2122.6879345402122 292.10815644823015 3264.7628071494401 2313.4063682444394 992.88811910524964 233.87443609721959 199.0452464427799 369.60938844829798 1067.7683186139911
leaf_count=57221 37411 20757 41177 8353 4298 67236 7283 93996 63882 31022 6550 4889 8518 23576
internal_value=0 0.00186886 0.000148315 -0.00295048 -0.00426243 -0.00142557 -0.00225716 0.000953882 -0.000438508 -0.01598 -0.0171307 0.010539 0.00870394 0.00624242
internal_weight=0 14874 13730.5 10576.3 10139.2 8162.95 7992.97 5870.28 5578.17 1976.28 1795.81 3154.16 2955.12 2585.51
internal_count=476169 412398 391641 313481 305128 236695 232397 165161 157878 68433 63771 78160 73271 64753
is_linear=0
shrinkage=0.1


Tree=21
num_leaves=15
num_cat=0
split_feature=76 69 79 18 15 36 18 68 34 34 0 14 69 35
split_gain=51.7262 44.729 29.6183 25.6194 23.2964 20.9805 17.145 15.6193 18.0668 13.5123 18.598 13.4328 12.5201 12.0985
threshold=0.042648579579619636 0.037310371747663239 0.039264779372708919 0.45000000000000007 1.0000000180025095e-35 2.7370892179000008 0.55000000000000016 0.046007118366235701 0.71164313415000013 0.78014487950000011 1.5000000000000002 10.500000000000002 0.043993945873173013 0.35390659115000006
decision_type=2 2 2 2 2 2 2 2 2 2 2 2 2 2
left_child=1 2 3 -1 12 -5 -2 8 -6 13 -11 -7 -3 -4
right_child=6 4 9 5 7 11 -8 -9 -10 10 -12 -13 -14 -15
leaf_value=-0.023638910084240464 0.051179934577181688 0.0077478988748734493 0.0083105318375838507 -0.023963956413853529 -0.013403866927011444 0.00031631664320659657 0.01536719736329264 0.011954928664885683 0.00069913081039957292 -0.0038491290186026881 0.020815456011427522 -0.020592897063593834 0.027978520957254557 -0.012341029915523657
leaf_weight=1437.9315243959427 153.80416382290423 2814.5894899535924 406.74619890376925 601.07734372466803 1244.5164808835834 1943.4490353893489 1021.6205344684422 809.04429577849805 3362.9309196379036 613.90183266438544 608.98469610325992 364.94438254274428 343.20813517458737 937.57740959152579
leaf_count=53579 3283 66547 13545 22308 44136 59162 22811 15504 93160 15900 14316 12347 7101 32470
internal_value=0 -0.00170583 -0.00768994 -0.0127193 0.00311996 -0.00732254 0.0200533 -0.000859992 -0.00311023 0.000826934 0.00843358 -0.00298932 0.00994668 -0.00609258
internal_weight=0 15488.9 6914.61 4347.4 8574.29 2909.47 1175.42 5416.49 4607.45 2567.21 1222.89 2308.39 3157.8 1344.32
internal_count=476169 450075 223627 147396 226448 93817 26094 152800 137296 76231 30216 71509 73648 46015
is_linear=0
shrinkage=0.1


Tree=22
num_leaves=15
num_cat=0
split_feature=27 5 18 79 8 76 36 14 36 71 18 28 79 14
split_gain=46.2444 42.7936 30.8604 26.7798 23.7595 19.7642 17.9405 16.7309 15.3266 27.6363 16.6639 14.7445 13.6738 12.632
threshold=1.0000000180025095e-35 1.0000000180025095e-35 0.55000000000000016 0.031435521988378602 1.0000000180025095e-35 0.052804794734828964 1.8660254038000004 10.500000000000002 3.6736043311500004 0.04387272586938467 0.15000000000000005 1.0000000180025095e-35 0.039264779372708919 8.5000000000000018
decision_type=2 2 2 2 2 2 2 2 2 2 2 2 2 2
left_child=-1 3 -3 -2 5 8 -4 -6 9 10 -5 -12 -11 -8
right_child=1 2 6 4 7 -7 13 -9 -10 12 11 -13 -14 -15
leaf_value=0.015926560235071274 -0.0066580406499486336 -0.020210624910418751 -0.027743466028186777 -0.013455510566733629 0.0014886289896081501 0.034870335043436063 0.0031237977547334348 -0.018599396386736768 -0.0076754221538535092 0.01170421370044635 0.03131855615621406 0.0055268500575896811 0.035211383070681695 -0.010298580183164457
leaf_weight=1613.4199420120567 2659.3994813263416 1726.1775958258659 285.75693759508431 427.39872797578573 1579.5106048565358 274.24925214424729 2012.1152436230332 562.18497623503208 600.75281922146678 472.76149453036487 242.23975283652544 2607.9222093522549 519.21260139532387 1076.1593453399837
leaf_count=33758 80311 67394 10659 12166 43954 4958 61392 18083 13355 11374 5483 66630 10320 36332
internal_value=0 -0.00188802 -0.0093354 0.00193106 0.00506599 0.00875044 -0.00377156 -0.00378438 0.00727961 0.00938388 0.00495775 0.00771893 0.0240082 -0.00155345
internal_weight=0 15045.8 5100.21 9945.63 7286.23 5144.54 3374.03 2141.7 4870.29 4269.53 3277.56 2850.16 991.974 3088.27
internal_count=476169 442411 175777 266634 186323 124286 108383 62037 119328 105973 84279 72113 21694 97724
is_linear=0
shrinkage=0.1


Tree=23
num_leaves=15
num_cat=0
split_feature=68 34 20 34 23 79 80 78 80 21 79 34 21 32
split_gain=41.0043 39.6247 33.9199 28.1033 19.0038 18.8265 16.4951 18.3876 14.4053 13.616 13.5474 11.7428 11.6399 11.444
threshold=0.056709536194163856 0.96569248900000015 0.48509009085000004 0.60597916095000015 -1.0000000180025095e-35 0.052474287747773733 0.040658921680785311 0.035155809173850701 0.031127055276818725 4.5000000000000009 0.035541528870928991 1.5300671119000002 10.500000000000002 1.0000000180025095e-35
decision_type=2 2 2 2 2 2 2 2 2 2 2 2 2 2
left_child=1 2 10 -4 5 8 11 -8 -5 -2 -1 -3 -13 -10
right_child=9 6 3 4 -6 -7 7 -9 13 -11 -12 12 -14 -15
leaf_value=-0.024449044726650285 0.044521338481464834 0.0027890937458609896 -0.016697014626470243 -0.014421288258270056 0.0073143705945495768 0.029989328841476721 0.00589291789703474 0.045510268062210334 0.01896799647941351 0.01299421420398178 -0.0086151166640888299 0.042091030053325422 0.0046586377919613491 -0.0028194640994274149
leaf_weight=983.82930577173829 154.98382584936917 2967.3624088875949 1130.1585585735738 1084.2560874447227 2539.2120879832655 167.03472319431603 245.23381209746003 224.31144699826837 255.79701643064618 1179.7460747081786 1198.7424421310425 159.51481582969427 173.34773328155279 4190.7246737163514
leaf_count=39048 2725 67482 41521 37654 68317 4202 5033 4215 6425 21871 42976 2893 2885 128922
internal_value=0 -0.00162 -0.00452557 -0.00190968 0.000119216 -0.00308728 0.00728203 0.0248189 -0.00408623 0.016655 -0.0157525 0.00478693 0.022597 -0.00156609
internal_weight=0 15319.5 11549.8 9367.18 8237.02 5697.81 3769.77 469.545 5530.78 1334.73 2182.57 3300.22 332.863 4446.52
internal_count=476169 451573 369065 287041 245520 177203 82508 9248 173001 24596 82024 73260 5778 135347
is_linear=0
shrinkage=0.1


Tree=24
num_leaves=15
num_cat=0
split_feature=16 36 20 79 18 69 69 5 68 26 36 8 25 73
split_gain=39.0387 31.7819 23.3871 24.8306 23.7528 18.8378 17.4789 16.8437 16.1622 14.108 13.7272 13.317 13.1543 12.0219
threshold=1.0000000180025095e-35 2.1180339887500002 0.67938387320000015 0.042087868984477465 0.8500000000000002 0.033492402284378608 0.041935751889452123 1.0000000180025095e-35 0.056709536194163856 9.5000000000000018 3.5348264453000007 1.0000000180025095e-35 -1.0000000180025095e-35 0.035824625540429568
decision_type=2 2 2 2 2 2 2 2 2 2 2 2 2 2
left_child=1 -1 4 6 5 13 7 -4 11 -8 -6 12 -2 -3
right_child=8 2 3 -5 10 -7 9 -9 -10 -11 -12 -13 -14 -15
leaf_value=-0.019704244721324853 -0.00060882420841288677 -0.020083360813152613 0.002408475532610887 0.022672476315812023 -0.00049119118010983078 -0.0031718026730763317 0.029776600349049859 -0.0088663956348172708 0.036609648666100218 0.001018724579070912 0.024334763101854368 -0.0082270989034097866 0.016946535452821637 0.0022511000394711028
leaf_weight=972.63011541776359 604.13653110153973 1656.7776495460421 4843.0102290194482 563.19772508367896 716.83886901661754 2104.627953004092 358.93610424920917 1824.035626033321 224.22974400222301 325.095612809062 323.12194536067545 396.15993024408817 1454.2607483994216 282.02915361337364
leaf_count=36195 15567 65801 124154 11875 24916 63848 8915 57060 3060 7763 9171 9519 29601 8724
internal_value=0 -0.00226827 -0.000963514 0.00243608 -0.0062563 -0.00972298 0.000885684 -0.000676214 0.0109104 0.016109 0.00722238 0.00856269 0.0117941 -0.0168345
internal_weight=0 13970.3 12997.7 7914.28 5083.4 4043.43 7351.08 6667.05 2678.79 684.032 1039.96 2454.56 2058.4 1938.81
internal_count=476169 418422 382227 209767 172460 138373 197892 181214 57747 16678 34087 54687 45168 74525
is_linear=0
shrinkage=0.1


Tree=25
num_leaves=15
num_cat=0
split_feature=65 34 79 14 78 67 21 14 68 81 32 3 8 2
split_gain=31.3638 31.5219 23.1032 17.1749 31.846 21.9805 16.1067 16.1004 15.488 15.4775 11.8293 11.2751 9.83484 9.30641
threshold=0.044114291113658687 0.61790602135000017 0.033568622517418177 11.500000000000002 0.038354719145852804 0.036717848843270284 7.5000000000000009 8.5000000000000018 0.056709536194163856 0.042369664758381907 2.5000000000000004 1.0000000180025095e-35 1.0000000180025095e-35 7.5000000000000009
decision_type=2 2 2 2 2 2 2 2 2 2 2 2 2 2
left_child=1 -1 9 4 5 6 -4 8 12 11 -6 -3 13 -2
right_child=7 2 3 -5 10 -7 -8 -9 -10 -11 -12 -13 -14 -15
leaf_value=-0.015418376412200459 0.012299743607549761 -0.012043465151569302 -0.012912042252153061 -0.0084341495979946991 0.022821114201594384 0.0092343906228365673 0.0020876899523034529 -0.001648127685374877 0.044763861159633163 0.021449186844521378 0.0077326318269725974 -0.0019054769398623031 -0.0061793788544916139 0.036690409718883828
leaf_weight=1566.2686515338719 1263.3725235108286 2301.5821858495474 1376.7221983224154 1130.6329621318728 1023.1599668692797 1701.3980156909674 1491.3836008235812 853.40609881468117 159.29689739085734 196.85732550173998 1055.7524381522089 2096.1102412100881 249.6078445147723 178.5432140044868
leaf_count=60540 26147 76039 44419 34085 24192 44455 36470 20443 2025 5587 25775 66860 5720 3412
internal_value=0 -0.00205267 -0.000360816 0.00296001 0.00489771 0.000229483 -0.00511235 0.00971508 0.0149546 -0.00598333 0.0151586 -0.00721131 0.0121474 0.0153199
internal_weight=0 13939.9 12373.6 7779.05 6648.42 4569.5 2868.11 2704.23 1850.82 4594.55 2078.91 4397.69 1691.52 1441.92
internal_count=476169 418422 357882 209396 175311 125344 80889 57747 37304 148486 49967 142899 35279 29559
is_linear=0
shrinkage=0.1


Tree=26
num_leaves=15
num_cat=0
split_feature=76 19 14 34 0 79 2 2 34 20 72 69 33 31
split_gain=32.0381 27.9836 23.5952 24.5398 18.6032 18.4971 17.1248 14.2481 12.6543 12.2732 15.2523 11.9379 11.8553 11.7697
threshold=0.052804794734828964 0.55000000000000016 7.5000000000000009 0.79330521310000013 1.0000000180025095e-35 0.042087868984477465 7.5000000000000009 1.5000000000000002 0.67128992635000018 0.57418413945000013 0.045128311870302744 0.042806602148244395 0.32394512250000007 45.500000000000007
decision_type=2 2 2 2 2 2 2 2 2 2 2 2 2 2
left_child=1 2 4 13 -1 11 -5 -2 -6 10 -10 -3 -11 -4
right_child=7 5 3 6 8 -7 -8 -9 9 12 -12 -13 -14 -15
leaf_value=-0.007697788777861498 0.043786330707314802 0.0012568777800990201 -0.025283685869896821 -0.0057609110693031913 -0.0063734262292157859 0.024783467463001974 0.017542361238769184 0.011594320182908194 -0.0097015722348307645 0.030170774115806827 0.017541688085228872 0.018097374962628612 0.0088087251225646788 -0.011161179259249865
leaf_weight=1979.4545915555209 160.55007228255272 4348.3809843063354 895.79518824256957 1720.9470988288522 837.28552293591201 419.40609766542912 386.09821790643036 957.07679400593042 672.51659891009331 316.29889182932675 295.93133288063109 466.05544526316226 1454.1821170598269 1729.4028594940901
leaf_count=61983 3190 108810 35500 48131 29645 7998 10282 20639 21798 9426 6631 10319 35463 66354
internal_value=0 -0.00131125 -0.00433975 -0.00952874 8.01594e-05 0.00464173 -0.00149078 0.0162188 0.0043853 0.00767422 -0.00137677 0.0028871 0.0126251 -0.0159802
internal_weight=0 15521.8 10287.9 4732.24 5555.67 5233.84 2107.05 1117.63 3576.21 2738.93 968.448 4814.44 1770.48 2625.2
internal_count=476169 452340 325213 160267 164946 127127 58413 23829 102963 73318 28429 119129 44889 101854
is_linear=0
shrinkage=0.1


Tree=27
num_leaves=15
num_cat=0
split_feature=68 80 2 19 77 2 77 18 32 57 14 14 78 2
split_gain=27.7423 27.9343 24.0051 22.3559 20.1307 17.5657 16.7357 13.3561 13.0681 12.8363 12.4145 11.6963 11.3055 15.089
threshold=0.046007118366235701 0.033229445003675605 9.5000000000000018 0.25000000000000006 0.040491628046988935 1.5000000000000002 0.058038540426932725 0.65000000000000002 1.0000000180025095e-35 1.0000000180025095e-35 4.5000000000000009 3.5000000000000004 0.038354719145852804 4.5000000000000009
decision_type=2 2 2 2 2 2 2 2 2 2 2 2 2 2
left_child=1 5 3 4 11 -1 8 -4 -5 -7 -6 -3 -2 -14
right_child=12 2 7 6 10 9 -8 -9 -10 -11 -12 -13 13 -15
leaf_value=0.015118595770416583 0.0049507253612377719 0.00078452826010682718 0.048765016013431368 0.023786111342445522 0.016675808200048822 -0.0014172640309127024 0.036177317805556039 0.010397108411616668 0.001668934217421118 -0.014774028282113608 -0.0039455393167539448 -0.01600610172159532 0.044512961173994274 0.011965479603174428
leaf_weight=277.48906897939742 1619.01337576285 544.18879405409098 150.03756359033287 279.52324775792658 466.73405162803829 1002.3034900855273 152.46034857816994 229.52061850950122 6034.6974854785949 2550.199755422771 779.53778345137835 1745.8821069076657 185.0432844646275 618.64251149259508
leaf_count=9371 33301 19311 4150 6570 11281 28535 2971 5558 165131 90801 20644 64681 3186 10678
internal_value=0 -0.00181343 0.000879209 -5.743e-05 -0.00645027 -0.00911281 0.00343853 0.0255638 0.00264804 -0.0110055 0.00377724 -0.0120161 0.00976368 0.0194593
internal_weight=0 14212.6 10382.6 10003 3536.34 3829.99 6466.68 379.558 6314.22 3552.5 1246.27 2290.07 2422.7 803.686
internal_count=476169 429004 300297 290589 115917 128707 174672 9708 171701 119336 31925 83992 47165 13864
is_linear=0
shrinkage=0.1


Tree=28
num_leaves=15
num_cat=0
split_feature=27 68 34 2 3 18 2 14 78 14 2 2 77 26
split_gain=25.2259 21.3863 22.1231 21.1824 23.7419 17.1974 14.4557 13.4074 12.1998 11.824 21.2505 11.779 10.7833 10.4883
threshold=1.0000000180025095e-35 0.056709536194163856 0.95864379925000021 1.5000000000000002 1.0000000180025095e-35 0.75000000000000011 10.500000000000002 4.5000000000000009 0.040739082240120371 11.500000000000002 6.5000000000000009 5.5000000000000009 0.035532656238416498 1.5000000000000002
decision_type=2 2 2 2 2 2 2 2 2 2 2 2 2 2
left_child=13 2 3 5 6 -2 12 8 -4 10 -6 -9 -5 -1
right_child=1 -3 7 4 9 -7 -8 11 -10 -11 -12 -13 -14 -15
leaf_value=0.022728056663194551 -0.0032097179040775311 0.012865533660775067 0.0084903032382650217 -0.016710005070325343 -0.0025460273162959948 0.017676716644947934 0.016843909048801845 -0.0048745730702648002 0.03601356844992723 -0.012367967299393465 0.017058752429463874 0.008750779051092351 -0.007103290850284061 0.0059208317905912917
leaf_weight=558.01528209447861 906.20266881398857 979.16746266931295 652.35073236748576 2569.7263375390321 2589.1582080312073 697.75422894582152 176.04549956321716 1492.5667547602206 213.83803560957313 737.52438069134951 703.02266366221011 1103.5942061599344 2142.6913202125579 1109.5843849144876
leaf_count=12260 30225 18897 13474 98947 82593 19810 5771 36767 3997 25792 19219 22844 64075 21498
internal_value=0 -0.00142156 -0.00242192 -0.00470349 -0.0066063 0.00587631 -0.0112909 0.00451179 0.015285 -0.000923406 0.00164044 0.000917387 -0.0123419 0.0115449
internal_weight=0 14963.6 13984.5 10522.1 8918.17 1603.96 4888.46 3462.35 866.189 4029.71 3292.18 2596.16 4712.42 1667.6
internal_count=476169 442411 423514 346432 296397 50035 168793 77082 17471 127604 101812 59611 163022 33758
is_linear=0
shrinkage=0.1


Tree=29
num_leaves=15
num_cat=0
split_feature=23 36 14 8 34 6 18 0 79 0 79 77 20 81
split_gain=22.971 26.8347 21.8647 18.877 17.0227 15.712 19.3303 14.9875 14.0381 12.8393 15.9568 11.7595 11.542 11.3886
threshold=1.0000000180025095e-35 3.6736043311500004 7.5000000000000009 1.0000000180025095e-35 1.35103648455 1.0000000180025095e-35 0.8500000000000002 5.5000000000000009 0.033568622517418177 1.0000000180025095e-35 0.039264779372708919 0.02753669889008235 0.59134374960000013 0.042369664758381907
decision_type=2 2 2 2 2 2 2 2 2 2 2 2 2 2
left_child=2 3 4 7 13 6 8 9 -4 -2 -11 -10 -7 -1
right_child=1 -3 5 -5 -6 12 -8 -9 11 10 -12 -13 -14 -15
leaf_value=-0.00057332327311015693 0.027792440832360543 -0.0083758034194578255 -0.023676340820795574 -0.0075207330792590489 0.023688900525902085 -0.012466175339229713 -2.8253995006478024e-05 0.042939471811772462 -0.02378337946388373 0.00095648144739798435 0.019971409014433734 -0.0050233759519773859 0.0085228911212818365 0.016430562298611829
leaf_weight=6404.9804767183959 451.0804751124233 896.47267315536737 1029.1285996846855 444.49803411588073 331.14038150757551 360.24646945111454 1413.3264924455434 176.64837810955942 430.14724865183234 1051.4011549632996 760.56873821653426 1496.9609143733978 960.64297192543745 419.69864933937788
leaf_count=185709 10533 20327 40751 11701 5522 11603 45278 3385 17689 26994 15552 46933 24204 9988
internal_value=0 0.0067357 -0.00213225 0.0114327 0.00154673 -0.00675861 -0.00964767 0.0148859 -0.0142465 0.0126961 0.00893794 -0.00921077 0.00279854 0.000472368
internal_weight=0 3780.67 12846.3 2884.2 7155.82 5690.45 4369.56 2439.7 2956.24 2263.05 1811.97 1927.11 1320.89 6824.68
internal_count=476169 88492 387677 68165 201219 186458 150651 56464 105373 53079 42546 64622 35807 195697
is_linear=0
shrinkage=0.1


Tree=30
num_leaves=15
num_cat=0
split_feature=16 34 79 0 18 18 34 31 77 20 79 78 8 26
split_gain=21.445 21.9319 14.3265 16.3337 15.7072 15.8138 15.6493 13.922 11.3302 11.4243 11.0773 10.4359 11.6861 9.91465
threshold=1.0000000180025095e-35 0.60597916095000015 0.042087868984477465 2.5000000000000004 0.35000000000000003 1.0000000180025095e-35 0.92063382095000013 47.500000000000007 0.046416824681059052 1.0000000180025095e-35 0.035541528870928991 0.042485798919935099 1.0000000180025095e-35 1.5000000000000002
decision_type=2 2 2 2 2 2 2 2 2 2 2 2 2 2
left_child=1 -1 4 7 5 -3 10 -4 9 -6 -7 12 -2 -11
right_child=11 2 3 -5 8 6 -8 -9 -10 13 -12 -13 -14 -15
leaf_value=-0.014309890648351418 0.0085467395263113029 0.0088784791146246777 0.024573947572023157 0.036444768536160695 0.020920545083962277 -0.029234625977675 0.00067156573692405048 -0.0074245225515577763 0.009523101239024067 0.0032552413175362563 -0.010724983712793219 0.023716696209831245 -0.010892778683044427 -0.0040897136709093619
leaf_weight=1255.7753779077902 2009.3355781547725 424.36887155566365 211.3214673101902 209.94201962836087 234.54767895210534 561.18355276249349 620.86850237846375 381.32135429792106 1211.6816496159881 2856.6107756402344 762.82608298026025 365.01276090554893 365.49414956755936 5152.9845249019563
leaf_count=50494 42139 13186 4804 4681 7866 23855 15753 8316 26443 88155 27545 7017 8591 147324
internal_value=0 -0.00170627 -0.000452884 0.0124761 -0.0013304 -0.00861142 -0.0124277 0.00398532 0.000493935 -0.000833126 -0.0185703 0.00797452 0.00555493 -0.00147015
internal_weight=0 13883.4 12627.7 802.585 11825.1 2369.25 1944.88 592.643 9455.82 8244.14 1324.01 2739.84 2374.83 8009.6
internal_count=476169 418422 367928 17801 350127 80339 67153 13120 269788 243345 51400 57747 50730 235479
is_linear=0
shrinkage=0.1


Tree=31
num_leaves=15
num_cat=0
split_feature=27 79 14 78 1 18 6 20 67 1 47 34 34 18
split_gain=17.9666 16.424 16.9295 14.5504 14.4216 13.738 12.676 12.169 22.2001 10.1922 9.40764 9.3335 9.2573 9.30494
threshold=1.0000000180025095e-35 0.033568622517418177 12.500000000000002 0.040739082240120371 1.5000000000000002 0.35000000000000003 1.0000000180025095e-35 0.8129806044000002 0.036717848843270284 1.5000000000000002 4.5000000000000009 0.92661518570000012 0.65567295565000017 0.55000000000000016
decision_type=2 2 2 2 2 2 2 2 2 2 2 2 2 2
left_child=-1 5 3 7 -4 11 10 8 9 -3 -7 -2 -10 -14
right_child=1 2 4 -5 -6 6 -8 -9 12 -11 -12 -13 13 -15
leaf_value=0.0096594949454478652 -0.021966999634130437 -0.012565104807704848 -0.0060026586405242215 0.010201861304019478 -0.040439691513516313 0.00051471836214142281 0.0045555165019329838 0.005104056514314833 -0.0091717305241552013 0.0033494079627495394 -0.010978916231889445 -0.00059514870613411601 0.0015843800439088126 0.020501421965156596
leaf_weight=1692.4264178629965 734.9865852240473 1891.4173462195322 570.82057224400342 1936.9624066865072 154.52939386013895 1119.5019223662093 1445.8720825202763 3000.8669112827629 280.29792040213943 511.18258520122617 1957.0905296383426 283.03271457180381 506.13457302376628 534.73163722269237
leaf_count=33758 31565 62126 17577 46902 4905 38166 39034 70486 10674 16728 66878 8073 15152 14145
internal_value=0 -0.00121226 0.00133609 0.00256504 -0.0133392 -0.00552979 -0.00316726 0.000365336 -0.00345345 -0.0091791 -0.00679664 -0.0160251 0.0069589 0.0113028
internal_weight=0 14927.4 9386.94 8661.59 725.35 5540.48 4522.46 6724.63 3723.76 2402.6 3076.59 1018.02 1321.16 1040.87
internal_count=476169 442411 258695 236213 22482 183716 144078 189311 118825 78854 105044 39638 39971 29297
is_linear=0
shrinkage=0.1


Tree=32
num_leaves=15
num_cat=0
split_feature=76 71 18 14 20 31 18 78 70 0 14 81 21 69
split_gain=20.9141 17.4342 16.7714 16.6927 13.7893 11.7486 11.4943 11.2168 11.1425 9.82934 9.18878 9.14696 8.59663 8.55283
threshold=0.052804794734828964 0.04387272586938467 0.65000000000000002 7.5000000000000009 0.78202459050000017 16.500000000000004 0.15000000000000005 0.043956424457718433 0.041442717486956097 4.5000000000000009 12.500000000000002 0.042369664758381907 7.5000000000000009 0.041935751889452123
decision_type=2 2 2 2 2 2 2 2 2 2 2 2 2 2
left_child=1 3 -2 7 6 -3 -5 11 -8 13 -7 -1 -13 -6
right_child=2 5 -4 4 9 10 8 -9 -10 -11 -12 12 -14 -15
leaf_value=-0.0015037513150164103 0.038260758038017192 -0.010021558841060192 0.0071563800228582348 -0.026015210127188399 -8.710993752940068e-05 0.0089722388669408806 -0.01156377255441756 0.017059190294966945 0.0099064801586969467 -0.012123721182710712 -0.012322610197578604 0.00048968392739802814 0.030770720680018085 0.024558044300652733
leaf_weight=5896.9515528455377 212.92016669549048 442.49212888348848 932.7820999622345 479.26915723830462 1760.9495664015412 2794.8629380287603 2009.9488814212382 384.40249506384134 274.76159675326198 678.58177234046161 218.47192909102887 201.6924379710108 175.18536099977791 153.05323501862586
leaf_count=171811 4357 10779 19472 19402 52161 65535 77321 9783 8202 18580 5801 5232 3755 3978
internal_value=0 -0.00106535 0.0129369 -0.00286573 -0.0070214 0.005194 -0.0119353 0.000477513 -0.00898174 -0.00178264 0.00742833 -0.00053846 0.0145653 0.00188364
internal_weight=0 15470.6 1145.7 12014.8 5356.56 3455.83 2763.98 6658.23 2284.71 2592.58 3013.33 6273.83 376.878 1914
internal_count=476169 452340 23829 370225 179644 82115 104925 190581 85523 74719 71336 180798 8987 56139
is_linear=0
shrinkage=0.1


Tree=33
num_leaves=15
num_cat=0
split_feature=69 79 31 18 0 28 15 35 37 76 78 76 50 79
split_gain=17.2297 12.9278 14.4469 11.9816 12.7969 10.5119 9.57897 9.66724 11.1007 13.5463 8.85375 9.04203 8.73598 9.37282
threshold=0.037310371747663239 0.042087868984477465 38.500000000000007 0.8500000000000002 1.5000000000000002 1.0000000180025095e-35 1.0000000180025095e-35 0.36640141285000005 0.8500000000000002 0.052804794734828964 0.040739082240120371 0.0342277994848127 4.5000000000000009 0.04172179049167634
decision_type=2 2 2 2 2 2 2 2 2 2 2 2 2 2
left_child=3 6 -3 4 -1 -6 10 -8 9 -9 11 -2 -5 -14
right_child=1 2 -4 12 5 -7 7 8 -10 -11 -12 -13 13 -15
leaf_value=-0.010901936124156851 -0.0096551191068503239 0.04212323530310505 0.0070813684611170631 -0.013817710049512339 0.019191593523050447 -0.00314930059970992 0.0037474846688039087 -0.0087985795605472258 0.01403304965457291 0.018037344378236501 0.01458951550081615 0.0056524369323441154 0.00021480385973900526 0.015457015541249834
leaf_weight=2862.7588757798076 468.50683989003301 166.0717915892601 403.52916549704969 296.77360228076577 239.6159648373723 1739.8647137638181 2458.4727505827323 2461.4591264240444 284.49285612720996 203.66367216035724 867.29292648844421 2188.0492116808891 1407.1909548155963 565.58681229874492
leaf_count=103391 12122 3211 7742 8909 5817 56509 71654 69464 7936 4390 17259 48721 44103 14941
internal_value=0 0.00269139 0.0172981 -0.00381712 -0.00662717 -0.000444937 0.0017599 -0.000883566 -0.0047435 -0.00674783 0.00581685 0.00295282 0.00217833 0.00458468
internal_weight=0 9501.54 569.601 7111.79 4842.24 1979.48 8931.94 5408.09 2949.62 2665.12 3523.85 2656.56 2269.55 1972.78
internal_count=476169 242499 10953 233670 165717 62326 231546 153444 81790 73854 78102 60843 67953 59044
is_linear=0
shrinkage=0.1


Tree=34
num_leaves=15
num_cat=0
split_feature=69 19 80 16 2 20 0 18 25 18 18 28 52 36
split_gain=16.2802 16.7413 12.7253 12.6768 12.5833 13.9392 12.3936 12.2798 16.527 14.3751 15.2837 10.9534 10.3701 10.2857
threshold=0.041935751889452123 1.5500000000000003 0.033229445003675605 1.0000000180025095e-35 1.5000000000000002 0.78202459050000017 1.5000000000000002 0.8500000000000002 -1.0000000180025095e-35 1.0000000180025095e-35 0.15000000000000005 1.0000000180025095e-35 1.0000000180025095e-35 2.7370892179000008
decision_type=2 2 2 2 2 2 2 2 2 2 2 2 2 2
left_child=1 2 4 6 5 -1 7 9 -9 -4 -11 12 -8 -6
right_child=-2 -3 3 -5 13 -7 11 8 -10 10 -12 -13 -14 -15
leaf_value=-0.0082297143543439491 0.0097393198702689244 0.018014141439126566 0.018236183991037373 0.0078955591711845369 -0.019665318761367685 0.032798967393972735 -0.0018038449808103541 0.011585567818926274 -0.007696414126834996 -0.028561727023239045 -0.0070958980111880138 0.00091535088016508892 0.028308146488310301 -0.0057471558560089134
leaf_weight=166.9768589194864 1529.9565180456266 445.30858784541488 197.54501853231341 1752.8670238256454 647.41926572658122 164.26981880329549 183.10804033651948 917.48370114993304 862.30394669994712 374.25947702024132 2916.1839303495362 3195.9750243360177 304.64762696065009 2951.9992806678638
leaf_count=5938 35905 9237 6505 35496 26421 4118 4070 28190 22602 14565 91461 91070 6725 93866
internal_value=0 -0.00108683 -0.00166803 0.000118826 -0.00653416 0.012117 -0.001404 -0.00451558 0.00224348 -0.00796447 -0.00953745 0.00304559 0.0170038 -0.00825058
internal_weight=0 15080.3 14635 10704.4 3930.67 331.247 8951.51 5267.78 1779.79 3487.99 3290.44 3683.73 487.756 3599.42
internal_count=476169 440264 431027 300684 130343 10056 265188 163323 50792 112531 106026 101865 10795 120287
is_linear=0
shrinkage=0.1


Tree=35
num_leaves=15
num_cat=0
split_feature=69 4 79 20 34 14 27 0 25 34 31 18 0 73
split_gain=13.0894 16.9017 14.3917 12.321 12.0424 12.8249 11.8481 10.1976 11.9577 9.1375 9.11419 8.87186 13.6812 11.9101
threshold=0.041935751889452123 1.0000000180025095e-35 0.042087868984477465 0.66450165140000006 0.70761063435000016 4.5000000000000009 1.0000000180025095e-35 1.5000000000000002 -1.0000000180025095e-35 0.75317688045000009 65.500000000000014 0.65000000000000002 4.5000000000000009 0.035824625540429568
decision_type=2 2 2 2 2 2 2 2 2 2 2 2 2 2
left_child=1 2 4 -4 6 7 -1 9 10 -6 -9 -7 13 -13
right_child=-2 -3 3 -5 5 11 -8 8 -10 -11 -12 12 -14 -15
leaf_value=0.01489004630910478 0.0086851584347102957 0.0072073353585594378 -0.0092905216714587648 0.018269583174228454 0.019082399631195568 -0.0079370345492828006 -0.0099406946052156813 -0.019189673840245225 0.021711029196319051 -0.0041419350196128133 0.013759109753602981 0.0079243449403630581 -0.011079003008897505 -0.0049713121296568281
leaf_weight=204.97035718336701 1543.3400987870991 2157.8830852396786 224.97599945869297 581.44544513896108 200.88015653938055 2679.8688380979002 3075.2708887076005 159.48652426153421 598.42750481888652 1081.4074571542442 177.26655325107276 1808.0992956776172 928.25842080637813 1185.9485758300871
leaf_count=5746 35905 45380 6785 12245 6801 85986 123860 4226 12715 27655 4432 52260 23239 28934
internal_value=0 -0.000984457 -0.00235409 0.0105808 -0.00321617 -0.00129222 -0.00838911 0.00528764 0.0132285 -0.000503665 -0.00184546 -0.0035022 -0.000472145 0.00281635
internal_weight=0 15064.2 12906.3 806.421 12099.9 8819.64 3280.24 2217.47 935.181 1282.29 336.753 6602.18 3922.31 2994.05
internal_count=476169 440264 394884 19030 375854 246248 129606 55829 21373 34456 8658 190419 104433 81194
is_linear=0
shrinkage=0.1


Tree=36
num_leaves=15
num_cat=0
split_feature=76 18 71 14 31 62 18 6 79 35 35 41 18 79
split_gain=13.5631 13.7403 11.2096 11.3136 9.72731 10.7732 9.54951 9.97648 9.06587 9.72008 9.03729 8.55492 8.38917 9.85506
threshold=0.052804794734828964 0.65000000000000002 0.04387272586938467 7.5000000000000009 16.500000000000004 0.035393602764643602 0.15000000000000005 1.0000000180025095e-35 0.031435521988378602 0.41224991975000008 0.28844389370000006 2.5000000000000004 0.8500000000000002 0.033568622517418177
decision_type=2 2 2 2 2 2 2 2 2 2 2 2 2 2
left_child=2 -2 3 8 -4 -6 -5 12 9 -1 -7 -9 13 -8
right_child=1 -3 4 6 5 10 7 11 -10 -11 -12 -13 -14 -15
leaf_value=-0.0091126822535900816 0.032774265310300373 0.0050731960849754619 -0.0097577310402468913 -0.018541770215605401 -0.0085903938066230669 0.025052932428872788 -0.019322572485626653 -0.0015258574214055589 0.0027398768314119328 0.0085833845576647264 0.006444346449134203 0.018123173042564736 -0.00034671246538927941 -0.0057529026705506331
leaf_weight=1497.6395746078342 220.70932313613594 948.92318666726351 441.12890935968608 527.62419014144689 427.33506500162184 294.00335454940796 811.5175802744925 785.29565425030887 4770.3144344873726 391.54713097121567 2323.6739046052098 308.67974811978638 1284.0763660063967 1571.877738468349
leaf_count=50854 4357 19472 10779 21370 11231 7060 33521 21209 129102 10625 53045 8333 42125 53086
internal_value=0 0.0103004 -0.000868664 -0.00232433 0.00412055 0.00613108 -0.00577715 -0.00436268 0.000417953 -0.00544505 0.00853436 0.00401838 -0.00686268 -0.0103732
internal_weight=0 1169.63 15434.7 11948.6 3486.14 3045.01 5289.07 4761.45 6659.5 1889.19 2617.68 1093.98 3667.47 2383.4
internal_count=476169 23829 452340 370225 82115 71336 179644 158274 190581 61479 60105 29542 128732 86607
is_linear=0
shrinkage=0.1


Tree=37
num_leaves=15
num_cat=0
split_feature=18 18 77 79 76 0 0 79 2 3 1 46 7 48
split_gain=13.0835 20.7872 12.8997 12.6629 9.62332 12.6232 13.6319 12.3355 9.35465 16.4725 15.7431 14.348 11.0291 11.8893
threshold=1.0000000180025095e-35 0.15000000000000005 0.051901860766215328 0.039264779372708919 0.0342277994848127 1.0000000180025095e-35 5.5000000000000009 0.031435521988378602 1.5000000000000002 1.0000000180025095e-35 1.5000000000000002 13.500000000000002 1.0000000180025095e-35 1.0000000180025095e-35
decision_type=2 2 2 2 2 2 2 2 2 2 2 2 2 2
left_child=3 -2 4 -1 5 -3 7 -7 10 12 -6 -11 -10 -14
right_child=1 2 -4 -5 8 6 -8 -9 9 11 -12 -13 13 -15
leaf_value=0.0035953062692670235 -0.015244605048838964 -0.013712204631349631 0.0098967273145125472 0.034468702701588548 -0.0068834118874622104 -0.0096623199830825485 -0.014287998451665552 0.0063059462117318488 -0.0062280097768404119 0.0036052253813781544 0.015367666343906065 0.033483676924094201 0.02855016913465009 -0.00015419239729845254
leaf_weight=368.46209292113781 915.16158825345337 1115.4525705380365 1276.0692139491439 207.75986386369914 461.64589166734368 659.41303917951882 643.15219265501946 1816.2652491088957 3899.7808486232534 3254.2083121240139 1021.6903143441305 169.07262376137078 189.61948723904788 603.72617369424552
leaf_count=11991 34457 36260 24902 5311 13446 22480 17475 51670 119897 88875 25621 4571 4583 14630
internal_value=0 -0.000610031 0.00027633 0.0147269 -0.000611068 -0.00458232 -0.00131701 0.00205269 0.00114059 -0.000193924 0.00844266 0.00508089 -0.00404151 0.00670651
internal_weight=0 16025.3 15110.1 576.222 13834 4234.28 3118.83 2475.68 9599.74 8116.41 1483.34 3423.28 4693.13 793.346
internal_count=476169 458867 424410 17302 399508 127885 91625 74150 271623 232556 39067 93446 139110 19213
is_linear=0
shrinkage=0.1


Tree=38
num_leaves=15
num_cat=0
split_feature=77 21 79 4 0 80 34 41 31 31 73 34 5 77
split_gain=11.5936 12.9447 10.9496 12.3845 10.6384 9.56997 8.98349 8.9558 8.58099 8.45614 8.16118 6.86191 12.036 9.01056
threshold=0.057222234089427164 10.500000000000002 0.042087868984477465 1.0000000180025095e-35 2.5000000000000004 0.042665199499774799 0.60597916095000015 2.5000000000000004 100.50000000000001 47.500000000000007 0.034294625970110799 0.71514027970000005 1.0000000180025095e-35 0.026430223396955298
decision_type=2 2 2 2 2 2 2 2 2 2 2 2 2 2
left_child=2 -2 3 5 9 6 7 10 11 -4 -1 13 -13 -5
right_child=1 -3 4 8 -6 -7 -8 -9 -10 -11 -12 12 -14 -15
leaf_value=-0.013942030664081756 0.027509593438644571 -0.0043001236846844145 0.017565790380448927 0.0011659695933594642 0.02523886658918047 0.0084813527281732484 -0.0022642391041864224 -0.026860539376985234 -0.0059499023723141873 -0.0046715743134195103 0.0079526425205595722 0.011613827776312275 -0.010796277174893093 0.029363109409898131
leaf_weight=480.37166072055697 312.54731864854693 216.57814939878881 260.64121723175049 177.61480293609202 299.45478213950992 758.67077266052365 11091.482394117862 291.51004858314991 479.6001401534304 497.23238311614841 263.70316938590258 817.65748612955213 339.03289516177028 313.11705056391656
leaf_count=20860 6098 3937 5848 5319 6497 20476 333872 12425 8497 11082 10873 13788 8346 8251
internal_value=0 0.0144894 -0.000554614 -0.00124735 0.00928133 -0.00241426 -0.00309589 -0.0120032 0.00582196 0.0029761 -0.00618247 0.00924901 0.00504529 0.0191575
internal_weight=0 529.125 16070.1 15012.8 1057.33 12885.7 12127.1 1035.58 2127.02 757.874 744.075 1647.42 1156.69 490.732
internal_count=476169 10035 466134 442707 23427 398506 378030 44158 44201 16930 31733 35704 22134 13570
is_linear=0
shrinkage=0.1


Tree=39
num_leaves=15
num_cat=0
split_feature=16 77 44 8 39 2 20 79 77 2 26 40 60 61
split_gain=9.74158 9.2114 8.20901 10.0146 8.49471 7.83435 8.21225 7.01813 7.71482 8.36973 8.04422 9.16356 9.20805 8.81984
threshold=1.0000000180025095e-35 0.026051993140943908 8.5000000000000018 1.0000000180025095e-35 0.35000000000000003 7.5000000000000009 0.95671964200000004 0.030032472659497638 0.057222234089427164 5.5000000000000009 2.5000000000000004 4.5000000000000009 0.039869302488569638 0.038658476598904583
decision_type=2 2 2 2 2 2 2 2 2 2 2 2 2 2
left_child=1 -1 4 5 -2 6 -4 -3 10 -10 13 12 -12 -9
right_child=2 7 3 -5 -6 -7 -8 8 9 -11 11 -13 -14 -15
leaf_value=-0.0098931112111101983 0.0012771815295144256 -0.0068124745208849938 -0.0033833356453700329 -0.014952588574115284 0.022029440248281781 0.021854552433936379 0.012498817218292158 0.0014838012886501017 0.0013559818971513641 0.030488471527947366 -0.0052201148069986386 0.020878571874949015 0.0026288506533726787 0.014326822085552707
leaf_weight=1111.0909963864833 329.18801579624414 1503.4155602753162 944.81963632814586 301.73513825051486 492.14430388063192 232.9469024464488 496.73684090934694 3191.8883604584262 225.66722735576332 175.1671592798084 4555.570594413206 169.74617562815547 2224.5127634545788 642.32520577684045
leaf_count=45696 6829 50863 20952 7062 10183 4536 8185 101530 4575 3085 138847 4731 51108 17987
internal_value=0 -0.00116219 0.00530936 0.00181719 0.013712 0.00483901 0.0020894 -0.000397644 0.000464605 0.0140871 -4.17306e-05 -0.00207036 -0.00264491 0.00363532
internal_weight=0 13799.4 2797.57 1976.24 821.332 1674.5 1441.56 12688.3 11184.9 400.834 10784 6949.83 6780.08 3834.21
internal_count=476169 418422 57747 40735 17012 33673 29137 372726 321863 7660 314203 194686 189955 119517
is_linear=0
shrinkage=0.1


Tree=40
num_leaves=15
num_cat=0
split_feature=36 78 80 77 29 25 36 0 35 2 1 80 26 81
split_gain=9.04342 9.06381 11.6756 8.81866 8.38728 16.3096 8.28405 7.81178 7.72023 7.66567 11.8306 8.20454 8.92903 6.9857
threshold=1.8660254038000004 0.040739082240120371 0.030124620721543 0.057222234089427164 1.0000000180025095e-35 1.0000000180025095e-35 2.9142135623500005 4.5000000000000009 0.47953095005000007 6.5000000000000009 1.5000000000000002 0.037482798135207003 1.5000000000000002 0.031982786774329919
decision_type=2 2 2 2 2 2 2 2 2 2 2 2 2 2
left_child=-1 3 -3 4 5 6 -2 -8 -6 11 -11 -4 -13 -7
right_child=1 2 9 -5 8 13 7 -9 -10 10 -12 12 -14 -15
leaf_value=-0.010489886102727476 -0.024720979869265913 -0.016095287217442467 -0.0035811245797958049 0.013601160759722545 0.00072236758615179867 -0.016145176330770446 -0.010540343859375492 0.011701224915830817 -0.022050021554229225 0.019552511965869258 -0.0091384370294938719 0.02096737435116015 0.0032435055856383922 0.0061270129974106821
leaf_weight=792.75220572482795 369.69385498482734 246.0327847385779 974.51859350223094 409.30730295367539 8416.5825992505997 161.41962776985019 1477.7675130898133 176.80686080642045 151.55260070227087 760.75523204449564 177.19464537594467 401.21892831660807 974.91410203278065 1103.8655659146607
leaf_count=30572 14003 7352 27666 7772 242816 5793 46326 4619 3245 17477 4141 10201 22115 32071
internal_value=0 0.000455403 0.00491711 -0.000830202 -0.00132835 -0.0056206 -0.0111875 -0.00816362 0.000319571 0.00648913 0.0141323 0.00343938 0.00841099 0.00328562
internal_weight=0 15801.6 3534.63 12267 11857.7 3289.55 2024.27 1654.57 8568.14 3288.6 937.95 2350.65 1376.13 1265.29
internal_count=476169 445597 88952 356645 348873 102812 64948 50945 246061 81600 21618 59982 32316 37864
is_linear=0
shrinkage=0.1


Tree=41
num_leaves=15
num_cat=0
split_feature=76 69 3 1 2 80 2 61 37 39 77 20 31 43
split_gain=9.91343 8.25947 8.41983 11.5583 23.8618 12.9981 11.3365 11.8005 11.1228 11.0106 10.3435 13.8288 11.1217 8.29257
threshold=0.052804794734828964 0.041935751889452123 1.0000000180025095e-35 1.5000000000000002 2.5000000000000004 0.039116695028284305 4.5000000000000009 0.038658476598904583 0.45000000000000007 0.35000000000000003 0.04205835238420242 0.9897916321500001 96.500000000000014 2.5000000000000004
decision_type=2 2 2 2 2 2 2 2 2 2 2 2 2 2
left_child=1 2 3 6 -5 -6 8 10 -1 -10 -8 -12 -13 -3
right_child=-2 13 -4 4 5 -7 7 -9 9 -11 11 12 -14 -15
leaf_value=-0.018193340329720507 0.0087541911270345805 0.016146317695749896 0.0013060441274235571 0.011601986888795442 -0.025703024124475973 0.0020712530384397183 -0.0096859488207014666 0.0098408099468198125 0.0076315678885770389 -0.012280491531142579 -0.0063119041827075411 0.033227422114575099 0.0019641010513396276 0.00059262704684833834
leaf_weight=1160.1226493343711 1183.8228346649557 547.08159487880766 6070.9262745594606 1207.3685679100454 338.69353084731847 335.31333266012371 1833.4393080817536 653.64435989409685 461.87997150979936 696.41695641260594 724.96095120161772 204.60900699347258 256.35764028131962 917.94075222685933
leaf_count=40813 23829 12892 174390 34492 11528 9607 64223 15249 16209 24413 17921 4020 5003 21580
internal_value=0 -0.000741834 -0.00149229 -0.00365016 0.00318753 -0.0118855 -0.00579727 -0.00234139 -0.0112723 -0.0043404 -0.00497864 0.00229884 0.0158409 0.00640082
internal_weight=0 15408.8 13943.7 7872.81 1881.38 674.007 5991.43 3673.01 2318.42 1158.3 3019.37 1185.93 460.967 1465.02
internal_count=476169 452340 417868 243478 55627 21135 187851 106416 81435 40622 91167 26944 9023 34472
is_linear=0
shrinkage=0.1


Tree=42
num_leaves=15
num_cat=0
split_feature=18 18 26 34 1 0 81 0 3 77 26 23 69 31
split_gain=10.3037 16.6824 8.94437 7.84408 7.2401 7.16509 15.4819 11.9326 9.03571 12.0119 8.84061 7.8995 7.29283 7.27662
threshold=1.0000000180025095e-35 0.15000000000000005 9.5000000000000018 0.60597916095000015 3.5000000000000004 4.5000000000000009 0.037274281357274196 2.5000000000000004 1.0000000180025095e-35 0.05543787248521035 14.500000000000002 -1.0000000180025095e-35 0.042806602148244395 24.500000000000004
decision_type=2 2 2 2 2 2 2 2 2 2 2 2 2 2
left_child=2 -2 -1 -3 5 7 13 8 10 -10 -5 -8 -9 -7
right_child=1 3 -4 4 -6 6 11 12 9 -11 -12 -13 -14 -15
leaf_value=0.024259409505907291 -0.013762851219143987 -0.0072477849370831239 -0.00059777852714797 -0.0036706712308831146 0.01713429218902256 -0.027776445112844286 -0.0015896036820583501 0.0064136572283704681 0.0025532898891018098 0.027801916591674903 0.012887074186514061 0.015715675475310827 0.025256477258991984 -0.0079673757568220725
leaf_weight=319.12234371714294 900.25846635177732 1277.4468414029106 264.94020592514426 4834.8004115680233 270.74112397059798 217.99861349444836 738.3025011010468 1908.2651718286797 3431.3475805362687 199.37275770492852 345.50709967501462 410.41240615770221 230.1775344517082 1241.5965479360893
leaf_count=9620 34457 50524 7682 144298 6882 5473 18488 48407 95702 3893 7555 8101 4792 30295
internal_value=0 -0.000538466 0.0129838 0.000249658 0.000942254 0.000618908 -0.00409123 0.00174093 0.000114604 0.00393976 -0.00256633 0.00459322 0.00844186 -0.010926
internal_weight=0 16006.2 584.063 15106 13828.5 13557.8 2608.31 10949.5 8811.03 3630.72 5180.31 1148.71 2138.44 1459.6
internal_count=476169 458867 17302 424410 373886 367004 62357 304647 251448 99595 151853 26589 53199 35768
is_linear=0
shrinkage=0.1


Tree=43
num_leaves=15
num_cat=0
split_feature=21 29 34 15 18 20 78 53 36 20 37 36 78 2
split_gain=9.13518 12.8795 11.49 8.94727 11.9271 9.67332 8.54801 8.48616 8.2871 11.4797 7.31838 7.30996 8.79349 7.57114
threshold=4.5000000000000009 1.0000000180025095e-35 1.35103648455 1.0000000180025095e-35 0.35000000000000003 0.67938387320000015 0.042485798919935099 1.0000000180025095e-35 2.9142135623500005 0.91804818555000012 0.25000000000000006 3.6736043311500004 0.03353845370130807 6.5000000000000009
decision_type=2 2 2 2 2 2 2 2 2 2 2 2 2 2
left_child=7 2 8 6 5 -5 -3 -1 9 -2 -9 12 13 -6
right_child=1 3 -4 4 11 -7 -8 10 -10 -11 -12 -13 -14 -15
leaf_value=-0.00099891009242653169 -0.022189777325518224 0.0031643321014224119 0.014555423609035684 -0.015424090157972872 0.005293193692141567 0.0058070239799237269 0.01843308086206592 -0.00018879721341031423 -0.0042062306084303487 0.0016567778138184331 0.022456173862251537 -0.0095058708930434929 -0.0005022721839770286 0.024543369272165327
leaf_weight=551.41105518583208 661.17612650245428 4007.2306146658957 269.74317742139101 899.37242387328297 1019.2439915100113 281.85343647748232 403.58257081732154 203.53995677642524 3016.172231295146 290.60243239160627 477.57807806972414 621.3877327805385 3630.1296603102237 255.5338090416044
leaf_count=15047 26656 97483 4697 35798 32133 8104 7619 5633 89598 8883 13070 15818 107871 7759
internal_value=0 -0.000724771 -0.00541577 0.00106318 -0.00123722 -0.0103581 0.0045614 0.0082232 -0.00677342 -0.0149088 0.0156891 0.000712335 0.00200685 0.00915196
internal_weight=0 15356 4237.69 11118.3 6707.52 1181.23 4410.81 1232.53 3967.95 951.779 681.118 5526.3 4904.91 1274.78
internal_count=476169 442419 129834 312585 207483 43902 105102 33750 125137 35539 18703 163581 147763 39892
is_linear=0
shrinkage=0.1


Tree=44
num_leaves=15
num_cat=0
split_feature=18 18 80 36 23 1 0 77 21 18 38 44 21 8
split_gain=8.38395 12.3758 7.50024 6.99391 10.0806 9.91991 8.73157 11.0075 12.0931 11.3599 9.00301 8.72315 8.2519 7.57172
threshold=1.0000000180025095e-35 0.15000000000000005 0.03969037697810103 3.6736043311500004 1.0000000180025095e-35 1.5000000000000002 4.5000000000000009 0.026430223396955298 4.5000000000000009 0.55000000000000016 0.8500000000000002 10.500000000000002 8.5000000000000018 1.0000000180025095e-35
decision_type=2 2 2 2 2 2 2 2 2 2 2 2 2 2
left_child=2 -2 -1 4 6 12 7 9 -9 -3 -8 -11 -5 -6
right_child=1 3 -4 5 13 -7 10 8 -10 11 -12 -13 -14 -15
leaf_value=0.0041319037886158221 -0.011994371554142746 -0.024870830772002566 0.02855321180116261 -0.00055547670179692142 0.0086380880334322365 0.0061149211645139239 -0.0044040565219717201 0.017031092199642769 0.0011365797998819018 0.0030119942758097037 -0.027966813459014868 -0.023653464046525692 -0.017532333403280052 -0.0058557117991459903
leaf_weight=408.79754727706313 883.36536330636591 306.39509808458388 181.63474229723215 474.70898475777358 2302.4044551644474 488.65521202608943 1663.4930864553899 512.50773300230503 7251.89672548417 632.04079477861524 179.67124840803444 152.22822866030037 721.42829385958612 427.33664599899203
leaf_count=12526 34457 13984 4776 13132 49723 11266 45120 14069 215256 23908 4903 5775 16097 11177
internal_value=0 -0.000489535 0.0116446 0.000182941 0.000944943 -0.00589029 -0.000439077 0.000864319 0.00218573 -0.0085428 -0.00670095 -0.00216383 -0.0107948 0.00636911
internal_weight=0 15996.1 590.432 15112.8 13428 1684.79 10698.2 8855.07 7764.4 1090.66 1843.16 784.269 1196.14 2729.74
internal_count=476169 458867 17302 424410 383915 40495 323015 272992 229325 43667 50023 29683 29229 60900
is_linear=0
shrinkage=0.1


Tree=45
num_leaves=15
num_cat=0
split_feature=19 14 2 15 79 53 4 45 59 57 19 44 50 31
split_gain=9.25683 7.94773 10.0825 9.22704 7.83706 7.7425 10.7466 7.585 7.09067 9.97718 10.319 7.75907 7.18412 6.62001
threshold=1.5500000000000003 6.5000000000000009 9.5000000000000018 1.0000000180025095e-35 0.042087868984477465 1.0000000180025095e-35 5.5000000000000009 3.5000000000000004 0.035075327381866979 1.0000000180025095e-35 0.25000000000000006 8.5000000000000018 6.5000000000000009 101.50000000000001
decision_type=2 2 2 2 2 2 2 2 2 2 2 2 2 2
left_child=1 2 -1 4 8 7 -7 -5 9 -3 -11 12 -10 -2
right_child=13 3 -4 5 -6 6 -8 -9 11 10 -12 -13 -14 -15
leaf_value=0.0013889155597975669 0.022972530841436595 0.0098538214125789905 0.023115926546838805 -0.0058789399801912204 0.022902053447877928 -0.002662350836122505 0.020720461905358714 -0.019254728043559523 0.031199061566742504 -0.03114046051897898 -0.002479102506781575 0.00041358051334033788 0.006024568487277354 -0.0006671192682041609
leaf_weight=6736.9653115039691 294.07698400504887 242.36483243852854 220.57648547552526 2406.8485423373058 178.02384430076927 3424.881606630981 208.51959378831089 514.59541443828493 181.64088024850935 219.88940812274814 292.99533098656684 1163.9100055759773 301.54669434949756 198.36909204348922
leaf_count=180548 6291 6326 5170 78715 3435 114177 4355 16709 4188 8835 9395 27352 7105 3568
internal_value=0 -0.000468734 0.00207773 -0.00240817 0.00265721 -0.0044022 -0.00132042 -0.00823501 0.00115699 -0.00686608 -0.0147671 0.00483583 0.0154882 0.0134499
internal_weight=0 16092.8 6957.54 9135.22 2580.37 6554.85 3633.4 2921.44 2402.35 755.25 512.885 1647.1 483.188 492.446
internal_count=476169 466310 185718 280592 66636 213956 118532 95424 63201 24556 18230 38645 11293 9859
is_linear=0
shrinkage=0.1


Tree=46
num_leaves=15
num_cat=0
split_feature=69 74 26 14 1 67 2 0 23 2 1 0 55 81
split_gain=6.64359 7.53119 8.73848 8.53184 9.09086 9.08686 13.7458 13.4101 13.0595 12.8764 14.2981 13.3021 12.4687 12.0938
threshold=0.041935751889452123 0.042640615310463564 1.5000000000000002 12.500000000000002 1.5000000000000002 0.036717848843270284 3.5000000000000004 4.5000000000000009 -1.0000000180025095e-35 1.5000000000000002 1.5000000000000002 1.5000000000000002 1.0000000180025095e-35 0.037274281357274196
decision_type=2 2 2 2 2 2 2 2 2 2 2 2 2 2
left_child=1 3 -3 5 -5 9 -7 -8 -9 10 -1 12 -11 -13
right_child=-2 2 -4 4 -6 6 7 8 -10 11 -12 13 -14 -15
leaf_value=-0.010290661161612483 0.006125361785730336 0.017837779696897784 0.00070896975746483331 -0.0060242844920476973 -0.032789801436214606 -0.0032957833334400439 0.010504976633711589 -0.015055523041566689 0.010706203010707004 -0.0047361970420308295 0.014416868208016367 -0.0060428250860944163 -0.017655544799452198 0.0069201564936378843
leaf_weight=338.00580825470388 1575.0338110579178 448.74823966994882 885.66141714714468 597.77311509847641 161.09565855748951 2512.0580569198355 2320.2050893381238 476.94893977232277 334.98388809803873 2129.241939611733 762.78318434674293 1534.7151657044888 1150.7750728493556 1355.2488776426762
leaf_count=11114 35905 9511 16469 19659 5595 80044 61505 12597 6649 73294 21036 47300 39622 35869
internal_value=0 -0.000701587 0.00646921 -0.00140137 -0.0117062 -0.000795877 0.0022147 0.00663425 -0.00442686 -0.00313294 0.00683023 -0.00491048 -0.00926888 3.61662e-05
internal_weight=0 15008.2 1334.41 13673.8 758.869 12915 5644.2 3132.14 811.933 7270.77 1100.79 6169.98 3280.02 2889.96
internal_count=476169 440264 25980 414284 25254 389030 160795 80751 19246 228235 32150 196085 112916 83169
is_linear=0
shrinkage=0.1


Tree=47
num_leaves=15
num_cat=0
split_feature=19 81 80 35 26 77 76 77 35 19 20 35 47 14
split_gain=7.23293 6.78478 7.47445 7.85973 6.16035 7.41724 6.61255 6.9432 7.26103 6.2922 6.07447 6.93683 6.65054 6.5993
threshold=1.5500000000000003 0.042369664758381907 0.039297228081991431 0.42267004685000004 2.5000000000000004 0.057222234089427164 0.0342277994848127 0.028509493349578641 0.38268785680000006 0.25000000000000006 0.67198396255000004 0.39465161815000005 6.5000000000000009 8.5000000000000018
decision_type=2 2 2 2 2 2 2 2 2 2 2 2 2 2
left_child=1 4 -3 -4 6 -6 7 -1 -9 -8 13 12 -12 -11
right_child=-2 2 3 -5 5 -7 9 8 -10 10 11 -13 -14 -15
leaf_value=-0.018359897417967612 0.011806534070535861 -0.00037268559600690083 0.0066622781925137434 0.035734265964102077 -0.0029627998399803057 0.0099563728006884112 -0.00084833339683972216 0.0046188942884554029 -0.010780131497850056 0.027021029243162822 0.0032912878131119375 -0.0093820621888825121 0.018090401341628686 0.0018066941517713648
leaf_weight=261.22952528111637 498.85702365264297 451.30377571098506 226.37044101394713 157.83401111140847 9519.9857911700383 466.15934021957219 1453.5254409667104 908.58722604159266 461.85573632083833 289.43265789560974 1007.0047664158046 282.5274478122592 434.75825079344213 161.84506959002465
leaf_count=10730 9859 12093 5004 3526 268188 8526 53010 31118 13592 9330 26423 6972 11494 6304
internal_value=0 -0.000419972 0.00835423 0.0186053 -0.000900786 -0.00235972 0.00186862 -0.00341879 -0.000570762 0.00424588 0.00764939 0.00494615 0.00775391 0.0179782
internal_weight=0 16082.4 835.508 384.204 15246.9 9986.15 5260.77 1631.67 1370.44 3629.09 2175.57 1724.29 1441.76 451.278
internal_count=476169 466310 20623 8530 445687 276714 168973 55440 44710 113533 60523 44889 37917 15634
is_linear=0
shrinkage=0.1


Tree=48
num_leaves=15
num_cat=0
split_feature=76 38 35 35 41 42 32 34 80 21 0 38 76 34
split_gain=6.45427 8.77827 7.91292 9.73416 5.54972 8.27172 5.42871 13.4354 6.62561 5.73957 8.09141 7.23225 6.98148 8.25815
threshold=0.052804794734828964 0.45000000000000007 0.41430661015000009 0.35839921195000002 2.5000000000000004 7.5000000000000009 1.0000000180025095e-35 0.90535311135000007 0.03969037697810103 4.5000000000000009 6.5000000000000009 0.75000000000000011 0.0342277994848127 1.35103648455
decision_type=2 2 2 2 2 2 2 2 2 2 2 2 2 2
left_child=6 2 3 -2 5 -3 7 8 -1 10 11 -8 13 -11
right_child=1 4 -4 -5 -6 -7 9 -9 -10 12 -12 -13 -14 -15
leaf_value=-0.0065891119527585534 0.0067607949482851142 -0.011826537830479392 -0.0039202888559039884 0.036478322602148089 -0.016685812454183269 0.01622811685274338 0.0051140159604485562 0.033205672684732256 0.015345106360244594 -0.006344294207804412 -0.014127456454645465 0.027025074343575789 -0.00013707432119894856 0.011972055524710281
leaf_weight=408.30174192134291 209.17835361510515 179.93353759497404 153.6921203546226 232.99744185432792 171.77041244506836 252.68463086523116 778.41447636764497 161.58517629280686 207.80522618629038 3710.8895797710866 173.05472399480641 186.79086058866233 9489.5491803884506 263.64079911075532
leaf_count=11255 4098 3579 2751 4962 3398 5041 21903 3523 4736 119305 4223 5312 277534 4549
internal_value=0 0.00701311 0.015626 0.02242 -0.00147839 0.00455969 -0.00060074 0.00754025 0.000809027 -0.00103431 0.0057843 0.00935434 -0.00161076 -0.00512932
internal_weight=0 1200.26 595.868 442.176 604.389 432.618 15380 777.692 616.107 14602.3 1138.26 965.205 13464.1 3974.53
internal_count=476169 23829 11811 9060 12018 8620 452340 19514 15991 432826 31438 27215 401388 123854
is_linear=0
shrinkage=0.1


Tree=49
num_leaves=15
num_cat=0
split_feature=2 4 68 2 31 34 5 21 80 50 38 76 27 37
split_gain=6.37099 6.71104 11.3421 8.81691 7.71952 6.10991 9.57593 7.94551 5.87341 7.44858 6.62107 9.64795 6.55846 6.66877
threshold=10.500000000000002 1.0000000180025095e-35 0.069528561884173598 1.0000000180025095e-35 97.500000000000014 0.71783435160000009 1.0000000180025095e-35 10.500000000000002 0.033229445003675605 13.500000000000002 0.15000000000000005 0.052804794734828964 1.0000000180025095e-35 0.25000000000000006
decision_type=2 2 2 2 2 2 2 2 2 2 2 2 2 2
left_child=1 3 4 -1 5 7 -7 -3 12 10 11 -10 -5 -14
right_child=-2 2 -4 8 -6 6 -8 -9 9 -11 -12 -13 13 -15
leaf_value=0.012226828394034477 0.013973598018639009 0.006891244811485087 0.027950384507834269 0.011047676713145091 -0.0078142131954277837 0.0077009768630037908 -0.012184128435112455 0.034257114690963097 -0.0080957919914903306 0.017667021738578439 0.00048059057852703767 0.018146818502256776 -0.013341066752831443 -0.0033945297072154055
leaf_weight=474.39357608277351 317.85759353265166 355.00819326657802 190.6371203456074 231.55793217197061 544.41637870855629 834.53871119394898 341.17848826758564 151.32038586586714 1792.5507526723668 222.77996901515871 7760.8903026795015 151.97153547778726 962.9201615890488 2247.0514238383621
leaf_count=8882 9042 9770 3283 5665 10251 13571 8248 3679 53156 6435 225037 3096 34912 81142
internal_value=0 -0.000321622 0.00454025 -0.00117048 0.0025358 0.00588572 0.00193057 0.0150698 -0.00164585 -0.000411822 -0.000826807 -0.00604484 -0.00520579 -0.00637827
internal_weight=0 16261.2 2417.1 13844.1 2226.46 1682.05 1175.72 506.329 13369.7 9928.19 9705.41 1944.52 3441.53 3209.97
internal_count=476169 467127 48802 418325 45519 35268 21819 13449 409443 287724 281289 56252 121719 116054
is_linear=0
shrinkage=0.1


Tree=50
num_leaves=15
num_cat=0
split_feature=18 18 31 77 2 80 0 37 8 69 38 31 23 46
split_gain=6.58964 9.77932 6.81148 5.87088 4.49426 13.0302 11.3138 8.96201 6.62113 8.62044 7.92296 7.62761 7.24086 8.28163
threshold=1.0000000180025095e-35 0.15000000000000005 64.500000000000014 0.043282839157363841 6.5000000000000009 0.030124620721543 4.5000000000000009 0.45000000000000007 1.0000000180025095e-35 0.029337917118304056 0.15000000000000005 51.500000000000007 1.0000000180025095e-35 8.5000000000000018
decision_type=2 2 2 2 2 2 2 2 2 2 2 2 2 2
left_child=2 3 -1 -2 7 6 -6 -3 10 -10 12 -12 13 -7
right_child=1 4 -4 -5 5 8 -8 -9 9 -11 11 -13 -14 -15
leaf_value=-0.00063467134480268777 -0.016623370874306244 -0.0036754670369401605 0.020735395709892891 0.00070273128359600525 -0.0009361923722093267 0.0032080676664701414 -0.033705210284353582 0.0019683210126277295 -0.0220164013258583 0.0027863911698944826 0.018454590531763553 0.0058339372297114417 0.014460744189570435 -0.027406733974018844
leaf_weight=292.27573868725449 575.10590339172632 5612.6255459273234 304.58686919603497 296.34423886239529 292.52223392575979 186.72096353210509 164.67333030421287 5641.8991953162476 177.67123855184764 663.17256243899465 765.82313870918006 1278.0705571724102 158.00384892616421 167.73374960292131
leaf_count=8709 26019 161328 8593 8438 9767 5036 5061 161147 5890 17851 19641 31028 3081 4580
internal_value=0 -0.000431026 0.0102708 -0.0107315 0.000163082 0.0031102 -0.012739 -0.000846233 0.00524319 -0.00245447 0.00777513 0.0105627 -0.00334304 -0.0112794
internal_weight=0 15980.4 596.863 871.45 15108.9 3854.39 457.196 11254.5 3397.2 840.844 2556.35 2043.89 512.459 354.455
internal_count=476169 458867 17302 34457 424410 101935 14828 322475 87107 23741 63366 50669 12697 9616
is_linear=0
shrinkage=0.1


Tree=51
num_leaves=15
num_cat=0
split_feature=67 18 0 68 50 0 14 29 81 34 34 34 49 39
split_gain=5.42536 8.98425 7.76301 10.092 7.34004 7.30123 12.7359 12.2547 12.0105 8.79609 7.89542 7.09999 13.5558 8.06286
threshold=0.036717848843270284 1.0000000180025095e-35 4.5000000000000009 0.037772029207248238 6.5000000000000009 1.5000000000000002 4.5000000000000009 1.0000000180025095e-35 0.042369664758381907 1.1424925628500002 0.58661904230000006 0.68593454370000018 2.5000000000000004 0.35000000000000003
decision_type=2 2 2 2 2 2 2 2 2 2 2 2 2 2
left_child=5 -2 11 4 -4 7 9 -1 10 -7 -8 12 -3 -13
right_child=1 2 3 -5 -6 6 8 -9 -10 -11 -12 13 -14 -15
leaf_value=-0.01219541723183399 0.019593614456628536 -0.014582933489407002 -0.02020683081866384 0.011784551142313918 -0.0033804879904297744 0.0066767140997690926 -0.022102524585326619 -0.0011832492949906735 0.021612522134322926 0.03032661753561899 -0.0017609964245264391 -0.00034523602637253389 0.0058473493394325185 0.0085678930873917727
leaf_weight=1389.8972598100081 279.64749560598284 595.70410566683859 412.34853154979646 274.52260087989271 698.2517732931301 771.79654094576836 204.2307055387646 3702.5338021963835 209.99381011538208 197.51015509665012 2904.3602929208428 1697.7047022413462 714.07384283654392 2523.4979621963575
leaf_count=47030 7625 21748 11266 4360 19029 19918 8621 115009 4936 2901 79162 43641 26085 64838
internal_value=0 0.00202133 0.00131081 -0.00538404 -0.00962785 -0.00162879 0.0014116 -0.00418884 -0.00153381 0.0114957 -0.00309741 0.0029874 -0.00344461 0.00498317
internal_weight=0 7195.75 6916.1 1385.12 1110.6 9380.32 4287.89 5092.43 3318.58 969.307 3108.59 5530.98 1309.78 4221.2
internal_count=476169 198592 190967 34655 30295 277577 115538 162039 92719 22819 87783 156312 47833 108479
is_linear=0
shrinkage=0.1


Tree=52
num_leaves=15
num_cat=0
split_feature=19 34 31 19 43 14 29 78 14 81 19 31 14 1
split_gain=5.3345 6.91733 5.95767 4.89414 5.33894 5.17354 5.59184 5.03591 7.73696 7.08031 6.45411 4.78688 4.31356 8.92179
threshold=1.5500000000000003 0.86977216310000005 89.500000000000014 1.4500000000000002 5.5000000000000009 4.5000000000000009 1.0000000180025095e-35 0.043956424457718433 3.5000000000000004 0.037274281357274196 0.65000000000000002 79.500000000000014 12.500000000000002 3.5000000000000004
decision_type=2 2 2 2 2 2 2 2 2 2 2 2 2 2
left_child=3 -2 -3 4 7 -6 -7 12 -9 10 -10 -11 13 -1
right_child=1 2 -4 -5 5 6 -8 8 9 11 -12 -13 -14 -15
leaf_value=-0.00097053393355127728 0.026848246918187758 0.015969191711676985 -0.010542538028675292 -0.015265969849431019 0.023668580950150682 -0.01251811907856535 0.010337688200730121 0.026687794460407255 -0.013534304320886087 0.0025144207383606021 0.010938413444072528 0.026608185697730463 -0.0085426041896941637 0.018158863889637483
leaf_weight=13229.342072976753 165.36341717280447 159.91037187166512 180.36693193949759 217.33762760274112 169.20279447641224 152.83417065721005 357.27925490215421 157.78143322654068 318.51398677751422 177.00513465702534 162.86658913269639 154.37979080248624 723.76484248973429 248.3863414414227
leaf_count=386510 3858 2988 3013 4647 4468 4860 10410 3367 9314 4425 3816 3728 24199 6566
internal_value=0 0.0100701 0.00191642 -0.000361602 -0.000157249 0.00851597 0.0034899 -0.000545585 0.0064235 0.00248961 -0.00525439 0.0137388 -0.00102186 -0.000617991
internal_weight=0 505.641 340.277 16068.7 15851.4 679.316 510.113 15172 970.547 812.766 481.381 331.385 14201.5 13477.7
internal_count=476169 9859 6001 466310 461663 19738 15270 441925 24650 21283 13130 8153 417275 393076
is_linear=0
shrinkage=0.1


Tree=53
num_leaves=15
num_cat=0
split_feature=21 33 35 44 76 35 34 19 7 58 20 20 20 35
split_gain=5.33269 9.68451 8.16623 7.62458 6.40063 10.5245 7.78463 7.54154 5.89038 7.48729 7.82636 6.94609 7.44369 7.95809
threshold=4.5000000000000009 0.42373340265000009 0.36755949380000003 9.5000000000000018 0.0342277994848127 0.47460502590000003 1.35103648455 1.6500000000000001 1.0000000180025095e-35 3.5000000000000004 0.74351358820000013 0.40039024425000008 1.3008410685000003 0.30124712085000005
decision_type=2 2 2 2 2 2 2 2 2 2 2 2 2 2
left_child=1 2 -1 -3 6 7 -2 8 11 10 -10 -6 -13 -14
right_child=4 3 -4 -5 5 -7 -8 -9 9 -11 -12 12 13 -15
